%YAML:1.0
---
opencv_ml_rtrees:
   format: 3
   is_classifier: 0
   var_all: 3
   var_count: 2
   ord_var_count: 3
   cat_var_count: 0
   training_params:
      use_surrogates: 0
      max_categories: 10
      regression_accuracy: 9.9999999747524271e-07
      max_depth: 5
      min_sample_count: 1
      cross_validation_folds: 0
      nactive_vars: 0
   global_var_idx: 1
   var_idx: [ 0, 1 ]
   var_type: [ 0, 0, 0 ]
   cat_ofs: [ 0, 0, 0, 0 ]
   missing_subst: [ 0., 0., 0. ]
   oob_error: 9.2524324259485667e-06
   ntrees: 1
   trees:
      -
         nodes:
            -
               depth: 0
               value: 2.9549042388395058e-03
               splits:
                  - { var:0, quality:4.8420208622701466e-04, le:265000. }
            -
               depth: 1
               value: 4.4480317737907171e-03
               splits:
                  - { var:0, quality:5.1158928545191884e-04, le:245000. }
            -
               depth: 2
               value: 2.5618120985613627e-03
               splits:
                  - { var:0, quality:7.2741582698654383e-05, le:165000. }
            -
               depth: 3
               value: 2.7659154729917645e-03
            -
               depth: 3
               value: 2.3168880492448808e-03
               splits:
                  - { var:0, quality:2.6843343221116811e-05, le:200000. }
            -
               depth: 4
               value: 2.3384667777766785e-03
            -
               depth: 4
               value: 2.2845199564471841e-03
            -
               depth: 2
               value: 1.4822239987552166e-02
            -
               depth: 1
               value: 2.4440974505667234e-03
