%YAML:1.0
---
opencv_ml_rtrees:
   format: 3
   is_classifier: 0
   var_all: 3
   var_count: 2
   ord_var_count: 3
   cat_var_count: 0
   training_params:
      use_surrogates: 0
      max_categories: 10
      regression_accuracy: 9.9999999747524271e-07
      max_depth: 5
      min_sample_count: 1
      cross_validation_folds: 0
      nactive_vars: 0
   global_var_idx: 1
   var_idx: [ 0, 1 ]
   var_type: [ 0, 0, 0 ]
   cat_ofs: [ 0, 0, 0, 0 ]
   missing_subst: [ 0., 0., 0. ]
   oob_error: 3.3187384714225343e-04
   ntrees: 1
   trees:
      -
         nodes:
            -
               depth: 0
               value: 1.4326698442309863e-01
               splits:
                  - { var:0, quality:5.6366825103759766e-01, le:5951. }
            -
               depth: 1
               value: 7.9052272286319822e-02
               splits:
                  - { var:0, quality:1.0765559971332550e-01, le:2879. }
            -
               depth: 2
               value: 1.1436732362199109e-02
               splits:
                  - { var:0, quality:1.0020274203270674e-03, le:1599. }
            -
               depth: 3
               value: 5.1198767711563660e-03
            -
               depth: 3
               value: 3.0387299135327339e-02
            -
               depth: 2
               value: 1.0910362336370680e-01
            -
               depth: 1
               value: 2.6252287839140209e-01
               splits:
                  - { var:0, quality:4.9112927913665771e-01, le:6975. }
            -
               depth: 2
               value: 1.7616100609302521e-01
            -
               depth: 2
               value: 2.7691652377446491e-01
               splits:
                  - { var:0, quality:4.6284621953964233e-01, le:8511. }
            -
               depth: 3
               value: 2.6177924871444702e-01
               splits:
                  - { var:1, quality:2.7417656779289246e-01, le:1. }
            -
               depth: 4
               value: 2.6865598559379578e-01
            -
               depth: 4
               value: 2.5948700308799744e-01
            -
               depth: 3
               value: 3.0719107389450073e-01
               splits:
                  - { var:0, quality:1.8900342285633087e-01, le:9279. }
            -
               depth: 4
               value: 2.9555699229240417e-01
            -
               depth: 4
               value: 3.1882515549659729e-01
