%YAML:1.0
---
opencv_ml_rtrees:
   format: 3
   is_classifier: 0
   var_all: 3
   var_count: 2
   ord_var_count: 3
   cat_var_count: 0
   training_params:
      use_surrogates: 0
      max_categories: 10
      regression_accuracy: 9.9999999747524271e-07
      max_depth: 5
      min_sample_count: 1
      cross_validation_folds: 0
      nactive_vars: 0
   global_var_idx: 1
   var_idx: [ 0, 1 ]
   var_type: [ 0, 0, 0 ]
   cat_ofs: [ 0, 0, 0, 0 ]
   missing_subst: [ 0., 0., 0. ]
   oob_error: 2.4892258103702339e-02
   ntrees: 50
   trees:
      -
         nodes:
            -
               depth: 0
               value: 7.3812801514627613e-01
               splits:
                  - { var:0, quality:6.0878913879394531e+01, le:18495. }
            -
               depth: 1
               value: 2.9589795024739507e-01
               splits:
                  - { var:0, quality:5.6864285469055176e+00, le:10815. }
            -
               depth: 2
               value: 1.4124420958082087e-01
               splits:
                  - { var:0, quality:8.8368195295333862e-01, le:6463. }
            -
               depth: 3
               value: 6.0931822196734070e-02
               splits:
                  - { var:0, quality:1.1113786697387695e-01, le:3391. }
            -
               depth: 4
               value: 2.1352819615210385e-02
            -
               depth: 4
               value: 1.2312739768198558e-01
               splits:
                  - { var:0, quality:1.0959506034851074e-01, le:4159. }
            -
               depth: 5
               value: 8.7910898029804230e-02
            -
               depth: 5
               value: 1.3721399754285812e-01
            -
               depth: 3
               value: 2.8580650687217712e-01
               splits:
                  - { var:0, quality:8.2208728790283203e-01, le:8767. }
            -
               depth: 4
               value: 2.7436788380146027e-01
               splits:
                  - { var:0, quality:6.0326039791107178e-01, le:7999. }
            -
               depth: 5
               value: 2.6554240584373473e-01
            -
               depth: 5
               value: 2.8907701373100281e-01
            -
               depth: 4
               value: 3.3156099915504456e-01
               splits:
                  - { var:0, quality:2.2042217850685120e-01, le:9791. }
            -
               depth: 5
               value: 3.1487599015235901e-01
            -
               depth: 5
               value: 3.4824600815773010e-01
            -
               depth: 2
               value: 6.0520543158054352e-01
               splits:
                  - { var:0, quality:5.2718896865844727e+00, le:14655. }
            -
               depth: 3
               value: 4.6911039948463440e-01
            -
               depth: 3
               value: 6.8081378274493742e-01
            -
               depth: 1
               value: 1.2269086131924076e+00
               splits:
                  - { var:0, quality:5.9599334716796875e+01, le:31039. }
            -
               depth: 2
               value: 1.0126889646053314e+00
               splits:
                  - { var:1, quality:2.2633989334106445e+01,
                      le:1.5000000000000000e+00 }
            -
               depth: 3
               value: 1.0396817889478471e+00
            -
               depth: 3
               value: 8.9122125506401062e-01
               splits:
                  - { var:0, quality:3.1886830329895020e+00, le:20031. }
            -
               depth: 4
               value: 7.9802101850509644e-01
            -
               depth: 4
               value: 9.2228800058364868e-01
            -
               depth: 2
               value: 1.5214606299996376e+00
               splits:
                  - { var:0, quality:3.7515609741210938e+01, le:35391. }
            -
               depth: 3
               value: 1.3875580072402953e+00
            -
               depth: 3
               value: 1.7446316679318745e+00
               splits:
                  - { var:0, quality:1.8277517318725586e+01, le:37183. }
            -
               depth: 4
               value: 1.8155300021171570e+00
               splits:
                  - { var:0, quality:6.6513290405273438e+00, le:36159. }
            -
               depth: 5
               value: 1.6437300443649292e+00
            -
               depth: 5
               value: 1.9873299598693848e+00
            -
               depth: 4
               value: 1.7091825008392334e+00
      -
         nodes:
            -
               depth: 0
               value: 7.2755114445803881e-01
               splits:
                  - { var:0, quality:6.3104110717773438e+01, le:20031. }
            -
               depth: 1
               value: 2.8962112656051392e-01
               splits:
                  - { var:0, quality:5.5434288978576660e+00, le:9535. }
            -
               depth: 2
               value: 1.2176376496273196e-01
               splits:
                  - { var:1, quality:4.8691383004188538e-01, le:1. }
            -
               depth: 3
               value: 9.1287231529263185e-02
               splits:
                  - { var:0, quality:3.3381012082099915e-01, le:3903. }
            -
               depth: 4
               value: 2.3068754739842216e-02
               splits:
                  - { var:0, quality:1.0568984784185886e-02, le:1855. }
            -
               depth: 5
               value: 4.9680198687080219e-03
            -
               depth: 5
               value: 3.8583670343671529e-02
            -
               depth: 4
               value: 2.0214225631207228e-01
            -
               depth: 3
               value: 2.4976520538330077e-01
               splits:
                  - { var:0, quality:3.1217816472053528e-01, le:7231. }
            -
               depth: 4
               value: 2.4085099995136261e-01
            -
               depth: 4
               value: 2.5570800900459290e-01
            -
               depth: 2
               value: 5.0783569663763051e-01
            -
               depth: 1
               value: 1.3200446980841019e+00
               splits:
                  - { var:0, quality:6.1022079467773438e+01, le:33343. }
            -
               depth: 2
               value: 1.1512268158522518e+00
               splits:
                  - { var:1, quality:2.9212018966674805e+01,
                      le:1.5000000000000000e+00 }
            -
               depth: 3
               value: 1.1621286641983759e+00
               splits:
                  - { var:0, quality:2.8759361267089844e+01, le:28223. }
            -
               depth: 4
               value: 1.0177491903305054e+00
            -
               depth: 4
               value: 1.2933827313509854e+00
            -
               depth: 3
               value: 9.2228800058364868e-01
            -
               depth: 2
               value: 1.6295441488424938e+00
               splits:
                  - { var:0, quality:3.2055961608886719e+01, le:35903. }
            -
               depth: 3
               value: 1.4802719831466675e+00
            -
               depth: 3
               value: 1.7361671243395125e+00
      -
         nodes:
            -
               depth: 0
               value: 8.2471279697010691e-01
               splits:
                  - { var:0, quality:7.5488807678222656e+01, le:16191. }
            -
               depth: 1
               value: 1.6206799471086317e-01
               splits:
                  - { var:0, quality:1.2899900674819946e+00, le:6975. }
            -
               depth: 2
               value: 7.7382942377187736e-02
            -
               depth: 2
               value: 3.5966645015610588e-01
               splits:
                  - { var:0, quality:1.2216879129409790e+00, le:11839. }
            -
               depth: 3
               value: 3.1696100320134846e-01
               splits:
                  - { var:1, quality:7.0542699098587036e-01, le:1. }
            -
               depth: 4
               value: 2.8907701373100281e-01
            -
               depth: 4
               value: 3.2811459898948669e-01
               splits:
                  - { var:0, quality:5.5577164888381958e-01, le:9279. }
            -
               depth: 5
               value: 2.5570800900459290e-01
            -
               depth: 5
               value: 3.7638565897941589e-01
            -
               depth: 3
               value: 5.0913551449775696e-01
               splits:
                  - { var:0, quality:5.2996760606765747e-01, le:13631. }
            -
               depth: 4
               value: 4.3320900201797485e-01
            -
               depth: 4
               value: 5.8506202697753906e-01
            -
               depth: 1
               value: 1.2222996783256530e+00
               splits:
                  - { var:0, quality:7.9135360717773438e+01, le:27711. }
            -
               depth: 2
               value: 9.1232933104038239e-01
               splits:
                  - { var:0, quality:2.0364509582519531e+01, le:23103. }
            -
               depth: 3
               value: 8.1381100018819175e-01
               splits:
                  - { var:0, quality:9.9904193878173828e+00, le:19519. }
            -
               depth: 4
               value: 7.4843613590512958e-01
            -
               depth: 4
               value: 8.7101400643587112e-01
               splits:
                  - { var:0, quality:6.0779175758361816e+00, le:22335. }
            -
               depth: 5
               value: 8.9640240669250493e-01
            -
               depth: 5
               value: 8.2870000600814819e-01
            -
               depth: 3
               value: 1.0765265491273668e+00
            -
               depth: 2
               value: 1.5084261527428260e+00
               splits:
                  - { var:0, quality:5.9791713714599609e+01, le:34367. }
            -
               depth: 3
               value: 1.3262727260589600e+00
               splits:
                  - { var:0, quality:1.9375879287719727e+01, le:33599. }
            -
               depth: 4
               value: 1.3029666741689045e+00
            -
               depth: 4
               value: 1.4311499595642090e+00
            -
               depth: 3
               value: 1.6420053323109944e+00
               splits:
                  - { var:0, quality:4.0527980804443359e+01, le:35903. }
            -
               depth: 4
               value: 1.5614085878644670e+00
            -
               depth: 4
               value: 1.7125274837017059e+00
               splits:
                  - { var:0, quality:2.3548307418823242e+01, le:36927. }
            -
               depth: 5
               value: 1.9873299598693848e+00
            -
               depth: 5
               value: 1.6732699871063232e+00
      -
         nodes:
            -
               depth: 0
               value: 9.2604390106039314e-01
               splits:
                  - { var:1, quality:7.6756874084472656e+01,
                      le:5.0000000000000000e-01 }
            -
               depth: 1
               value: 1.6614011320386149e-01
               splits:
                  - { var:0, quality:4.6941584348678589e-01, le:5439. }
            -
               depth: 2
               value: 5.8830048003073898e-02
            -
               depth: 2
               value: 2.7345017840464908e-01
            -
               depth: 1
               value: 1.0601445695056635e+00
               splits:
                  - { var:1, quality:8.5732185363769531e+01,
                      le:1.5000000000000000e+00 }
            -
               depth: 2
               value: 1.3246273729536269e+00
            -
               depth: 2
               value: 5.4267821493356128e-01
      -
         nodes:
            -
               depth: 0
               value: 7.2310480712430947e-01
               splits:
                  - { var:1, quality:5.0129806518554688e+01,
                      le:5.0000000000000000e-01 }
            -
               depth: 1
               value: 1.2533092558725104e-01
               splits:
                  - { var:0, quality:4.8793044686317444e-01, le:5439. }
            -
               depth: 2
               value: 4.9834549084456135e-02
               splits:
                  - { var:0, quality:4.7372501343488693e-02, le:3391. }
            -
               depth: 3
               value: 2.2776960812734615e-02
            -
               depth: 3
               value: 1.0394972562789917e-01
               splits:
                  - { var:0, quality:4.3679021298885345e-02, le:4415. }
            -
               depth: 4
               value: 9.7779634098211929e-02
            -
               depth: 4
               value: 1.2246000021696091e-01
            -
               depth: 2
               value: 2.7632367859284085e-01
            -
               depth: 1
               value: 8.9665206305442313e-01
               splits:
                  - { var:1, quality:5.7594795227050781e+01,
                      le:1.5000000000000000e+00 }
            -
               depth: 2
               value: 1.2389285247772932e+00
            -
               depth: 2
               value: 5.3155717055002849e-01
               splits:
                  - { var:0, quality:9.4173603057861328e+00, le:15423. }
            -
               depth: 3
               value: 4.1562800748007639e-01
            -
               depth: 3
               value: 8.0205855104658341e-01
      -
         nodes:
            -
               depth: 0
               value: 7.7454554298892619e-01
               splits:
                  - { var:1, quality:5.9922485351562500e+01,
                      le:5.0000000000000000e-01 }
            -
               depth: 1
               value: 1.0571756847202778e-01
               splits:
                  - { var:0, quality:3.1384715437889099e-01, le:4159. }
            -
               depth: 2
               value: 3.8515233248472211e-02
            -
               depth: 2
               value: 1.7291990369558335e-01
            -
               depth: 1
               value: 9.9748820116122561e-01
               splits:
                  - { var:1, quality:6.8111427307128906e+01,
                      le:1.5000000000000000e+00 }
            -
               depth: 2
               value: 1.2927104605210793e+00
            -
               depth: 2
               value: 5.2256543610406958e-01
      -
         nodes:
            -
               depth: 0
               value: 9.0416554016851480e-01
               splits:
                  - { var:1, quality:7.8200630187988281e+01,
                      le:5.0000000000000000e-01 }
            -
               depth: 1
               value: 7.1518607430092140e-02
            -
               depth: 1
               value: 1.0963148323389200e+00
               splits:
                  - { var:1, quality:8.3506927490234375e+01,
                      le:1.5000000000000000e+00 }
            -
               depth: 2
               value: 1.2539369809627532e+00
               splits:
                  - { var:0, quality:8.2138641357421875e+01, le:33599. }
            -
               depth: 3
               value: 1.0884571952952280e+00
            -
               depth: 3
               value: 1.6794564298221044e+00
               splits:
                  - { var:0, quality:3.9707633972167969e+01, le:35903. }
            -
               depth: 4
               value: 1.5114259958267211e+00
               splits:
                  - { var:0, quality:1.1443523406982422e+01, le:34111. }
            -
               depth: 5
               value: 1.4311499595642090e+00
            -
               depth: 5
               value: 1.5649433533350627e+00
            -
               depth: 4
               value: 1.7728066709306505e+00
               splits:
                  - { var:0, quality:2.8403928756713867e+01, le:36671. }
            -
               depth: 5
               value: 1.9873299598693848e+00
            -
               depth: 5
               value: 1.7115143026624406e+00
            -
               depth: 2
               value: 5.7090767025947575e-01
               splits:
                  - { var:0, quality:5.1156101226806641e+00, le:12607. }
            -
               depth: 3
               value: 3.2510200142860413e-01
               splits:
                  - { var:0, quality:3.2658293843269348e-01, le:10559. }
            -
               depth: 4
               value: 2.8529199957847595e-01
               splits:
                  - { var:0, quality:1.6453348100185394e-01, le:8511. }
            -
               depth: 5
               value: 2.5570800900459290e-01
            -
               depth: 5
               value: 3.1487599015235901e-01
            -
               depth: 4
               value: 4.0472200512886047e-01
            -
               depth: 3
               value: 6.3235908746719360e-01
               splits:
                  - { var:0, quality:4.9066624641418457e+00, le:15935. }
            -
               depth: 4
               value: 5.5213386671883724e-01
               splits:
                  - { var:0, quality:2.1375763416290283e+00, le:14655. }
            -
               depth: 5
               value: 5.3776381015777586e-01
            -
               depth: 5
               value: 5.8805900812149048e-01
            -
               depth: 4
               value: 7.4467439651489253e-01
      -
         nodes:
            -
               depth: 0
               value: 8.9684447410982104e-01
               splits:
                  - { var:0, quality:8.3773872375488281e+01, le:20031. }
            -
               depth: 1
               value: 3.0873920672544930e-01
               splits:
                  - { var:1, quality:4.4839019775390625e+00,
                      le:5.0000000000000000e-01 }
            -
               depth: 2
               value: 8.8132988785703983e-02
               splits:
                  - { var:0, quality:1.6761253774166107e-01, le:3903. }
            -
               depth: 3
               value: 3.3535350812599063e-02
            -
               depth: 3
               value: 1.5053028932639531e-01
            -
               depth: 2
               value: 4.9257772167523700e-01
               splits:
                  - { var:0, quality:4.9244117736816406e+00, le:12095. }
            -
               depth: 3
               value: 2.9590024799108505e-01
               splits:
                  - { var:0, quality:7.1859753131866455e-01, le:8511. }
            -
               depth: 4
               value: 2.4827950447797775e-01
               splits:
                  - { var:0, quality:2.4679158627986908e-01, le:7231. }
            -
               depth: 5
               value: 2.4085099995136261e-01
            -
               depth: 5
               value: 2.5570800900459290e-01
            -
               depth: 4
               value: 3.4352099150419235e-01
               splits:
                  - { var:0, quality:4.7530883550643921e-01, le:10047. }
            -
               depth: 5
               value: 3.1487599015235901e-01
            -
               depth: 5
               value: 3.7216599285602570e-01
            -
               depth: 3
               value: 6.4991970062255855e-01
               splits:
                  - { var:1, quality:4.2343835830688477e+00,
                      le:1.5000000000000000e+00 }
            -
               depth: 4
               value: 7.4679398536682129e-01
            -
               depth: 4
               value: 6.3915589120652938e-01
            -
               depth: 1
               value: 1.3097694490818268e+00
               splits:
                  - { var:0, quality:8.3880264282226562e+01, le:33599. }
            -
               depth: 2
               value: 1.1207952903163048e+00
               splits:
                  - { var:0, quality:3.9389274597167969e+01, le:27967. }
            -
               depth: 3
               value: 1.0252975758753324e+00
               splits:
                  - { var:0, quality:2.0050827026367188e+01, le:23871. }
            -
               depth: 4
               value: 9.5047499984502792e-01
               splits:
                  - { var:0, quality:7.2463765144348145e+00, le:20799. }
            -
               depth: 5
               value: 8.2101297378540039e-01
            -
               depth: 5
               value: 9.6896957499640324e-01
            -
               depth: 4
               value: 1.0797139948064631e+00
               splits:
                  - { var:0, quality:1.2836508750915527e+01, le:26431. }
            -
               depth: 5
               value: 1.1172319889068603e+00
            -
               depth: 5
               value: 1.0484489997227986e+00
            -
               depth: 3
               value: 1.2720000048478444e+00
               splits:
                  - { var:0, quality:1.9431016921997070e+01, le:30527. }
            -
               depth: 4
               value: 1.3020871366773332e+00
               splits:
                  - { var:0, quality:1.1893822669982910e+01, le:29759. }
            -
               depth: 5
               value: 1.2636859893798829e+00
            -
               depth: 5
               value: 1.3980900049209595e+00
            -
               depth: 4
               value: 1.2298780202865600e+00
               splits:
                  - { var:0, quality:7.6186141967773438e+00, le:31039. }
            -
               depth: 5
               value: 1.1007100343704224e+00
            -
               depth: 5
               value: 1.3159900108973186e+00
            -
               depth: 2
               value: 1.6759068816900253e+00
               splits:
                  - { var:0, quality:4.5064804077148438e+01, le:35135. }
            -
               depth: 3
               value: 1.4910433292388916e+00
            -
               depth: 3
               value: 1.7185677014864409e+00
      -
         nodes:
            -
               depth: 0
               value: 8.6398339581210171e-01
               splits:
                  - { var:0, quality:7.9745620727539062e+01, le:22847. }
            -
               depth: 1
               value: 4.1139720807867969e-01
               splits:
                  - { var:0, quality:1.0408052444458008e+01, le:12863. }
            -
               depth: 2
               value: 1.9554631333225048e-01
               splits:
                  - { var:0, quality:1.4437180757522583e+00, le:6463. }
            -
               depth: 3
               value: 7.3811507251645841e-02
               splits:
                  - { var:0, quality:1.0645308345556259e-01, le:3391. }
            -
               depth: 4
               value: 2.0199901424348354e-02
               splits:
                  - { var:0, quality:4.8544271849095821e-03, le:1855. }
            -
               depth: 5
               value: 6.0394774191081524e-03
            -
               depth: 5
               value: 4.8520749434828758e-02
            -
               depth: 4
               value: 1.1402021162211895e-01
               splits:
                  - { var:0, quality:1.0970910638570786e-01, le:4927. }
            -
               depth: 5
               value: 9.8603449761867523e-02
            -
               depth: 5
               value: 1.6027049720287323e-01
            -
               depth: 3
               value: 3.3757025375962257e-01
               splits:
                  - { var:0, quality:1.4091978073120117e+00, le:9535. }
            -
               depth: 4
               value: 2.6777580678462981e-01
               splits:
                  - { var:0, quality:3.6037629842758179e-01, le:8255. }
            -
               depth: 5
               value: 2.5814025476574898e-01
            -
               depth: 5
               value: 3.0631801486015320e-01
            -
               depth: 4
               value: 3.8742343017033171e-01
               splits:
                  - { var:0, quality:1.0575923919677734e+00, le:11583. }
            -
               depth: 5
               value: 3.6020600050687790e-01
            -
               depth: 5
               value: 4.2371333638827008e-01
            -
               depth: 2
               value: 7.2318183382352197e-01
               splits:
                  - { var:1, quality:9.5110292434692383e+00,
                      le:1.5000000000000000e+00 }
            -
               depth: 3
               value: 8.2709068059921265e-01
            -
               depth: 3
               value: 6.7122741043567657e-01
            -
               depth: 1
               value: 1.4171442919307284e+00
      -
         nodes:
            -
               depth: 0
               value: 8.2217921821625173e-01
               splits:
                  - { var:1, quality:6.2367607116699219e+01,
                      le:5.0000000000000000e-01 }
            -
               depth: 1
               value: 1.2326766349594566e-01
               splits:
                  - { var:0, quality:3.3321189880371094e-01, le:5951. }
            -
               depth: 2
               value: 6.4595924484819989e-02
               splits:
                  - { var:0, quality:6.3672594726085663e-02, le:3135. }
            -
               depth: 3
               value: 1.7749089336575707e-02
               splits:
                  - { var:0, quality:2.5847116485238075e-03, le:1855. }
            -
               depth: 4
               value: 6.1470163964258973e-03
               splits:
                  - { var:0, quality:2.7176659204997122e-04, le:1087. }
            -
               depth: 5
               value: 1.0087749888043618e-03
            -
               depth: 5
               value: 1.6423499211668968e-02
            -
               depth: 4
               value: 3.5152198746800423e-02
               splits:
                  - { var:0, quality:2.4861162528395653e-03, le:2367. }
            -
               depth: 5
               value: 3.2435398548841476e-02
            -
               depth: 5
               value: 3.7868998944759369e-02
            -
               depth: 3
               value: 1.1144275963306427e-01
               splits:
                  - { var:0, quality:6.4691446721553802e-02, le:4671. }
            -
               depth: 4
               value: 9.2845266064008072e-02
               splits:
                  - { var:0, quality:2.6006817817687988e-02, le:3903. }
            -
               depth: 5
               value: 8.7910898029804230e-02
            -
               depth: 5
               value: 1.0271400213241577e-01
            -
               depth: 4
               value: 1.3933899998664856e-01
               splits:
                  - { var:0, quality:3.8850270211696625e-02, le:5439. }
            -
               depth: 5
               value: 1.4246599376201630e-01
            -
               depth: 5
               value: 1.3621200621128082e-01
            -
               depth: 2
               value: 2.6994701102375984e-01
               splits:
                  - { var:0, quality:3.0273950099945068e-01, le:7231. }
            -
               depth: 3
               value: 1.7807500064373016e-01
            -
               depth: 3
               value: 3.0057101448376972e-01
               splits:
                  - { var:0, quality:2.7122697234153748e-01, le:8511. }
            -
               depth: 4
               value: 2.8907701373100281e-01
            -
               depth: 4
               value: 3.0631801486015320e-01
            -
               depth: 1
               value: 9.7043318436904391e-01
               splits:
                  - { var:0, quality:7.3079231262207031e+01, le:24639. }
            -
               depth: 2
               value: 6.1024954149851929e-01
               splits:
                  - { var:1, quality:1.4874669075012207e+01,
                      le:1.5000000000000000e+00 }
            -
               depth: 3
               value: 9.1378066937128699e-01
            -
               depth: 3
               value: 5.1268596468227245e-01
               splits:
                  - { var:0, quality:8.2908849716186523e+00, le:12863. }
            -
               depth: 4
               value: 3.3032328635454178e-01
            -
               depth: 4
               value: 6.9504864301000324e-01
            -
               depth: 2
               value: 1.4299778321693684e+00
      -
         nodes:
            -
               depth: 0
               value: 8.3388486122230465e-01
               splits:
                  - { var:0, quality:7.1687187194824219e+01, le:22847. }
            -
               depth: 1
               value: 5.0512480835333495e-01
               splits:
                  - { var:1, quality:1.6233602523803711e+01,
                      le:5.0000000000000000e-01 }
            -
               depth: 2
               value: 1.1167149509076678e-01
            -
               depth: 2
               value: 6.5008129218691268e-01
               splits:
                  - { var:1, quality:1.6511943817138672e+01,
                      le:1.5000000000000000e+00 }
            -
               depth: 3
               value: 8.4605622291564941e-01
               splits:
                  - { var:0, quality:6.4583559036254883e+00, le:21311. }
            -
               depth: 4
               value: 8.0827839374542232e-01
               splits:
                  - { var:0, quality:3.2712953090667725e+00, le:19775. }
            -
               depth: 5
               value: 7.4679398536682129e-01
            -
               depth: 5
               value: 8.2364949584007263e-01
            -
               depth: 4
               value: 8.9327850937843323e-01
               splits:
                  - { var:0, quality:3.2084674835205078e+00, le:22335. }
            -
               depth: 5
               value: 9.5785701274871826e-01
            -
               depth: 5
               value: 8.2870000600814819e-01
            -
               depth: 3
               value: 5.8926148609868412e-01
            -
               depth: 1
               value: 1.4444392451218195e+00
               splits:
                  - { var:0, quality:6.0539188385009766e+01, le:34111. }
            -
               depth: 2
               value: 1.1692863362176078e+00
            -
               depth: 2
               value: 1.7195921540260315e+00
      -
         nodes:
            -
               depth: 0
               value: 8.6199010390896547e-01
               splits:
                  - { var:1, quality:7.3038345336914062e+01,
                      le:5.0000000000000000e-01 }
            -
               depth: 1
               value: 9.6881247399424969e-02
               splits:
                  - { var:0, quality:3.1830984354019165e-01, le:6975. }
            -
               depth: 2
               value: 5.6143293982556013e-02
            -
               depth: 2
               value: 3.0057101448376972e-01
               splits:
                  - { var:0, quality:2.7122697234153748e-01, le:8511. }
            -
               depth: 3
               value: 2.8907701373100281e-01
            -
               depth: 3
               value: 3.0631801486015320e-01
            -
               depth: 1
               value: 1.0841184816052836e+00
               splits:
                  - { var:0, quality:8.2468200683593750e+01, le:23359. }
            -
               depth: 2
               value: 6.2112254362839914e-01
               splits:
                  - { var:1, quality:1.0468779563903809e+01,
                      le:1.5000000000000000e+00 }
            -
               depth: 3
               value: 9.2556776106357574e-01
               splits:
                  - { var:0, quality:3.4392137527465820e+00, le:22335. }
            -
               depth: 4
               value: 9.5785701274871826e-01
            -
               depth: 4
               value: 8.2870000600814819e-01
            -
               depth: 3
               value: 5.6576886773109436e-01
            -
               depth: 2
               value: 1.4185044368108113e+00
      -
         nodes:
            -
               depth: 0
               value: 8.3622933026977075e-01
               splits:
                  - { var:0, quality:7.2646957397460938e+01, le:21311. }
            -
               depth: 1
               value: 4.1235249535663548e-01
               splits:
                  - { var:1, quality:8.7606115341186523e+00,
                      le:5.0000000000000000e-01 }
            -
               depth: 2
               value: 9.9242208804339913e-02
               splits:
                  - { var:0, quality:1.7694035172462463e-01, le:3391. }
            -
               depth: 3
               value: 1.2733457478316269e-02
               splits:
                  - { var:0, quality:1.2959127780050039e-03, le:1855. }
            -
               depth: 4
               value: 7.8079722106849658e-03
            -
               depth: 4
               value: 3.2435398548841476e-02
            -
               depth: 3
               value: 1.7133283490935960e-01
            -
               depth: 2
               value: 5.1998415635898709e-01
               splits:
                  - { var:0, quality:9.5170860290527344e+00, le:13119. }
            -
               depth: 3
               value: 3.4497327109177905e-01
            -
               depth: 3
               value: 6.7440552571240597e-01
               splits:
                  - { var:0, quality:7.8564081192016602e+00, le:16191. }
            -
               depth: 4
               value: 5.5857000748316443e-01
            -
               depth: 4
               value: 7.3758853565562854e-01
               splits:
                  - { var:1, quality:5.9891586303710938e+00,
                      le:1.5000000000000000e+00 }
            -
               depth: 5
               value: 7.7153364817301429e-01
            -
               depth: 5
               value: 7.2485911846160889e-01
            -
               depth: 1
               value: 1.3288429492228739e+00
               splits:
                  - { var:0, quality:6.7204933166503906e+01, le:33343. }
            -
               depth: 2
               value: 1.1634095410505931e+00
            -
               depth: 2
               value: 1.6342584720024695e+00
      -
         nodes:
            -
               depth: 0
               value: 7.2273396716436766e-01
               splits:
                  - { var:0, quality:5.8329528808593750e+01, le:21055. }
            -
               depth: 1
               value: 3.6104811236843803e-01
               splits:
                  - { var:0, quality:8.5983085632324219e+00, le:10815. }
            -
               depth: 2
               value: 1.5292517951078480e-01
               splits:
                  - { var:1, quality:7.4158447980880737e-01, le:1. }
            -
               depth: 3
               value: 1.0351707939399704e-01
            -
               depth: 3
               value: 2.7997457981109619e-01
               splits:
                  - { var:0, quality:5.5525231361389160e-01, le:8767. }
            -
               depth: 4
               value: 2.6062520742416384e-01
               splits:
                  - { var:0, quality:3.4011107683181763e-01, le:7487. }
            -
               depth: 5
               value: 2.8029400110244751e-01
            -
               depth: 5
               value: 2.5570800900459290e-01
            -
               depth: 4
               value: 3.2834801077842712e-01
               splits:
                  - { var:0, quality:2.1641668677330017e-01, le:10047. }
            -
               depth: 5
               value: 3.0845001339912415e-01
            -
               depth: 5
               value: 3.4824600815773010e-01
            -
               depth: 2
               value: 5.7784283409516013e-01
               splits:
                  - { var:1, quality:8.0753583908081055e+00,
                      le:1.5000000000000000e+00 }
            -
               depth: 3
               value: 8.2101297378540039e-01
            -
               depth: 3
               value: 5.6727021932601929e-01
            -
               depth: 1
               value: 1.2944309634547080e+00
               splits:
                  - { var:0, quality:5.3725688934326172e+01, le:33599. }
            -
               depth: 2
               value: 1.1410127227956599e+00
               splits:
                  - { var:0, quality:2.9005676269531250e+01, le:27967. }
            -
               depth: 3
               value: 1.0438242724963598e+00
               splits:
                  - { var:0, quality:1.5338672637939453e+01, le:22335. }
            -
               depth: 4
               value: 8.5329300165176392e-01
            -
               depth: 4
               value: 1.0755794843037922e+00
            -
               depth: 3
               value: 1.3110925108194351e+00
               splits:
                  - { var:0, quality:1.3762184143066406e+01, le:30527. }
            -
               depth: 4
               value: 1.3737699985504150e+00
               splits:
                  - { var:0, quality:3.7756710052490234e+00, le:29503. }
            -
               depth: 5
               value: 1.3494499921798706e+00
            -
               depth: 5
               value: 1.3980900049209595e+00
            -
               depth: 4
               value: 1.2902000149091084e+00
            -
               depth: 2
               value: 1.6694533295101590e+00
      -
         nodes:
            -
               depth: 0
               value: 7.7358968593762256e-01
               splits:
                  - { var:1, quality:5.5936492919921875e+01,
                      le:5.0000000000000000e-01 }
            -
               depth: 1
               value: 1.1279549403116107e-01
            -
               depth: 1
               value: 9.2608065330065215e-01
               splits:
                  - { var:0, quality:6.4127059936523438e+01, le:24127. }
            -
               depth: 2
               value: 6.4219607561826708e-01
               splits:
                  - { var:1, quality:1.7256225585937500e+01,
                      le:1.5000000000000000e+00 }
            -
               depth: 3
               value: 8.9794866906272042e-01
            -
               depth: 3
               value: 5.6794532268278064e-01
               splits:
                  - { var:0, quality:1.0870584487915039e+01, le:15423. }
            -
               depth: 4
               value: 4.2548133598433602e-01
               splits:
                  - { var:0, quality:3.4352226257324219e+00, le:12095. }
            -
               depth: 5
               value: 3.1473762542009354e-01
            -
               depth: 5
               value: 5.1407630443572994e-01
            -
               depth: 4
               value: 7.6520315041908848e-01
            -
               depth: 2
               value: 1.3802959775924684e+00
               splits:
                  - { var:0, quality:4.8966354370117188e+01, le:34879. }
            -
               depth: 3
               value: 1.2217181991128361e+00
               splits:
                  - { var:0, quality:2.5506834030151367e+01, le:28479. }
            -
               depth: 4
               value: 1.1564635905352505e+00
            -
               depth: 4
               value: 1.3413516481717427e+00
            -
               depth: 3
               value: 1.7172737568616867e+00
      -
         nodes:
            -
               depth: 0
               value: 8.4151875555157862e-01
               splits:
                  - { var:0, quality:7.7600074768066406e+01, le:20799. }
            -
               depth: 1
               value: 3.1685203985556981e-01
               splits:
                  - { var:1, quality:5.7016177177429199e+00,
                      le:5.0000000000000000e-01 }
            -
               depth: 2
               value: 9.7282821081822290e-02
               splits:
                  - { var:0, quality:2.4115057289600372e-01, le:3903. }
            -
               depth: 3
               value: 3.7392286924538588e-02
            -
               depth: 3
               value: 1.5118430182337761e-01
            -
               depth: 2
               value: 5.2544279769062996e-01
               splits:
                  - { var:0, quality:5.9405555725097656e+00, le:13119. }
            -
               depth: 3
               value: 3.6547266940275830e-01
            -
               depth: 3
               value: 6.5632744810797949e-01
               splits:
                  - { var:1, quality:4.7931718826293945e+00,
                      le:1.5000000000000000e+00 }
            -
               depth: 4
               value: 7.7153364817301429e-01
            -
               depth: 4
               value: 6.1312512308359146e-01
               splits:
                  - { var:0, quality:3.0408825874328613e+00, le:16191. }
            -
               depth: 5
               value: 5.6299779415130613e-01
            -
               depth: 5
               value: 6.9667067130406701e-01
            -
               depth: 1
               value: 1.3405919729209528e+00
               splits:
                  - { var:1, quality:7.3864013671875000e+01,
                      le:1.5000000000000000e+00 }
            -
               depth: 2
               value: 1.3510495722293854e+00
            -
               depth: 2
               value: 9.2228800058364868e-01
      -
         nodes:
            -
               depth: 0
               value: 8.0210596723482008e-01
               splits:
                  - { var:0, quality:6.5741333007812500e+01, le:19775. }
            -
               depth: 1
               value: 3.5806670373207644e-01
               splits:
                  - { var:1, quality:6.2623615264892578e+00,
                      le:5.0000000000000000e-01 }
            -
               depth: 2
               value: 7.6513310894370079e-02
            -
               depth: 2
               value: 4.8801442350332552e-01
               splits:
                  - { var:1, quality:6.3372049331665039e+00,
                      le:1.5000000000000000e+00 }
            -
               depth: 3
               value: 7.4679398536682129e-01
            -
               depth: 3
               value: 4.6644946001470089e-01
            -
               depth: 1
               value: 1.2038557770706357e+00
      -
         nodes:
            -
               depth: 0
               value: 8.9999791840673427e-01
               splits:
                  - { var:1, quality:7.2713447570800781e+01,
                      le:5.0000000000000000e-01 }
            -
               depth: 1
               value: 6.7860547499731180e-02
               splits:
                  - { var:0, quality:8.0554120242595673e-02, le:3903. }
            -
               depth: 2
               value: 1.9899744618063171e-02
            -
               depth: 2
               value: 1.3980175182223320e-01
               splits:
                  - { var:0, quality:8.0131240189075470e-02, le:5951. }
            -
               depth: 3
               value: 1.2704400221506754e-01
            -
               depth: 3
               value: 1.7807500064373016e-01
            -
               depth: 1
               value: 1.0188746856791633e+00
               splits:
                  - { var:0, quality:8.2994102478027344e+01, le:24127. }
            -
               depth: 2
               value: 6.2365023791790009e-01
               splits:
                  - { var:0, quality:1.4394107818603516e+01, le:15935. }
            -
               depth: 3
               value: 4.3813341680695028e-01
            -
               depth: 3
               value: 8.0916705902884989e-01
               splits:
                  - { var:0, quality:1.1219602584838867e+01, le:19007. }
            -
               depth: 4
               value: 7.1129133303960168e-01
            -
               depth: 4
               value: 8.6255381865934888e-01
            -
               depth: 2
               value: 1.3921422196759119e+00
      -
         nodes:
            -
               depth: 0
               value: 8.7083369476604278e-01
               splits:
                  - { var:0, quality:8.0077110290527344e+01, le:20287. }
            -
               depth: 1
               value: 3.5300102637541531e-01
               splits:
                  - { var:1, quality:5.8454442024230957e+00,
                      le:5.0000000000000000e-01 }
            -
               depth: 2
               value: 1.2919850550991083e-01
            -
               depth: 2
               value: 4.8355249688029289e-01
               splits:
                  - { var:1, quality:5.6840615272521973e+00,
                      le:1.5000000000000000e+00 }
            -
               depth: 3
               value: 7.4679398536682129e-01
            -
               depth: 3
               value: 4.7210721477218298e-01
            -
               depth: 1
               value: 1.3393489661670865e+00
               splits:
                  - { var:1, quality:7.5520118713378906e+01,
                      le:1.5000000000000000e+00 }
            -
               depth: 2
               value: 1.3495211848398534e+00
               splits:
                  - { var:0, quality:7.7072395324707031e+01, le:34367. }
            -
               depth: 3
               value: 1.2029289583365121e+00
            -
               depth: 3
               value: 1.7493181662126021e+00
            -
               depth: 2
               value: 9.2228800058364868e-01
      -
         nodes:
            -
               depth: 0
               value: 7.8355726382919788e-01
               splits:
                  - { var:0, quality:6.8641647338867188e+01, le:20799. }
            -
               depth: 1
               value: 3.5883245661273616e-01
               splits:
                  - { var:1, quality:8.4720792770385742e+00,
                      le:5.0000000000000000e-01 }
            -
               depth: 2
               value: 7.8212626170218416e-02
               splits:
                  - { var:0, quality:2.3862561583518982e-01, le:5695. }
            -
               depth: 3
               value: 4.3458054179382088e-02
            -
               depth: 3
               value: 2.6357034345467883e-01
            -
               depth: 2
               value: 5.5630567062784120e-01
               splits:
                  - { var:0, quality:8.7555503845214844e+00, le:13119. }
            -
               depth: 3
               value: 3.8423800302876365e-01
               splits:
                  - { var:0, quality:1.3618992567062378e+00, le:12351. }
            -
               depth: 4
               value: 3.5179771482944489e-01
               splits:
                  - { var:0, quality:8.8299614191055298e-01, le:10303. }
            -
               depth: 5
               value: 2.7465050667524338e-01
            -
               depth: 5
               value: 3.8265659809112551e-01
            -
               depth: 4
               value: 4.9777901172637939e-01
            -
               depth: 3
               value: 6.4233950442738008e-01
               splits:
                  - { var:1, quality:7.4868888854980469e+00,
                      le:1.5000000000000000e+00 }
            -
               depth: 4
               value: 7.7153364817301429e-01
            -
               depth: 4
               value: 6.1650067567825317e-01
            -
               depth: 1
               value: 1.3581849441808813e+00
               splits:
                  - { var:1, quality:6.2914421081542969e+01,
                      le:1.5000000000000000e+00 }
            -
               depth: 2
               value: 1.3713939424717065e+00
               splits:
                  - { var:0, quality:6.3501976013183594e+01, le:33855. }
            -
               depth: 3
               value: 1.2135857201757885e+00
            -
               depth: 3
               value: 1.6475583314895630e+00
            -
               depth: 2
               value: 9.2228800058364868e-01
      -
         nodes:
            -
               depth: 0
               value: 8.2494211551484109e-01
               splits:
                  - { var:0, quality:7.3870986938476562e+01, le:20543. }
            -
               depth: 1
               value: 3.4430596706221056e-01
               splits:
                  - { var:1, quality:6.0202159881591797e+00,
                      le:5.0000000000000000e-01 }
            -
               depth: 2
               value: 9.7470276672818448e-02
               splits:
                  - { var:0, quality:1.9684618711471558e-01, le:5183. }
            -
               depth: 3
               value: 4.7396731106144015e-02
            -
               depth: 3
               value: 2.1013575419783592e-01
            -
               depth: 2
               value: 4.5890825188585688e-01
               splits:
                  - { var:0, quality:6.5539641380310059e+00, le:12863. }
            -
               depth: 3
               value: 3.4471211251285339e-01
               splits:
                  - { var:0, quality:2.1849985122680664e+00, le:10047. }
            -
               depth: 4
               value: 2.9409233563476139e-01
            -
               depth: 4
               value: 3.9533188939094543e-01
            -
               depth: 3
               value: 6.6446130275726323e-01
               splits:
                  - { var:1, quality:4.4523463249206543e+00,
                      le:1.5000000000000000e+00 }
            -
               depth: 4
               value: 7.8654000163078308e-01
               splits:
                  - { var:0, quality:1.2404497861862183e+00, le:19775. }
            -
               depth: 5
               value: 7.4679398536682129e-01
            -
               depth: 5
               value: 8.2628601789474487e-01
            -
               depth: 4
               value: 6.3394162803888321e-01
               splits:
                  - { var:0, quality:3.2417516708374023e+00, le:15935. }
            -
               depth: 5
               value: 5.7617500424385071e-01
            -
               depth: 5
               value: 6.9170825183391571e-01
            -
               depth: 1
               value: 1.3302262715804272e+00
               splits:
                  - { var:0, quality:7.0698524475097656e+01, le:34623. }
            -
               depth: 2
               value: 1.2162778218587240e+00
               splits:
                  - { var:0, quality:4.4736675262451172e+01, le:27967. }
            -
               depth: 3
               value: 1.0497094260321722e+00
               splits:
                  - { var:1, quality:9.9352750778198242e+00,
                      le:1.5000000000000000e+00 }
            -
               depth: 4
               value: 1.0656371042132378e+00
            -
               depth: 4
               value: 9.2228800058364868e-01
            -
               depth: 3
               value: 1.2876642772129603e+00
               splits:
                  - { var:0, quality:3.4865177154541016e+01, le:33343. }
            -
               depth: 4
               value: 1.2725605211759869e+00
               splits:
                  - { var:0, quality:3.0794406890869141e+01, le:29503. }
            -
               depth: 5
               value: 1.2295087277889252e+00
            -
               depth: 5
               value: 1.3038709163665771e+00
            -
               depth: 4
               value: 1.4311499595642090e+00
            -
               depth: 2
               value: 1.7100544373194377e+00
      -
         nodes:
            -
               depth: 0
               value: 8.5968181941425426e-01
               splits:
                  - { var:1, quality:6.5643463134765625e+01,
                      le:1.5000000000000000e+00 }
            -
               depth: 1
               value: 1.0808023134432734e+00
               splits:
                  - { var:1, quality:6.7348167419433594e+01,
                      le:5.0000000000000000e-01 }
            -
               depth: 2
               value: 1.1185634357389063e-01
               splits:
                  - { var:0, quality:1.9219323992729187e-01, le:6463. }
            -
               depth: 3
               value: 4.9909286666661501e-02
            -
               depth: 3
               value: 2.9769751429557800e-01
               splits:
                  - { var:0, quality:1.7739625275135040e-01, le:8511. }
            -
               depth: 4
               value: 2.8907701373100281e-01
            -
               depth: 4
               value: 3.0631801486015320e-01
            -
               depth: 2
               value: 1.2653634505612510e+00
               splits:
                  - { var:0, quality:6.9361175537109375e+01, le:33599. }
            -
               depth: 3
               value: 1.1399742159992456e+00
               splits:
                  - { var:0, quality:4.2318836212158203e+01, le:27711. }
            -
               depth: 4
               value: 9.6830106207302635e-01
               splits:
                  - { var:0, quality:1.3314198493957520e+01, le:21311. }
            -
               depth: 5
               value: 7.8522174060344696e-01
            -
               depth: 5
               value: 1.0415327906608582e+00
            -
               depth: 4
               value: 1.2734977801640828e+00
            -
               depth: 3
               value: 1.6666090011596679e+00
            -
               depth: 1
               value: 4.9114766269922255e-01
      -
         nodes:
            -
               depth: 0
               value: 9.5440938341539550e-01
               splits:
                  - { var:1, quality:7.9924568176269531e+01,
                      le:1.5000000000000000e+00 }
            -
               depth: 1
               value: 1.1604368816249377e+00
               splits:
                  - { var:1, quality:8.2022285461425781e+01,
                      le:5.0000000000000000e-01 }
            -
               depth: 2
               value: 8.4802804154605838e-02
            -
               depth: 2
               value: 1.3206377016737105e+00
               splits:
                  - { var:0, quality:8.5343574523925781e+01, le:33599. }
            -
               depth: 3
               value: 1.1096252429074254e+00
            -
               depth: 3
               value: 1.6606022185749478e+00
               splits:
                  - { var:0, quality:4.9873065948486328e+01, le:35647. }
            -
               depth: 4
               value: 1.5169814314161028e+00
            -
               depth: 4
               value: 1.7519972649487583e+00
            -
               depth: 1
               value: 5.2650611790326929e-01
               splits:
                  - { var:0, quality:8.0185260772705078e+00, le:12863. }
            -
               depth: 2
               value: 3.3573000381390256e-01
               splits:
                  - { var:0, quality:1.3781896829605103e+00, le:8511. }
            -
               depth: 3
               value: 2.5570800900459290e-01
            -
               depth: 3
               value: 3.6240400208367241e-01
               splits:
                  - { var:0, quality:1.1877605915069580e+00, le:11071. }
            -
               depth: 4
               value: 3.4456116954485577e-01
               splits:
                  - { var:0, quality:7.1339184045791626e-01, le:9791. }
            -
               depth: 5
               value: 3.1487599015235901e-01
            -
               depth: 5
               value: 3.5049820542335508e-01
            -
               depth: 4
               value: 3.9808966716130573e-01
            -
               depth: 2
               value: 6.9002850140844074e-01
               splits:
                  - { var:0, quality:6.8050546646118164e+00, le:15935. }
            -
               depth: 3
               value: 5.5629440546035769e-01
            -
               depth: 3
               value: 7.6432522137959802e-01
               splits:
                  - { var:0, quality:5.2879357337951660e+00, le:18751. }
            -
               depth: 4
               value: 7.1251518726348873e-01
            -
               depth: 4
               value: 8.2908776402473450e-01
      -
         nodes:
            -
               depth: 0
               value: 9.0350943621115221e-01
               splits:
                  - { var:0, quality:8.9514427185058594e+01, le:20799. }
            -
               depth: 1
               value: 3.1049045767045952e-01
               splits:
                  - { var:0, quality:5.1451187133789062e+00, le:12607. }
            -
               depth: 2
               value: 2.0201775852609868e-01
               splits:
                  - { var:0, quality:1.6609529256820679e+00, le:6463. }
            -
               depth: 3
               value: 7.8059996359418918e-02
               splits:
                  - { var:0, quality:1.4152450859546661e-01, le:3647. }
            -
               depth: 4
               value: 1.6262132552843207e-02
            -
               depth: 4
               value: 1.3213312719017267e-01
               splits:
                  - { var:0, quality:1.4217667281627655e-01, le:4927. }
            -
               depth: 5
               value: 1.0929600149393082e-01
            -
               depth: 5
               value: 1.4583540260791777e-01
            -
               depth: 3
               value: 3.3482964656182695e-01
               splits:
                  - { var:1, quality:1.5740337371826172e+00, le:1. }
            -
               depth: 4
               value: 3.0057101448376972e-01
            -
               depth: 4
               value: 3.4417290985584259e-01
            -
               depth: 2
               value: 7.0370399206876755e-01
               splits:
                  - { var:0, quality:4.0741739273071289e+00, le:18495. }
            -
               depth: 3
               value: 5.8507674932479858e-01
               splits:
                  - { var:0, quality:1.3849458694458008e+00, le:14911. }
            -
               depth: 4
               value: 5.2245351672172546e-01
            -
               depth: 4
               value: 6.4769998192787170e-01
               splits:
                  - { var:0, quality:8.4072661399841309e-01, le:16447. }
            -
               depth: 5
               value: 6.1857897043228149e-01
            -
               depth: 5
               value: 6.7682099342346191e-01
            -
               depth: 3
               value: 8.2233123481273651e-01
            -
               depth: 1
               value: 1.4137815805368645e+00
               splits:
                  - { var:1, quality:8.6194786071777344e+01,
                      le:1.5000000000000000e+00 }
            -
               depth: 2
               value: 1.4254838086309887e+00
            -
               depth: 2
               value: 9.2228800058364868e-01
      -
         nodes:
            -
               depth: 0
               value: 8.6047003823773593e-01
               splits:
                  - { var:0, quality:7.6803649902343750e+01, le:19007. }
            -
               depth: 1
               value: 2.8648799926679658e-01
               splits:
                  - { var:1, quality:3.4748427867889404e+00, le:1. }
            -
               depth: 2
               value: 1.0185664016613113e-01
               splits:
                  - { var:0, quality:2.9546085000038147e-01, le:5183. }
            -
               depth: 3
               value: 3.6344591935994687e-02
            -
               depth: 3
               value: 2.6563676074147224e-01
            -
               depth: 2
               value: 4.3009016745620304e-01
               splits:
                  - { var:0, quality:3.6379072666168213e+00, le:12351. }
            -
               depth: 3
               value: 3.3754717061916989e-01
            -
               depth: 3
               value: 6.1517616113026941e-01
               splits:
                  - { var:0, quality:2.2964427471160889e+00, le:14911. }
            -
               depth: 4
               value: 5.2245351672172546e-01
            -
               depth: 4
               value: 6.6153748333454132e-01
               splits:
                  - { var:0, quality:1.7579090595245361e+00, le:16191. }
            -
               depth: 5
               value: 6.1857897043228149e-01
            -
               depth: 5
               value: 7.0449599623680115e-01
            -
               depth: 1
               value: 1.2431247308850288e+00
               splits:
                  - { var:1, quality:7.4282363891601562e+01,
                      le:1.5000000000000000e+00 }
            -
               depth: 2
               value: 1.2499510442956965e+00
               splits:
                  - { var:0, quality:7.6227157592773438e+01, le:33343. }
            -
               depth: 3
               value: 1.0991493866724127e+00
               splits:
                  - { var:0, quality:4.1854766845703125e+01, le:24383. }
            -
               depth: 4
               value: 9.2886127233505245e-01
               splits:
                  - { var:0, quality:1.3011722564697266e+01, le:22847. }
            -
               depth: 5
               value: 8.7309434016545617e-01
            -
               depth: 5
               value: 1.0125116705894470e+00
            -
               depth: 4
               value: 1.2335873716755916e+00
               splits:
                  - { var:0, quality:2.9037614822387695e+01, le:28223. }
            -
               depth: 5
               value: 1.1275599854333060e+00
            -
               depth: 5
               value: 1.2954366803169250e+00
            -
               depth: 3
               value: 1.6443553796181312e+00
               splits:
                  - { var:0, quality:3.5293102264404297e+01, le:35391. }
            -
               depth: 4
               value: 1.4533099730809529e+00
            -
               depth: 4
               value: 1.7016690015792846e+00
            -
               depth: 2
               value: 9.2228800058364868e-01
      -
         nodes:
            -
               depth: 0
               value: 9.0272608972154555e-01
               splits:
                  - { var:1, quality:7.6223236083984375e+01,
                      le:5.0000000000000000e-01 }
            -
               depth: 1
               value: 9.6508173804197989e-02
               splits:
                  - { var:0, quality:1.9116234779357910e-01, le:2879. }
            -
               depth: 2
               value: 8.1162817776203149e-03
            -
               depth: 2
               value: 1.4561478048563004e-01
               splits:
                  - { var:0, quality:2.1398706734180450e-01, le:6975. }
            -
               depth: 3
               value: 1.2768200132995844e-01
               splits:
                  - { var:0, quality:1.3208395242691040e-01, le:4415. }
            -
               depth: 4
               value: 1.0271400213241577e-01
            -
               depth: 4
               value: 1.3600466772913933e-01
               splits:
                  - { var:0, quality:1.1120376735925674e-01, le:4927. }
            -
               depth: 5
               value: 1.2246000021696091e-01
            -
               depth: 5
               value: 1.3871360123157500e-01
            -
               depth: 3
               value: 2.8907701373100281e-01
            -
               depth: 1
               value: 1.0737420112797709e+00
               splits:
                  - { var:0, quality:8.9360412597656250e+01, le:27967. }
            -
               depth: 2
               value: 6.8887481407115336e-01
               splits:
                  - { var:0, quality:1.9929586410522461e+01, le:16191. }
            -
               depth: 3
               value: 4.4056282674565034e-01
               splits:
                  - { var:0, quality:3.5009701251983643e+00, le:12607. }
            -
               depth: 4
               value: 3.3795756101608276e-01
               splits:
                  - { var:0, quality:1.0448484420776367e+00, le:10047. }
            -
               depth: 5
               value: 2.9918680787086488e-01
            -
               depth: 5
               value: 3.8642100244760513e-01
            -
               depth: 4
               value: 5.5599375069141388e-01
            -
               depth: 3
               value: 8.8988928000132239e-01
               splits:
                  - { var:1, quality:1.6837602615356445e+01,
                      le:1.5000000000000000e+00 }
            -
               depth: 4
               value: 9.5277872880299885e-01
            -
               depth: 4
               value: 7.3266565799713135e-01
               splits:
                  - { var:0, quality:3.2291839122772217e+00, le:18239. }
            -
               depth: 5
               value: 6.9527099529902137e-01
            -
               depth: 5
               value: 7.7006032069524133e-01
            -
               depth: 2
               value: 1.5960617789200373e+00
      -
         nodes:
            -
               depth: 0
               value: 8.4201179314163710e-01
               splits:
                  - { var:1, quality:7.3850372314453125e+01,
                      le:5.0000000000000000e-01 }
            -
               depth: 1
               value: 1.1351385452634651e-01
               splits:
                  - { var:0, quality:3.8792440295219421e-01, le:4159. }
            -
               depth: 2
               value: 3.4821514432729198e-02
               splits:
                  - { var:0, quality:1.8160367384552956e-02, le:2879. }
            -
               depth: 3
               value: 1.9653119119279187e-02
               splits:
                  - { var:0, quality:3.5614955704659224e-03, le:1855. }
            -
               depth: 4
               value: 1.0066409547107469e-02
            -
               depth: 4
               value: 3.2435398548841476e-02
            -
               depth: 3
               value: 8.7910898029804230e-02
            -
               depth: 2
               value: 1.6410178744367190e-01
               splits:
                  - { var:0, quality:4.1865646839141846e-01, le:7231. }
            -
               depth: 3
               value: 1.4183583296835423e-01
            -
               depth: 3
               value: 2.9769751429557800e-01
            -
               depth: 1
               value: 1.1359671017057018e+00
               splits:
                  - { var:0, quality:8.2102493286132812e+01, le:27967. }
            -
               depth: 2
               value: 7.8130660855001022e-01
               splits:
                  - { var:1, quality:2.0747306823730469e+01,
                      le:1.5000000000000000e+00 }
            -
               depth: 3
               value: 1.0318057894706727e+00
            -
               depth: 3
               value: 5.4646362643688917e-01
               splits:
                  - { var:0, quality:5.1625094413757324e+00, le:11839. }
            -
               depth: 4
               value: 2.7794350311160088e-01
               splits:
                  - { var:0, quality:3.1788051128387451e-01, le:9279. }
            -
               depth: 5
               value: 2.5075567265351612e-01
            -
               depth: 5
               value: 3.5950699448585510e-01
            -
               depth: 4
               value: 6.3597033421198523e-01
               splits:
                  - { var:0, quality:4.9661426544189453e+00, le:16191. }
            -
               depth: 5
               value: 5.3908400734265649e-01
            -
               depth: 5
               value: 7.3285666108131409e-01
            -
               depth: 2
               value: 1.5588315358528724e+00
               splits:
                  - { var:0, quality:6.4342651367187500e+01, le:35391. }
            -
               depth: 3
               value: 1.3472623091477613e+00
            -
               depth: 3
               value: 1.7704007625579834e+00
               splits:
                  - { var:0, quality:4.0784069061279297e+01, le:36159. }
            -
               depth: 4
               value: 1.6437300443649292e+00
            -
               depth: 4
               value: 1.7934318022294478e+00
               splits:
                  - { var:0, quality:3.5472274780273438e+01, le:37183. }
            -
               depth: 5
               value: 1.9873299598693848e+00
            -
               depth: 5
               value: 1.7503433227539062e+00
      -
         nodes:
            -
               depth: 0
               value: 8.8686124332598415e-01
               splits:
                  - { var:0, quality:8.1738044738769531e+01, le:19007. }
            -
               depth: 1
               value: 3.0808180445014977e-01
               splits:
                  - { var:1, quality:4.0434703826904297e+00, le:1. }
            -
               depth: 2
               value: 1.0196380686158171e-01
            -
               depth: 2
               value: 4.4205850288271903e-01
               splits:
                  - { var:0, quality:4.3074350357055664e+00, le:12607. }
            -
               depth: 3
               value: 3.2671541844805080e-01
            -
               depth: 3
               value: 6.1507312953472137e-01
               splits:
                  - { var:0, quality:3.0829319953918457e+00, le:16447. }
            -
               depth: 4
               value: 5.5002760887145996e-01
               splits:
                  - { var:0, quality:1.5174731016159058e+00, le:14655. }
            -
               depth: 5
               value: 5.2467334270477295e-01
            -
               depth: 5
               value: 5.8805900812149048e-01
            -
               depth: 4
               value: 7.2348233064015710e-01
               splits:
                  - { var:0, quality:1.5702917575836182e+00, le:17727. }
            -
               depth: 5
               value: 7.2488200664520264e-01
            -
               depth: 5
               value: 7.2068297863006592e-01
            -
               depth: 1
               value: 1.2932382961536975e+00
               splits:
                  - { var:1, quality:7.8746467590332031e+01,
                      le:1.5000000000000000e+00 }
            -
               depth: 2
               value: 1.3013024330139160e+00
            -
               depth: 2
               value: 9.2228800058364868e-01
      -
         nodes:
            -
               depth: 0
               value: 8.6593243402653575e-01
               splits:
                  - { var:1, quality:7.2304885864257812e+01,
                      le:5.0000000000000000e-01 }
            -
               depth: 1
               value: 1.1055011071007090e-01
            -
               depth: 1
               value: 1.0697657593658991e+00
               splits:
                  - { var:0, quality:8.2072265625000000e+01, le:24383. }
            -
               depth: 2
               value: 6.3891217318074456e-01
               splits:
                  - { var:0, quality:1.3144495964050293e+01, le:15935. }
            -
               depth: 3
               value: 4.1921342909336090e-01
               splits:
                  - { var:0, quality:2.5762808322906494e+00, le:13119. }
            -
               depth: 4
               value: 3.6166289746761321e-01
            -
               depth: 4
               value: 5.6308975815773010e-01
               splits:
                  - { var:0, quality:1.2707741260528564e+00, le:14655. }
            -
               depth: 5
               value: 5.3812050819396973e-01
            -
               depth: 5
               value: 5.8805900812149048e-01
            -
               depth: 3
               value: 8.4396433432896933e-01
               splits:
                  - { var:1, quality:1.0730242729187012e+01,
                      le:1.5000000000000000e+00 }
            -
               depth: 4
               value: 8.7739672985943884e-01
            -
               depth: 4
               value: 7.5202524662017822e-01
               splits:
                  - { var:0, quality:2.3008203506469727e+00, le:19519. }
            -
               depth: 5
               value: 6.9527099529902137e-01
            -
               depth: 5
               value: 9.2228800058364868e-01
            -
               depth: 2
               value: 1.4372585240532370e+00
               splits:
                  - { var:0, quality:7.2012275695800781e+01, le:34111. }
            -
               depth: 3
               value: 1.2459284901618957e+00
               splits:
                  - { var:0, quality:3.1093215942382812e+01, le:27967. }
            -
               depth: 4
               value: 1.1311966180801392e+00
               splits:
                  - { var:0, quality:3.8410856723785400e+00, le:25663. }
            -
               depth: 5
               value: 1.0923099517822266e+00
            -
               depth: 5
               value: 1.1506399512290955e+00
            -
               depth: 4
               value: 1.2661752911174999e+00
               splits:
                  - { var:0, quality:2.7283315658569336e+01, le:33599. }
            -
               depth: 5
               value: 1.2558643743395805e+00
            -
               depth: 5
               value: 1.4311499595642090e+00
            -
               depth: 3
               value: 1.7105871438980103e+00
      -
         nodes:
            -
               depth: 0
               value: 9.3436242698226124e-01
               splits:
                  - { var:1, quality:8.0584777832031250e+01,
                      le:5.0000000000000000e-01 }
            -
               depth: 1
               value: 1.0247246591517559e-01
               splits:
                  - { var:0, quality:2.0815916359424591e-01, le:3903. }
            -
               depth: 2
               value: 2.2283671113351982e-02
            -
               depth: 2
               value: 1.7120571860245296e-01
            -
               depth: 1
               value: 1.0957739119654271e+00
               splits:
                  - { var:1, quality:8.8449333190917969e+01,
                      le:1.5000000000000000e+00 }
            -
               depth: 2
               value: 1.3211990835818839e+00
               splits:
                  - { var:0, quality:8.6281311035156250e+01, le:28479. }
            -
               depth: 3
               value: 9.3997594051890898e-01
               splits:
                  - { var:0, quality:1.6248973846435547e+01, le:23359. }
            -
               depth: 4
               value: 8.4208308160305023e-01
               splits:
                  - { var:0, quality:8.5414152145385742e+00, le:21823. }
            -
               depth: 5
               value: 8.1892829537391665e-01
            -
               depth: 5
               value: 9.5785701274871826e-01
            -
               depth: 4
               value: 1.1357616583506267e+00
            -
               depth: 3
               value: 1.5578203447933854e+00
               splits:
                  - { var:0, quality:7.1307723999023438e+01, le:34623. }
            -
               depth: 4
               value: 1.3591084663684552e+00
            -
               depth: 4
               value: 1.7192737460136414e+00
               splits:
                  - { var:0, quality:4.7343551635742188e+01, le:38207. }
            -
               depth: 5
               value: 1.6477450132369995e+00
            -
               depth: 5
               value: 1.7621909856796265e+00
            -
               depth: 2
               value: 5.6602475866675372e-01
               splits:
                  - { var:0, quality:6.8863410949707031e+00, le:12607. }
            -
               depth: 3
               value: 2.9807120263576509e-01
            -
               depth: 3
               value: 6.5534261067708333e-01
      -
         nodes:
            -
               depth: 0
               value: 7.2255175372461056e-01
               splits:
                  - { var:0, quality:5.8914459228515625e+01, le:18239. }
            -
               depth: 1
               value: 2.8217074058357822e-01
               splits:
                  - { var:0, quality:5.2607364654541016e+00, le:8511. }
            -
               depth: 2
               value: 8.8009134513729645e-02
               splits:
                  - { var:1, quality:2.6405057311058044e-01, le:1. }
            -
               depth: 3
               value: 6.4340004245423188e-02
            -
               depth: 3
               value: 2.4580333630243936e-01
               splits:
                  - { var:0, quality:1.8140499293804169e-01, le:7231. }
            -
               depth: 4
               value: 2.4085099995136261e-01
            -
               depth: 4
               value: 2.5570800900459290e-01
            -
               depth: 2
               value: 5.1720847424707916e-01
            -
               depth: 1
               value: 1.2092886629857516e+00
               splits:
                  - { var:1, quality:5.5781352996826172e+01,
                      le:1.5000000000000000e+00 }
            -
               depth: 2
               value: 1.2215375465315741e+00
            -
               depth: 2
               value: 7.5607997179031372e-01
      -
         nodes:
            -
               depth: 0
               value: 7.5874565598064692e-01
               splits:
                  - { var:0, quality:6.4112762451171875e+01, le:22847. }
            -
               depth: 1
               value: 3.8085806705017528e-01
               splits:
                  - { var:0, quality:9.3967208862304688e+00, le:12351. }
            -
               depth: 2
               value: 2.0884817790174565e-01
               splits:
                  - { var:1, quality:1.6403950452804565e+00, le:1. }
            -
               depth: 3
               value: 1.1687325644465198e-01
            -
               depth: 3
               value: 3.2912307519179124e-01
            -
               depth: 2
               value: 6.5245262886348521e-01
               splits:
                  - { var:0, quality:8.2733764648437500e+00, le:16191. }
            -
               depth: 3
               value: 5.5879470109939577e-01
            -
               depth: 3
               value: 7.5651699304580688e-01
               splits:
                  - { var:1, quality:5.1599259376525879e+00,
                      le:1.5000000000000000e+00 }
            -
               depth: 4
               value: 8.0139799912770593e-01
            -
               depth: 4
               value: 7.3407649000485742e-01
               splits:
                  - { var:0, quality:3.2387499809265137e+00, le:18239. }
            -
               depth: 5
               value: 7.1258948743343353e-01
            -
               depth: 5
               value: 7.7705049514770508e-01
            -
               depth: 1
               value: 1.3560518449352634e+00
      -
         nodes:
            -
               depth: 0
               value: 8.7713047765769259e-01
               splits:
                  - { var:1, quality:6.9200386047363281e+01,
                      le:5.0000000000000000e-01 }
            -
               depth: 1
               value: 1.0255502005979493e-01
               splits:
                  - { var:0, quality:2.0877875387668610e-01, le:6975. }
            -
               depth: 2
               value: 5.9190021340732021e-02
               splits:
                  - { var:0, quality:5.5811017751693726e-02, le:2879. }
            -
               depth: 3
               value: 1.2733457478316269e-02
            -
               depth: 3
               value: 1.1726072616875172e-01
            -
               depth: 2
               value: 2.9769751429557800e-01
               splits:
                  - { var:0, quality:1.7739625275135040e-01, le:8511. }
            -
               depth: 3
               value: 2.8907701373100281e-01
            -
               depth: 3
               value: 3.0631801486015320e-01
            -
               depth: 1
               value: 1.0006135216225749e+00
               splits:
                  - { var:0, quality:7.9424285888671875e+01, le:22591. }
            -
               depth: 2
               value: 5.8436471922323108e-01
               splits:
                  - { var:0, quality:1.2354984283447266e+01, le:15167. }
            -
               depth: 3
               value: 3.7315125670284033e-01
               splits:
                  - { var:0, quality:2.4146714210510254e+00, le:12095. }
            -
               depth: 4
               value: 3.0030300265008752e-01
               splits:
                  - { var:0, quality:1.0223196744918823e+00, le:9023. }
            -
               depth: 5
               value: 2.5237716982762021e-01
            -
               depth: 5
               value: 3.5781400203704833e-01
            -
               depth: 4
               value: 5.3341741561889644e-01
               splits:
                  - { var:0, quality:1.4242583513259888e+00, le:13119. }
            -
               depth: 5
               value: 4.9777901172637939e-01
            -
               depth: 5
               value: 5.4232701659202576e-01
            -
               depth: 3
               value: 7.9557818174362183e-01
               splits:
                  - { var:0, quality:1.0238467216491699e+01, le:20799. }
            -
               depth: 4
               value: 7.4741340676943457e-01
               splits:
                  - { var:0, quality:6.7186255455017090e+00, le:18239. }
            -
               depth: 5
               value: 7.0543578863143919e-01
            -
               depth: 5
               value: 7.7739741972514564e-01
            -
               depth: 4
               value: 9.4007250666618347e-01
               splits:
                  - { var:0, quality:3.5362105369567871e+00, le:21567. }
            -
               depth: 5
               value: 9.2228800058364868e-01
            -
               depth: 5
               value: 9.5785701274871826e-01
            -
               depth: 2
               value: 1.3606124858598452e+00
      -
         nodes:
            -
               depth: 0
               value: 7.8693035050287108e-01
               splits:
                  - { var:0, quality:6.4917732238769531e+01, le:19775. }
            -
               depth: 1
               value: 3.3740915455480436e-01
               splits:
                  - { var:1, quality:5.8762731552124023e+00,
                      le:5.0000000000000000e-01 }
            -
               depth: 2
               value: 1.3012466625170621e-01
               splits:
                  - { var:0, quality:4.3262287974357605e-01, le:3391. }
            -
               depth: 3
               value: 1.0942657911679513e-02
            -
               depth: 3
               value: 1.8971567042171955e-01
            -
               depth: 2
               value: 5.1508157310031710e-01
               splits:
                  - { var:0, quality:6.0134682655334473e+00, le:12863. }
            -
               depth: 3
               value: 3.6292620301246642e-01
            -
               depth: 3
               value: 6.5340463681654493e-01
               splits:
                  - { var:1, quality:4.7059073448181152e+00,
                      le:1.5000000000000000e+00 }
            -
               depth: 4
               value: 7.4679398536682129e-01
            -
               depth: 4
               value: 6.4406570196151736e-01
               splits:
                  - { var:0, quality:4.2104606628417969e+00, le:16191. }
            -
               depth: 5
               value: 5.6516420841217041e-01
            -
               depth: 5
               value: 7.2296719551086430e-01
            -
               depth: 1
               value: 1.2145236832339590e+00
               splits:
                  - { var:1, quality:6.0657341003417969e+01,
                      le:1.5000000000000000e+00 }
            -
               depth: 2
               value: 1.2295101284980774e+00
            -
               depth: 2
               value: 9.2228800058364868e-01
      -
         nodes:
            -
               depth: 0
               value: 9.1998410066007641e-01
               splits:
                  - { var:0, quality:8.4884452819824219e+01, le:22847. }
            -
               depth: 1
               value: 4.9018316472295759e-01
               splits:
                  - { var:0, quality:1.3105310440063477e+01, le:12351. }
            -
               depth: 2
               value: 2.3024795131225670e-01
               splits:
                  - { var:0, quality:1.4399640560150146e+00, le:6207. }
            -
               depth: 3
               value: 7.1257867792155594e-02
            -
               depth: 3
               value: 3.2808800270924199e-01
               splits:
                  - { var:1, quality:1.4009913206100464e+00, le:1. }
            -
               depth: 4
               value: 2.8907701373100281e-01
            -
               depth: 4
               value: 3.3133891845742863e-01
            -
               depth: 2
               value: 7.3830314116044482e-01
               splits:
                  - { var:0, quality:1.2293839454650879e+01, le:18239. }
            -
               depth: 3
               value: 6.2117354978214612e-01
               splits:
                  - { var:0, quality:4.2990112304687500e+00, le:15935. }
            -
               depth: 4
               value: 5.5686567227045691e-01
               splits:
                  - { var:0, quality:1.8668143749237061e+00, le:14655. }
            -
               depth: 5
               value: 5.2467334270477295e-01
            -
               depth: 5
               value: 5.8905800183614099e-01
            -
               depth: 4
               value: 6.9834300279617312e-01
               splits:
                  - { var:0, quality:2.4407625198364258e+00, le:17215. }
            -
               depth: 5
               value: 6.8065033356348670e-01
            -
               depth: 5
               value: 7.2488200664520264e-01
            -
               depth: 3
               value: 8.5543273253874341e-01
               splits:
                  - { var:0, quality:8.0619182586669922e+00, le:20799. }
            -
               depth: 4
               value: 8.1083525717258453e-01
               splits:
                  - { var:1, quality:2.6304721832275391e+00,
                      le:1.5000000000000000e+00 }
            -
               depth: 5
               value: 8.2364949584007263e-01
            -
               depth: 5
               value: 7.9802101850509644e-01
            -
               depth: 4
               value: 8.8091700417654850e-01
               splits:
                  - { var:0, quality:5.4397377967834473e+00, le:22335. }
            -
               depth: 5
               value: 9.0180380344390865e-01
            -
               depth: 5
               value: 8.2870000600814819e-01
            -
               depth: 1
               value: 1.4194824856680792e+00
               splits:
                  - { var:0, quality:7.6541717529296875e+01, le:34367. }
            -
               depth: 2
               value: 1.2170881884438651e+00
               splits:
                  - { var:0, quality:3.1467397689819336e+01, le:27967. }
            -
               depth: 3
               value: 1.0658979945712619e+00
            -
               depth: 3
               value: 1.3304808338483174e+00
               splits:
                  - { var:0, quality:2.1295612335205078e+01, le:29503. }
            -
               depth: 4
               value: 1.2360875010490417e+00
            -
               depth: 4
               value: 1.3776775002479553e+00
               splits:
                  - { var:0, quality:1.5187230110168457e+01, le:33599. }
            -
               depth: 5
               value: 1.3700385774884904e+00
            -
               depth: 5
               value: 1.4311499595642090e+00
            -
               depth: 2
               value: 1.6851250007748604e+00
      -
         nodes:
            -
               depth: 0
               value: 8.5540202836855317e-01
               splits:
                  - { var:0, quality:7.2263450622558594e+01, le:19519. }
            -
               depth: 1
               value: 3.7359473940587656e-01
               splits:
                  - { var:0, quality:5.9976506233215332e+00, le:11583. }
            -
               depth: 2
               value: 2.1303345782216637e-01
               splits:
                  - { var:1, quality:1.0496301651000977e+00, le:1. }
            -
               depth: 3
               value: 1.4424268152409545e-01
            -
               depth: 3
               value: 3.1621962226927280e-01
               splits:
                  - { var:0, quality:8.1570130586624146e-01, le:8511. }
            -
               depth: 4
               value: 2.5895100335280102e-01
            -
               depth: 4
               value: 3.5058079361915589e-01
               splits:
                  - { var:0, quality:6.1612802743911743e-01, le:10047. }
            -
               depth: 5
               value: 3.1487599015235901e-01
            -
               depth: 5
               value: 3.5950699448585510e-01
            -
               depth: 2
               value: 6.0296799881117680e-01
            -
               depth: 1
               value: 1.2115204593409663e+00
               splits:
                  - { var:1, quality:6.7603477478027344e+01,
                      le:1.5000000000000000e+00 }
            -
               depth: 2
               value: 1.2179478473133512e+00
               splits:
                  - { var:0, quality:6.8783119201660156e+01, le:31295. }
            -
               depth: 3
               value: 1.0677534361680350e+00
            -
               depth: 3
               value: 1.5183366696039835e+00
               splits:
                  - { var:0, quality:3.4753650665283203e+01, le:35135. }
            -
               depth: 4
               value: 1.4422979950904846e+00
               splits:
                  - { var:0, quality:2.0866569519042969e+01, le:33599. }
            -
               depth: 5
               value: 1.3197766542434692e+00
            -
               depth: 5
               value: 1.4948071411677770e+00
            -
               depth: 4
               value: 1.6704140186309815e+00
               splits:
                  - { var:0, quality:1.3967023849487305e+01, le:37439. }
            -
               depth: 5
               value: 1.6247933705647786e+00
            -
               depth: 5
               value: 1.7388449907302856e+00
            -
               depth: 2
               value: 9.2228800058364868e-01
      -
         nodes:
            -
               depth: 0
               value: 8.7897266891086479e-01
               splits:
                  - { var:0, quality:7.8231986999511719e+01, le:22847. }
            -
               depth: 1
               value: 4.6912104155952955e-01
               splits:
                  - { var:1, quality:1.1446880340576172e+01,
                      le:5.0000000000000000e-01 }
            -
               depth: 2
               value: 1.4218857240242264e-01
               splits:
                  - { var:0, quality:3.7977734208106995e-01, le:6975. }
            -
               depth: 3
               value: 6.6589226596988738e-02
            -
               depth: 3
               value: 2.9338726401329041e-01
            -
               depth: 2
               value: 5.9172071749344468e-01
               splits:
                  - { var:0, quality:1.2749204635620117e+01, le:15935. }
            -
               depth: 3
               value: 3.7199531588703394e-01
               splits:
                  - { var:0, quality:2.3489880561828613e+00, le:11071. }
            -
               depth: 4
               value: 2.8017350099980831e-01
               splits:
                  - { var:0, quality:6.3877904415130615e-01, le:8511. }
            -
               depth: 5
               value: 2.5171100199222562e-01
            -
               depth: 5
               value: 3.2761099934577942e-01
            -
               depth: 4
               value: 4.6381713077425957e-01
            -
               depth: 3
               value: 8.1144611909985542e-01
               splits:
                  - { var:1, quality:1.0545693397521973e+01,
                      le:1.5000000000000000e+00 }
            -
               depth: 4
               value: 8.3412032657199431e-01
               splits:
                  - { var:0, quality:6.2703895568847656e+00, le:20031. }
            -
               depth: 5
               value: 7.4679398536682129e-01
            -
               depth: 5
               value: 8.4503611922264099e-01
            -
               depth: 4
               value: 7.8229356663567684e-01
               splits:
                  - { var:0, quality:4.3067474365234375e+00, le:20031. }
            -
               depth: 5
               value: 7.5896116097768151e-01
            -
               depth: 5
               value: 9.2228800058364868e-01
            -
               depth: 1
               value: 1.3799024356736078e+00
      -
         nodes:
            -
               depth: 0
               value: 8.8362422116333617e-01
               splits:
                  - { var:0, quality:8.4690139770507812e+01, le:22847. }
            -
               depth: 1
               value: 4.0684387589466164e-01
               splits:
                  - { var:0, quality:1.0378067016601562e+01, le:12607. }
            -
               depth: 2
               value: 1.9639157741847965e-01
               splits:
                  - { var:0, quality:1.4080526828765869e+00, le:6463. }
            -
               depth: 3
               value: 8.4095466150236983e-02
            -
               depth: 3
               value: 3.1732585109197176e-01
               splits:
                  - { var:1, quality:1.3095166683197021e+00, le:1. }
            -
               depth: 4
               value: 3.0631801486015320e-01
            -
               depth: 4
               value: 3.2062820196151731e-01
            -
               depth: 2
               value: 7.4109164406271544e-01
               splits:
                  - { var:0, quality:9.4345359802246094e+00, le:15423. }
            -
               depth: 3
               value: 5.3331950306892395e-01
               splits:
                  - { var:0, quality:5.6889480352401733e-01, le:13887. }
            -
               depth: 4
               value: 5.3752601146697998e-01
            -
               depth: 4
               value: 5.2911299467086792e-01
            -
               depth: 3
               value: 7.6879459619522095e-01
               splits:
                  - { var:1, quality:8.8879823684692383e+00,
                      le:1.5000000000000000e+00 }
            -
               depth: 4
               value: 8.0027999480565393e-01
            -
               depth: 4
               value: 7.2156649827957153e-01
               splits:
                  - { var:0, quality:3.1309635639190674e+00, le:18495. }
            -
               depth: 5
               value: 7.0627559423446651e-01
            -
               depth: 5
               value: 7.9802101850509644e-01
            -
               depth: 1
               value: 1.4663557542694940e+00
               splits:
                  - { var:0, quality:7.9742439270019531e+01, le:33855. }
            -
               depth: 2
               value: 1.2116626169946458e+00
            -
               depth: 2
               value: 1.7210488915443420e+00
               splits:
                  - { var:0, quality:5.3430335998535156e+01, le:35903. }
            -
               depth: 3
               value: 1.5429666837056477e+00
            -
               depth: 3
               value: 1.7566653331120810e+00
               splits:
                  - { var:0, quality:4.6410881042480469e+01, le:36671. }
            -
               depth: 4
               value: 1.9873299598693848e+00
            -
               depth: 4
               value: 1.7211784674571111e+00
               splits:
                  - { var:0, quality:3.8542961120605469e+01, le:38463. }
            -
               depth: 5
               value: 1.6593660116195679e+00
            -
               depth: 5
               value: 1.7598112523555756e+00
      -
         nodes:
            -
               depth: 0
               value: 7.7238889490013207e-01
               splits:
                  - { var:1, quality:5.8223297119140625e+01,
                      le:5.0000000000000000e-01 }
            -
               depth: 1
               value: 7.5082504781783105e-02
               splits:
                  - { var:0, quality:2.3447737097740173e-01, le:4927. }
            -
               depth: 2
               value: 2.4989042416284343e-02
            -
               depth: 2
               value: 2.3788625746965408e-01
            -
               depth: 1
               value: 9.6055093667809921e-01
               splits:
                  - { var:0, quality:6.7787811279296875e+01, le:22335. }
            -
               depth: 2
