%YAML:1.0
---
opencv_ml_rtrees:
   format: 3
   is_classifier: 0
   var_all: 3
   var_count: 2
   ord_var_count: 3
   cat_var_count: 0
   training_params:
      use_surrogates: 0
      max_categories: 10
      regression_accuracy: 9.9999999747524271e-07
      max_depth: 5
      min_sample_count: 1
      cross_validation_folds: 0
      nactive_vars: 0
   global_var_idx: 1
   var_idx: [ 0, 1 ]
   var_type: [ 0, 0, 0 ]
   cat_ofs: [ 0, 0, 0, 0 ]
   missing_subst: [ 0., 0., 0. ]
   oob_error: 2.3170656991746079e-02
   ntrees: 50
   trees:
      -
         nodes:
            -
               depth: 0
               value: 7.8308295019560314e-01
               splits:
                  - { var:1, quality:5.5504383087158203e+01,
                      le:5.0000000000000000e-01 }
            -
               depth: 1
               value: 7.2102470738834454e-02
               splits:
                  - { var:0, quality:1.0445964336395264e-01, le:3903. }
            -
               depth: 2
               value: 3.1957895367668243e-02
               splits:
                  - { var:0, quality:1.4022693037986755e-02, le:1343. }
            -
               depth: 3
               value: 4.9110927866422571e-03
               splits:
                  - { var:0, quality:1.7111591296270490e-04, le:831. }
            -
               depth: 4
               value: 2.4170903197955340e-03
               splits:
                  - { var:0, quality:2.4293271053466015e-05, le:319. }
            -
               depth: 5
               value: 2.9321099282242358e-04
            -
               depth: 5
               value: 3.4790299832820892e-03
            -
               depth: 4
               value: 1.2393100187182426e-02
            -
               depth: 3
               value: 5.9004697948694229e-02
               splits:
                  - { var:0, quality:1.5229109674692154e-02, le:2623. }
            -
               depth: 4
               value: 4.0956899523735046e-02
            -
               depth: 4
               value: 7.7052496373653412e-02
            -
               depth: 2
               value: 1.7915467172861099e-01
            -
               depth: 1
               value: 8.9642766431189969e-01
               splits:
                  - { var:0, quality:6.8681251525878906e+01, le:18495. }
            -
               depth: 2
               value: 4.1154921463420313e-01
            -
               depth: 2
               value: 1.2919863995752836e+00
               splits:
                  - { var:1, quality:6.3597190856933594e+01,
                      le:1.5000000000000000e+00 }
            -
               depth: 3
               value: 1.3177517634449583e+00
               splits:
                  - { var:0, quality:5.9255046844482422e+01, le:26943. }
            -
               depth: 4
               value: 1.0670848824083805e+00
               splits:
                  - { var:0, quality:1.8297288894653320e+01, le:22847. }
            -
               depth: 5
               value: 9.9701087176799774e-01
            -
               depth: 5
               value: 1.1371588930487633e+00
            -
               depth: 4
               value: 1.5536735338323258e+00
            -
               depth: 3
               value: 1.1219349980354310e+00
               splits:
                  - { var:0, quality:6.3649697303771973e+00, le:22847. }
            -
               depth: 4
               value: 8.8314002752304077e-01
            -
               depth: 4
               value: 1.1816337406635284e+00
               splits:
                  - { var:0, quality:5.6349143981933594e+00, le:33855. }
            -
               depth: 5
               value: 1.2461066643397014e+00
            -
               depth: 5
               value: 9.8821496963500977e-01
      -
         nodes:
            -
               depth: 0
               value: 8.1587309607893987e-01
               splits:
                  - { var:1, quality:6.2084598541259766e+01,
                      le:5.0000000000000000e-01 }
            -
               depth: 1
               value: 6.1533131486682505e-02
               splits:
                  - { var:0, quality:1.0317806899547577e-01, le:3903. }
            -
               depth: 2
               value: 2.6246669414103963e-02
               splits:
                  - { var:0, quality:1.1563980951905251e-02, le:1343. }
            -
               depth: 3
               value: 4.6246802259702234e-03
            -
               depth: 3
               value: 4.7868658602237699e-02
               splits:
                  - { var:0, quality:1.2521662749350071e-02, le:2623. }
            -
               depth: 4
               value: 4.0572699159383774e-02
               splits:
                  - { var:0, quality:6.5863467752933502e-03, le:1855. }
            -
               depth: 5
               value: 4.1725300252437592e-02
            -
               depth: 5
               value: 4.0188498795032501e-02
            -
               depth: 4
               value: 7.7052496373653412e-02
            -
               depth: 2
               value: 1.7915467172861099e-01
            -
               depth: 1
               value: 9.6223756682072115e-01
               splits:
                  - { var:0, quality:7.9826080322265625e+01, le:20031. }
            -
               depth: 2
               value: 4.2332512070424855e-01
               splits:
                  - { var:1, quality:6.0295424461364746e+00,
                      le:1.5000000000000000e+00 }
            -
               depth: 3
               value: 7.9519298672676086e-01
               splits:
                  - { var:0, quality:1.2721549272537231e+00, le:16959. }
            -
               depth: 4
               value: 7.3399198055267334e-01
            -
               depth: 4
               value: 8.5639399290084839e-01
            -
               depth: 3
               value: 3.9853392963608109e-01
            -
               depth: 2
               value: 1.4549575175557818e+00
               splits:
                  - { var:0, quality:7.6386756896972656e+01, le:32063. }
            -
               depth: 3
               value: 1.1914525347597458e+00
               splits:
                  - { var:1, quality:2.4136987686157227e+01,
                      le:1.5000000000000000e+00 }
            -
               depth: 4
               value: 1.1873933188617229e+00
            -
               depth: 4
               value: 1.2563999891281128e+00
            -
               depth: 3
               value: 1.7038233346409268e+00
               splits:
                  - { var:0, quality:5.2532180786132812e+01, le:35903. }
            -
               depth: 4
               value: 1.5926819920539856e+00
            -
               depth: 4
               value: 1.8427500128746033e+00
      -
         nodes:
            -
               depth: 0
               value: 9.0356127244667728e-01
               splits:
                  - { var:0, quality:9.0309921264648438e+01, le:16191. }
            -
               depth: 1
               value: 1.8192992998325888e-01
               splits:
                  - { var:0, quality:1.4912310838699341e+00, le:6975. }
            -
               depth: 2
               value: 9.7560328999645118e-02
               splits:
                  - { var:1, quality:2.1183335781097412e-01, le:1. }
            -
               depth: 3
               value: 8.4222357592807384e-02
               splits:
                  - { var:0, quality:1.5787319839000702e-01, le:3647. }
            -
               depth: 4
               value: 3.7775634665093899e-02
            -
               depth: 4
               value: 1.4393957278558187e-01
               splits:
                  - { var:0, quality:1.5727341175079346e-01, le:5183. }
            -
               depth: 5
               value: 1.1748939901590347e-01
            -
               depth: 5
               value: 2.1006500720977783e-01
            -
               depth: 3
               value: 1.4024183750152588e-01
               splits:
                  - { var:0, quality:1.1310552805662155e-01, le:3903. }
            -
               depth: 4
               value: 7.3683597147464752e-02
            -
               depth: 4
               value: 1.8461399773756662e-01
               splits:
                  - { var:0, quality:1.0335054993629456e-01, le:5695. }
            -
               depth: 5
               value: 1.5749000012874603e-01
            -
               depth: 5
               value: 1.9817599654197693e-01
            -
               depth: 2
               value: 3.7879233227835762e-01
               splits:
                  - { var:0, quality:1.3479659557342529e+00, le:9535. }
            -
               depth: 3
               value: 2.9011900722980499e-01
               splits:
                  - { var:0, quality:3.3879971504211426e-01, le:7999. }
            -
               depth: 4
               value: 3.1316000223159790e-01
            -
               depth: 4
               value: 2.6707801222801208e-01
            -
               depth: 3
               value: 4.4973099231719971e-01
            -
               depth: 1
               value: 1.3365400779247283e+00
               splits:
                  - { var:0, quality:9.4294822692871094e+01, le:30527. }
            -
               depth: 2
               value: 1.0568554976156779e+00
               splits:
                  - { var:1, quality:3.1445072174072266e+01,
                      le:1.5000000000000000e+00 }
            -
               depth: 3
               value: 1.1062305450439454e+00
               splits:
                  - { var:0, quality:2.4762434005737305e+01, le:23871. }
            -
               depth: 4
               value: 9.8633209466934202e-01
               splits:
                  - { var:0, quality:9.7551145553588867e+00, le:20543. }
            -
               depth: 5
               value: 8.8317349553108215e-01
            -
               depth: 5
               value: 1.0121217444539070e+00
            -
               depth: 4
               value: 1.2261289954185486e+00
            -
               depth: 3
               value: 9.3341787904500961e-01
               splits:
                  - { var:0, quality:7.1976814270019531e+00, le:22847. }
            -
               depth: 4
               value: 8.3605050047238672e-01
            -
               depth: 4
               value: 1.2255200147628784e+00
            -
               depth: 2
               value: 1.6925022710453381e+00
               splits:
                  - { var:0, quality:6.3246185302734375e+01, le:35903. }
            -
               depth: 3
               value: 1.6159228597368513e+00
               splits:
                  - { var:0, quality:3.6576026916503906e+01, le:34367. }
            -
               depth: 4
               value: 1.5789542709078108e+00
               splits:
                  - { var:0, quality:1.7455038070678711e+01, le:32063. }
            -
               depth: 5
               value: 1.5252799987792969e+00
            -
               depth: 5
               value: 1.5878999829292297e+00
            -
               depth: 4
               value: 1.6528914485658919e+00
               splits:
                  - { var:0, quality:1.9130437850952148e+01, le:35135. }
            -
               depth: 5
               value: 1.6995199918746948e+00
            -
               depth: 5
               value: 1.6342400312423706e+00
            -
               depth: 3
               value: 1.8265162408351898e+00
      -
         nodes:
            -
               depth: 0
               value: 9.5703277402681119e-01
               splits:
                  - { var:1, quality:8.0741714477539062e+01,
                      le:1.5000000000000000e+00 }
            -
               depth: 1
               value: 1.2130609847626281e+00
               splits:
                  - { var:1, quality:7.8322120666503906e+01,
                      le:5.0000000000000000e-01 }
            -
               depth: 2
               value: 5.8984166772764489e-02
            -
               depth: 2
               value: 1.3819502752001693e+00
            -
               depth: 1
               value: 5.9238653449398093e-01
      -
         nodes:
            -
               depth: 0
               value: 7.7140668774736698e-01
               splits:
                  - { var:1, quality:5.5240215301513672e+01,
                      le:1.5000000000000000e+00 }
            -
               depth: 1
               value: 1.0881533839527924e+00
               splits:
                  - { var:0, quality:5.6906284332275391e+01, le:11583. }
            -
               depth: 2
               value: 5.5753880624251906e-02
            -
               depth: 2
               value: 1.3545790622311253e+00
               splits:
                  - { var:0, quality:6.0705135345458984e+01, le:28479. }
            -
               depth: 3
               value: 1.0358647634001339e+00
               splits:
                  - { var:0, quality:1.8335662841796875e+01, le:25663. }
            -
               depth: 4
               value: 9.9453084743939912e-01
               splits:
                  - { var:0, quality:1.2903293609619141e+01, le:19775. }
            -
               depth: 5
               value: 8.5639399290084839e-01
            -
               depth: 5
               value: 1.0196466391736811e+00
            -
               depth: 4
               value: 1.1701999902725220e+00
            -
               depth: 3
               value: 1.7415892822401864e+00
               splits:
                  - { var:0, quality:4.2741111755371094e+01, le:35647. }
            -
               depth: 4
               value: 1.5790950059890747e+00
            -
               depth: 4
               value: 1.8634599894285202e+00
               splits:
                  - { var:0, quality:2.7798959732055664e+01, le:38719. }
            -
               depth: 5
               value: 1.8146049678325653e+00
            -
               depth: 5
               value: 1.9123150110244751e+00
            -
               depth: 1
               value: 4.7011104989342573e-01
               splits:
                  - { var:0, quality:1.1711421966552734e+01, le:17215. }
            -
               depth: 2
               value: 3.6484400161675046e-01
            -
               depth: 2
               value: 1.0841688315073650e+00
               splits:
                  - { var:0, quality:7.2098755836486816e+00, le:23615. }
            -
               depth: 3
               value: 9.2223099867502845e-01
               splits:
                  - { var:0, quality:2.5613276958465576e+00, le:19775. }
            -
               depth: 4
               value: 8.8182151317596436e-01
            -
               depth: 4
               value: 1.0030499696731567e+00
            -
               depth: 3
               value: 1.2461066643397014e+00
      -
         nodes:
            -
               depth: 0
               value: 8.6630107392556965e-01
               splits:
                  - { var:1, quality:6.7820022583007812e+01,
                      le:1.5000000000000000e+00 }
            -
               depth: 1
               value: 1.1413585186832480e+00
               splits:
                  - { var:1, quality:6.7696746826171875e+01,
                      le:5.0000000000000000e-01 }
            -
               depth: 2
               value: 9.5033586557422361e-02
               splits:
                  - { var:0, quality:1.0722642391920090e-01, le:2623. }
            -
               depth: 3
               value: 3.4790299832820892e-03
            -
               depth: 3
               value: 1.6369950398802757e-01
               splits:
                  - { var:0, quality:1.1578915268182755e-01, le:5183. }
            -
               depth: 4
               value: 1.1733400076627731e-01
            -
               depth: 4
               value: 2.1006500720977783e-01
            -
               depth: 2
               value: 1.3341025851274793e+00
            -
               depth: 1
               value: 5.1265578780855448e-01
      -
         nodes:
            -
               depth: 0
               value: 1.0201780711151514e+00
               splits:
                  - { var:0, quality:1.0435032653808594e+02, le:19775. }
            -
               depth: 1
               value: 3.5733600975072477e-01
               splits:
                  - { var:1, quality:5.2379546165466309e+00,
                      le:5.0000000000000000e-01 }
            -
               depth: 2
               value: 5.1037265241029674e-02
            -
               depth: 2
               value: 5.1048538200557236e-01
               splits:
                  - { var:1, quality:5.5030655860900879e+00,
                      le:1.5000000000000000e+00 }
            -
               depth: 3
               value: 7.9770499467849731e-01
            -
               depth: 3
               value: 4.5979956800446792e-01
            -
               depth: 1
               value: 1.4178833079338073e+00
               splits:
                  - { var:1, quality:1.0062545013427734e+02,
                      le:1.5000000000000000e+00 }
            -
               depth: 2
               value: 1.4295047952773723e+00
            -
               depth: 2
               value: 1.2358133395512898e+00
      -
         nodes:
            -
               depth: 0
               value: 9.4772736490704124e-01
               splits:
                  - { var:1, quality:8.2634277343750000e+01,
                      le:5.0000000000000000e-01 }
            -
               depth: 1
               value: 7.3922952326635524e-02
               splits:
                  - { var:0, quality:9.9933750927448273e-02, le:2111. }
            -
               depth: 2
               value: 1.0610286146402359e-02
            -
               depth: 2
               value: 1.1914628531251635e-01
               splits:
                  - { var:0, quality:1.0901477932929993e-01, le:5183. }
            -
               depth: 3
               value: 1.0399316499630611e-01
            -
               depth: 3
               value: 2.1006500720977783e-01
            -
               depth: 1
               value: 1.1019281435977011e+00
               splits:
                  - { var:1, quality:9.3182434082031250e+01,
                      le:1.5000000000000000e+00 }
            -
               depth: 2
               value: 1.4225325904241422e+00
               splits:
                  - { var:0, quality:8.6574134826660156e+01, le:31039. }
            -
               depth: 3
               value: 1.1729152599970500e+00
               splits:
                  - { var:0, quality:3.3610347747802734e+01, le:26943. }
            -
               depth: 4
               value: 1.0283443194169264e+00
               splits:
                  - { var:0, quality:1.3907158851623535e+01, le:20287. }
            -
               depth: 5
               value: 7.6836049556732178e-01
            -
               depth: 5
               value: 1.0756141055714001e+00
            -
               depth: 4
               value: 1.3437718261371960e+00
               splits:
                  - { var:0, quality:1.9885692596435547e+01, le:30527. }
            -
               depth: 5
               value: 1.3223366737365723e+00
            -
               depth: 5
               value: 1.4402300119400024e+00
            -
               depth: 3
               value: 1.7749335274976843e+00
            -
               depth: 2
               value: 6.1508435397236438e-01
      -
         nodes:
            -
               depth: 0
               value: 9.5581088468898090e-01
               splits:
                  - { var:0, quality:8.9544486999511719e+01, le:21055. }
            -
               depth: 1
               value: 4.6683896136646336e-01
               splits:
                  - { var:1, quality:9.5578374862670898e+00,
                      le:5.0000000000000000e-01 }
            -
               depth: 2
               value: 5.0830842394913943e-02
               splits:
                  - { var:0, quality:3.0566541478037834e-02, le:2879. }
            -
               depth: 3
               value: 2.4125980213284492e-02
               splits:
                  - { var:0, quality:3.9427680894732475e-03, le:1343. }
            -
               depth: 4
               value: 1.2393100187182426e-02
            -
               depth: 4
               value: 4.1725300252437592e-02
            -
               depth: 3
               value: 1.1759299784898758e-01
            -
               depth: 2
               value: 5.6390752245982489e-01
               splits:
                  - { var:1, quality:9.8648462295532227e+00,
                      le:1.5000000000000000e+00 }
            -
               depth: 3
               value: 7.9667899608612058e-01
               splits:
                  - { var:0, quality:3.1895258426666260e+00, le:19775. }
            -
               depth: 4
               value: 7.6836049556732178e-01
            -
               depth: 4
               value: 9.0995299816131592e-01
            -
               depth: 3
               value: 5.1735322773456571e-01
               splits:
                  - { var:0, quality:7.9680409431457520e+00, le:13887. }
            -
               depth: 4
               value: 3.3284077346324920e-01
            -
               depth: 4
               value: 7.9412190914154057e-01
               splits:
                  - { var:0, quality:6.4205107688903809e+00, le:17215. }
            -
               depth: 5
               value: 6.6323176026344299e-01
            -
               depth: 5
               value: 8.8138200839360559e-01
            -
               depth: 1
               value: 1.3765541675478914e+00
               splits:
                  - { var:0, quality:8.3551559448242188e+01, le:30271. }
            -
               depth: 2
               value: 1.1621501933444629e+00
               splits:
                  - { var:1, quality:2.9721881866455078e+01,
                      le:1.5000000000000000e+00 }
            -
               depth: 3
               value: 1.1558132112026214e+00
            -
               depth: 3
               value: 1.2255200147628784e+00
            -
               depth: 2
               value: 1.6011678548086257e+00
               splits:
                  - { var:1, quality:5.5153499603271484e+01,
                      le:1.5000000000000000e+00 }
            -
               depth: 3
               value: 1.7033266690042284e+00
            -
               depth: 3
               value: 9.8821496963500977e-01
      -
         nodes:
            -
               depth: 0
               value: 8.4236826604355886e-01
               splits:
                  - { var:1, quality:6.2499752044677734e+01,
                      le:1.5000000000000000e+00 }
            -
               depth: 1
               value: 1.0845108351608028e+00
               splits:
                  - { var:0, quality:6.1790355682373047e+01, le:20287. }
            -
               depth: 2
               value: 3.8528289359237533e-01
               splits:
                  - { var:1, quality:3.8641664981842041e+00,
                      le:5.0000000000000000e-01 }
            -
               depth: 3
               value: 7.5966317777783843e-02
               splits:
                  - { var:0, quality:7.1302726864814758e-02, le:3647. }
            -
               depth: 4
               value: 3.2547707279445601e-02
               splits:
                  - { var:0, quality:8.4305424243211746e-03, le:1087. }
            -
               depth: 5
               value: 1.8861204880522564e-03
            -
               depth: 5
               value: 5.2988765140374504e-02
            -
               depth: 4
               value: 1.4833066860834757e-01
               splits:
                  - { var:0, quality:7.1722656488418579e-02, le:5183. }
            -
               depth: 5
               value: 1.1746349930763245e-01
            -
               depth: 5
               value: 2.1006500720977783e-01
            -
               depth: 3
               value: 7.9770499467849731e-01
            -
               depth: 2
               value: 1.4108172078927359e+00
            -
               depth: 1
               value: 5.4641623712248277e-01
      -
         nodes:
            -
               depth: 0
               value: 8.6630501520012326e-01
               splits:
                  - { var:0, quality:7.5892501831054688e+01, le:17215. }
            -
               depth: 1
               value: 3.2109138919349789e-01
               splits:
                  - { var:1, quality:4.1813025474548340e+00,
                      le:5.0000000000000000e-01 }
            -
               depth: 2
               value: 3.3518658590764971e-02
               splits:
                  - { var:0, quality:1.9799878820776939e-02, le:2367. }
            -
               depth: 3
               value: 1.2293795264364841e-02
               splits:
                  - { var:0, quality:1.9462805939838290e-03, le:1343. }
            -
               depth: 4
               value: 6.4074942667502908e-03
            -
               depth: 4
               value: 4.1725300252437592e-02
            -
               depth: 3
               value: 9.7193248569965363e-02
            -
               depth: 2
               value: 4.1694896606107551e-01
               splits:
                  - { var:1, quality:4.3916230201721191e+00,
                      le:1.5000000000000000e+00 }
            -
               depth: 3
               value: 7.3399198055267334e-01
            -
               depth: 3
               value: 3.8812687383456662e-01
               splits:
                  - { var:0, quality:3.8561439514160156e+00, le:8511. }
            -
               depth: 4
               value: 1.5835931258542196e-01
               splits:
                  - { var:0, quality:1.9561964273452759e-01, le:3903. }
            -
               depth: 5
               value: 7.3683597147464752e-02
            -
               depth: 5
               value: 1.9222959876060486e-01
            -
               depth: 4
               value: 4.9535173575083413e-01
            -
               depth: 1
               value: 1.2297807658712070e+00
               splits:
                  - { var:1, quality:7.3389793395996094e+01,
                      le:1.5000000000000000e+00 }
            -
               depth: 2
               value: 1.2958615484990572e+00
               splits:
                  - { var:0, quality:6.7950668334960938e+01, le:32063. }
            -
               depth: 3
               value: 1.0578751564025879e+00
            -
               depth: 3
               value: 1.7535276871461134e+00
               splits:
                  - { var:0, quality:4.0124004364013672e+01, le:36415. }
            -
               depth: 4
               value: 1.6538028546742030e+00
            -
               depth: 4
               value: 1.8698733250300090e+00
            -
               depth: 2
               value: 9.7867379188537595e-01
               splits:
                  - { var:0, quality:9.6397113800048828e+00, le:19775. }
            -
               depth: 3
               value: 8.8248077034950256e-01
            -
               depth: 3
               value: 1.0428024729092915e+00
               splits:
                  - { var:0, quality:6.5435853004455566e+00, le:23871. }
            -
               depth: 4
               value: 1.0030499696731567e+00
            -
               depth: 4
               value: 1.1223074793815613e+00
      -
         nodes:
            -
               depth: 0
               value: 8.0336215427269053e-01
               splits:
                  - { var:1, quality:6.2489921569824219e+01,
                      le:5.0000000000000000e-01 }
            -
               depth: 1
               value: 6.6522243718281970e-02
            -
               depth: 1
               value: 9.8757213191129267e-01
               splits:
                  - { var:0, quality:7.5059852600097656e+01, le:20543. }
            -
               depth: 2
               value: 4.9933452493157882e-01
               splits:
                  - { var:1, quality:7.5185885429382324e+00,
                      le:1.5000000000000000e+00 }
            -
               depth: 3
               value: 7.9264565308888757e-01
               splits:
                  - { var:0, quality:1.9055029153823853e+00, le:17727. }
            -
               depth: 4
               value: 7.3399198055267334e-01
            -
               depth: 4
               value: 9.0995299816131592e-01
            -
               depth: 3
               value: 4.6549093322112012e-01
            -
               depth: 2
               value: 1.3921118634087699e+00
               splits:
                  - { var:0, quality:6.9247665405273438e+01, le:32063. }
            -
               depth: 3
               value: 1.2373568253083662e+00
               splits:
                  - { var:1, quality:3.3683288574218750e+01,
                      le:1.5000000000000000e+00 }
            -
               depth: 4
               value: 1.2379204829533894e+00
               splits:
                  - { var:0, quality:3.2427005767822266e+01, le:26943. }
            -
               depth: 5
               value: 1.1244940042495728e+00
            -
               depth: 5
               value: 1.3410354635932229e+00
            -
               depth: 4
               value: 1.2255200147628784e+00
            -
               depth: 3
               value: 1.6540050048094530e+00
               splits:
                  - { var:0, quality:3.6044738769531250e+01, le:39999. }
            -
               depth: 4
               value: 1.7094875077406566e+00
            -
               depth: 4
               value: 9.8821496963500977e-01
      -
         nodes:
            -
               depth: 0
               value: 9.1392149993807836e-01
               splits:
                  - { var:0, quality:8.7273628234863281e+01, le:20031. }
            -
               depth: 1
               value: 4.2077216567122377e-01
               splits:
                  - { var:1, quality:8.6045656204223633e+00,
                      le:5.0000000000000000e-01 }
            -
               depth: 2
               value: 7.9177294641138152e-02
            -
               depth: 2
               value: 5.1684572314843535e-01
               splits:
                  - { var:1, quality:8.9773368835449219e+00,
                      le:1.5000000000000000e+00 }
            -
               depth: 3
               value: 7.8596719503402712e-01
            -
               depth: 3
               value: 4.6700841353999245e-01
            -
               depth: 1
               value: 1.4323605436545153e+00
               splits:
                  - { var:1, quality:8.0697166442871094e+01,
                      le:1.5000000000000000e+00 }
            -
               depth: 2
               value: 1.4887704939553232e+00
               splits:
                  - { var:0, quality:7.5212272644042969e+01, le:30783. }
            -
               depth: 3
               value: 1.1970118667398180e+00
            -
               depth: 3
               value: 1.7037505350614850e+00
               splits:
                  - { var:0, quality:5.5400897979736328e+01, le:35647. }
            -
               depth: 4
               value: 1.5832388930850558e+00
               splits:
                  - { var:0, quality:2.2583000183105469e+01, le:33599. }
            -
               depth: 5
               value: 1.5264849960803986e+00
            -
               depth: 5
               value: 1.6286420106887818e+00
            -
               depth: 4
               value: 1.8122110128402711e+00
            -
               depth: 2
               value: 1.1221058170000713e+00
      -
         nodes:
            -
               depth: 0
               value: 7.2337363962797097e-01
               splits:
                  - { var:1, quality:4.9684135437011719e+01,
                      le:5.0000000000000000e-01 }
            -
               depth: 1
               value: 7.2433422742566714e-02
               splits:
                  - { var:0, quality:1.1010161787271500e-01, le:2623. }
            -
               depth: 2
               value: 1.6395391867263243e-02
               splits:
                  - { var:0, quality:3.4226563293486834e-03, le:1343. }
            -
               depth: 3
               value: 4.1146380390273407e-03
            -
               depth: 3
               value: 4.0956899523735046e-02
               splits:
                  - { var:0, quality:3.3561161253601313e-03, le:1855. }
            -
               depth: 4
               value: 4.1725300252437592e-02
            -
               depth: 4
               value: 4.0188498795032501e-02
            -
               depth: 2
               value: 1.0979210999276903e-01
            -
               depth: 1
               value: 8.7359061275537198e-01
               splits:
                  - { var:0, quality:6.5924819946289062e+01, le:19775. }
            -
               depth: 2
               value: 3.9514058192863183e-01
               splits:
                  - { var:1, quality:5.9274024963378906e+00,
                      le:1.5000000000000000e+00 }
            -
               depth: 3
               value: 7.6459248363971710e-01
               splits:
                  - { var:0, quality:2.3496434688568115e+00, le:16959. }
            -
               depth: 4
               value: 7.3399198055267334e-01
            -
               depth: 4
               value: 8.5639399290084839e-01
            -
               depth: 3
               value: 3.4588032836715382e-01
               splits:
                  - { var:0, quality:4.4736886024475098e+00, le:9023. }
            -
               depth: 4
               value: 1.8524555070325732e-01
            -
               depth: 4
               value: 5.2946293141160694e-01
            -
               depth: 2
               value: 1.3983422594685708e+00
               splits:
                  - { var:0, quality:6.2839282989501953e+01, le:30527. }
            -
               depth: 3
               value: 1.1553249990238863e+00
               splits:
                  - { var:0, quality:2.2844861984252930e+01, le:25407. }
            -
               depth: 4
               value: 1.0656861199273004e+00
               splits:
                  - { var:0, quality:1.0268613815307617e+01, le:22591. }
            -
               depth: 5
               value: 9.8452100157737732e-01
            -
               depth: 5
               value: 1.1306182146072388e+00
            -
               depth: 4
               value: 1.2561687380075455e+00
               splits:
                  - { var:1, quality:1.2624296188354492e+01,
                      le:1.5000000000000000e+00 }
            -
               depth: 5
               value: 1.2612383166948955e+00
            -
               depth: 5
               value: 1.2409600019454956e+00
            -
               depth: 3
               value: 1.6934346471514021e+00
               splits:
                  - { var:1, quality:4.0683685302734375e+01,
                      le:1.5000000000000000e+00 }
            -
               depth: 4
               value: 1.7476823146526630e+00
               splits:
                  - { var:0, quality:4.0046848297119141e+01, le:34111. }
            -
               depth: 5
               value: 1.5051949918270111e+00
            -
               depth: 5
               value: 1.8554544581307306e+00
            -
               depth: 4
               value: 9.8821496963500977e-01
      -
         nodes:
            -
               depth: 0
               value: 8.9219004495535048e-01
               splits:
                  - { var:0, quality:8.4872642517089844e+01, le:20031. }
            -
               depth: 1
               value: 4.1475786411658278e-01
               splits:
                  - { var:0, quality:1.0027957916259766e+01, le:10815. }
            -
               depth: 2
               value: 1.7309045732359996e-01
               splits:
                  - { var:1, quality:8.3908754587173462e-01, le:1. }
            -
               depth: 3
               value: 7.4014502950012689e-02
               splits:
                  - { var:0, quality:7.8451007604598999e-02, le:3647. }
            -
               depth: 4
               value: 4.2164717667869160e-02
               splits:
                  - { var:0, quality:1.5853084623813629e-02, le:2367. }
            -
               depth: 5
               value: 2.8209606185555458e-02
            -
               depth: 5
               value: 7.7052496373653412e-02
            -
               depth: 4
               value: 1.4833066860834757e-01
               splits:
                  - { var:0, quality:7.1722656488418579e-02, le:5183. }
            -
               depth: 5
               value: 1.1746349930763245e-01
            -
               depth: 5
               value: 2.1006500720977783e-01
            -
               depth: 3
               value: 2.5565375263492268e-01
               splits:
                  - { var:0, quality:8.4047907590866089e-01, le:7487. }
            -
               depth: 4
               value: 1.8723533302545547e-01
               splits:
                  - { var:0, quality:2.1299678087234497e-01, le:5695. }
            -
               depth: 5
               value: 1.5749000012874603e-01
            -
               depth: 5
               value: 2.0210799947381020e-01
            -
               depth: 4
               value: 3.2407217224438983e-01
               splits:
                  - { var:0, quality:6.3659375905990601e-01, le:9535. }
            -
               depth: 5
               value: 3.0940120816230776e-01
            -
               depth: 5
               value: 3.9742699265480042e-01
            -
               depth: 2
               value: 6.6793324266161236e-01
               splits:
                  - { var:1, quality:9.4265785217285156e+00,
                      le:1.5000000000000000e+00 }
            -
               depth: 3
               value: 8.2956150174140930e-01
               splits:
                  - { var:0, quality:1.3777844905853271e+00, le:19007. }
            -
               depth: 4
               value: 8.5639399290084839e-01
            -
               depth: 4
               value: 8.0272901058197021e-01
            -
               depth: 3
               value: 6.5091974170584432e-01
               splits:
                  - { var:0, quality:8.4033946990966797e+00, le:16703. }
            -
               depth: 4
               value: 5.5829784961847162e-01
            -
               depth: 4
               value: 8.5160050789515174e-01
            -
               depth: 1
               value: 1.4470436605247292e+00
               splits:
                  - { var:0, quality:8.0414955139160156e+01, le:33599. }
            -
               depth: 2
               value: 1.2143102288246155e+00
               splits:
                  - { var:1, quality:3.2455825805664062e+01,
                      le:1.5000000000000000e+00 }
            -
               depth: 3
               value: 1.2227687537670135e+00
            -
               depth: 3
               value: 1.1297249794006348e+00
               splits:
                  - { var:0, quality:2.5846502780914307e+00, le:23871. }
            -
               depth: 4
               value: 1.0030499696731567e+00
            -
               depth: 4
               value: 1.2563999891281128e+00
            -
               depth: 2
               value: 1.7883860270182292e+00
               splits:
                  - { var:0, quality:4.8152091979980469e+01, le:37439. }
            -
               depth: 3
               value: 1.6867100149393082e+00
               splits:
                  - { var:0, quality:2.2778545379638672e+01, le:34111. }
            -
               depth: 4
               value: 1.6031500101089478e+00
            -
               depth: 4
               value: 1.7145633498827617e+00
               splits:
                  - { var:0, quality:1.7642229080200195e+01, le:35903. }
            -
               depth: 5
               value: 1.6891866525014241e+00
            -
               depth: 5
               value: 1.7399400472640991e+00
            -
               depth: 3
               value: 1.9045871836798531e+00
      -
         nodes:
            -
               depth: 0
               value: 9.5867173193146304e-01
               splits:
                  - { var:0, quality:9.7532798767089844e+01, le:20031. }
            -
               depth: 1
               value: 3.5303220413900110e-01
               splits:
                  - { var:1, quality:5.6082205772399902e+00,
                      le:5.0000000000000000e-01 }
            -
               depth: 2
               value: 8.6948792780855336e-02
            -
               depth: 2
               value: 4.7010890513658521e-01
               splits:
                  - { var:0, quality:6.4905600547790527e+00, le:12863. }
            -
               depth: 3
               value: 3.0965117265780767e-01
            -
               depth: 3
               value: 7.1079550385475154e-01
               splits:
                  - { var:1, quality:5.0727190971374512e+00,
                      le:1.5000000000000000e+00 }
            -
               depth: 4
               value: 7.7981666723887122e-01
            -
               depth: 4
               value: 6.8121500526155743e-01
               splits:
                  - { var:0, quality:3.2947120666503906e+00, le:17215. }
            -
               depth: 5
               value: 6.4800033966700232e-01
            -
               depth: 5
               value: 8.8050299882888794e-01
            -
               depth: 1
               value: 1.4541949819434772e+00
               splits:
                  - { var:1, quality:9.3812232971191406e+01,
                      le:1.5000000000000000e+00 }
            -
               depth: 2
               value: 1.5066301132503308e+00
            -
               depth: 2
               value: 1.1221058170000713e+00
      -
         nodes:
            -
               depth: 0
               value: 8.5082953483797608e-01
               splits:
                  - { var:0, quality:7.4366683959960938e+01, le:17215. }
            -
               depth: 1
               value: 3.3659590450780730e-01
               splits:
                  - { var:0, quality:5.3766040802001953e+00, le:9023. }
            -
               depth: 2
               value: 1.1777966772206128e-01
               splits:
                  - { var:0, quality:3.3407273888587952e-01, le:4927. }
            -
               depth: 3
               value: 5.2937566116452214e-02
               splits:
                  - { var:0, quality:4.5358307659626007e-02, le:2367. }
            -
               depth: 4
               value: 1.8943009898066521e-02
               splits:
                  - { var:0, quality:3.6068598274141550e-03, le:1343. }
            -
               depth: 5
               value: 7.9360650852322578e-03
            -
               depth: 5
               value: 4.0956899523735046e-02
            -
               depth: 4
               value: 1.0392940044403076e-01
               splits:
                  - { var:1, quality:4.3924015015363693e-02, le:1. }
            -
               depth: 5
               value: 1.1733400076627731e-01
            -
               depth: 5
               value: 9.0524800121784210e-02
            -
               depth: 3
               value: 2.2584983706474304e-01
               splits:
                  - { var:0, quality:3.1844046711921692e-01, le:7487. }
            -
               depth: 4
               value: 1.9371525198221207e-01
               splits:
                  - { var:1, quality:1.5045881271362305e-01, le:1. }
            -
               depth: 5
               value: 2.1006500720977783e-01
            -
               depth: 5
               value: 1.8826533357302347e-01
            -
               depth: 4
               value: 2.9011900722980499e-01
               splits:
                  - { var:0, quality:1.6939985752105713e-01, le:7999. }
            -
               depth: 5
               value: 3.1316000223159790e-01
            -
               depth: 5
               value: 2.6707801222801208e-01
            -
               depth: 2
               value: 5.2086220916948822e-01
               splits:
                  - { var:1, quality:5.2025990486145020e+00,
                      le:1.5000000000000000e+00 }
            -
               depth: 3
               value: 7.3399198055267334e-01
            -
               depth: 3
               value: 5.0902166631486678e-01
               splits:
                  - { var:0, quality:4.8264884948730469e+00, le:12863. }
            -
               depth: 4
               value: 4.2400310039520261e-01
            -
               depth: 4
               value: 6.1529487371444702e-01
            -
               depth: 1
               value: 1.2507890250947740e+00
               splits:
                  - { var:1, quality:7.0933784484863281e+01,
                      le:1.5000000000000000e+00 }
            -
               depth: 2
               value: 1.3013706287822209e+00
               splits:
                  - { var:0, quality:6.5055732727050781e+01, le:26943. }
            -
               depth: 3
               value: 1.0537975305005123e+00
               splits:
                  - { var:0, quality:2.1285404205322266e+01, le:22335. }
            -
               depth: 4
               value: 9.2421458448682514e-01
               splits:
                  - { var:0, quality:5.9964265823364258e+00, le:19775. }
            -
               depth: 5
               value: 8.0272901058197021e-01
            -
               depth: 5
               value: 9.4446218013763428e-01
            -
               depth: 4
               value: 1.1293875823418300e+00
               splits:
                  - { var:0, quality:1.5337985992431641e+01, le:25407. }
            -
               depth: 5
               value: 1.0858872873442513e+00
            -
               depth: 5
               value: 1.1902879953384400e+00
            -
               depth: 3
               value: 1.5626977880795796e+00
               splits:
                  - { var:0, quality:4.4625926971435547e+01, le:34879. }
            -
               depth: 4
               value: 1.4430930889569795e+00
            -
               depth: 4
               value: 1.8736700057983398e+00
            -
               depth: 2
               value: 1.0168491080403328e+00
      -
         nodes:
            -
               depth: 0
               value: 8.2055353216019289e-01
               splits:
                  - { var:1, quality:6.3175567626953125e+01,
                      le:1.5000000000000000e+00 }
            -
               depth: 1
               value: 1.1064174746124797e+00
               splits:
                  - { var:0, quality:7.0593933105468750e+01, le:16959. }
            -
               depth: 2
               value: 1.5284982602249578e-01
               splits:
                  - { var:0, quality:1.0825467109680176e+00, le:9279. }
            -
               depth: 3
               value: 2.3707125015789643e-02
            -
               depth: 3
               value: 7.3399198055267334e-01
            -
               depth: 2
               value: 1.3977853672371969e+00
            -
               depth: 1
               value: 4.1341397775845096e-01
      -
         nodes:
            -
               depth: 0
               value: 8.8437162907794120e-01
               splits:
                  - { var:0, quality:8.7921867370605469e+01, le:20543. }
            -
               depth: 1
               value: 3.6217418884815172e-01
               splits:
                  - { var:1, quality:6.7900109291076660e+00,
                      le:5.0000000000000000e-01 }
            -
               depth: 2
               value: 9.9360924835006401e-02
            -
               depth: 2
               value: 4.6390835556291765e-01
               splits:
                  - { var:0, quality:7.7118668556213379e+00, le:12607. }
            -
               depth: 3
               value: 3.2805030122399331e-01
            -
               depth: 3
               value: 7.1092299981550733e-01
               splits:
                  - { var:0, quality:5.6773767471313477e+00, le:13887. }
            -
               depth: 4
               value: 5.4189733664194739e-01
               splits:
                  - { var:0, quality:8.8144034147262573e-01, le:13119. }
            -
               depth: 5
               value: 5.5982601642608643e-01
            -
               depth: 5
               value: 5.3293299674987793e-01
            -
               depth: 4
               value: 7.7430762350559235e-01
               splits:
                  - { var:1, quality:4.8079967498779297e+00,
                      le:1.5000000000000000e+00 }
            -
               depth: 5
               value: 8.1235074996948242e-01
            -
               depth: 5
               value: 7.3626449704170227e-01
            -
               depth: 1
               value: 1.4912497352909397e+00
               splits:
                  - { var:0, quality:8.4174064636230469e+01, le:32575. }
            -
               depth: 2
               value: 1.2711205356999447e+00
               splits:
                  - { var:1, quality:3.0701395034790039e+01,
                      le:1.5000000000000000e+00 }
            -
               depth: 3
               value: 1.2736538979742262e+00
            -
               depth: 3
               value: 1.2255200147628784e+00
            -
               depth: 2
               value: 1.7236083348592122e+00
               splits:
                  - { var:0, quality:5.3736839294433594e+01, le:37695. }
            -
               depth: 3
               value: 1.6383025050163269e+00
            -
               depth: 3
               value: 1.8942199945449829e+00
               splits:
                  - { var:0, quality:2.1534700393676758e+01, le:38719. }
            -
               depth: 4
               value: 1.8218599557876587e+00
            -
               depth: 4
               value: 1.9086920022964478e+00
      -
         nodes:
            -
               depth: 0
               value: 8.6143085489638904e-01
               splits:
                  - { var:0, quality:7.9383583068847656e+01, le:17215. }
            -
               depth: 1
               value: 2.9422154381089577e-01
               splits:
                  - { var:0, quality:4.3443861007690430e+00, le:7231. }
            -
               depth: 2
               value: 8.3031314361505792e-02
               splits:
                  - { var:1, quality:1.4094169437885284e-01, le:1. }
            -
               depth: 3
               value: 5.3530493827896534e-02
            -
               depth: 3
               value: 1.4793311953544616e-01
               splits:
                  - { var:0, quality:1.2040675431489944e-01, le:4415. }
            -
               depth: 4
               value: 9.0524800121784210e-02
               splits:
                  - { var:0, quality:1.6956731677055359e-02, le:3135. }
            -
               depth: 5
               value: 7.3683597147464752e-02
            -
               depth: 5
               value: 1.0736600309610367e-01
            -
               depth: 4
               value: 1.8620533247788748e-01
               splits:
                  - { var:0, quality:1.0525413602590561e-01, le:5695. }
            -
               depth: 5
               value: 1.5749000012874603e-01
            -
               depth: 5
               value: 2.0056299865245819e-01
            -
               depth: 2
               value: 4.7206594755775050e-01
            -
               depth: 1
               value: 1.3025936524073283e+00
               splits:
                  - { var:1, quality:7.6992568969726562e+01,
                      le:1.5000000000000000e+00 }
            -
               depth: 2
               value: 1.3537308244328750e+00
            -
               depth: 2
               value: 1.0249918614115034e+00
               splits:
                  - { var:0, quality:7.6109399795532227e+00, le:22847. }
            -
               depth: 3
               value: 8.5915575921535492e-01
               splits:
                  - { var:0, quality:2.9548954963684082e+00, le:18495. }
            -
               depth: 4
               value: 8.3517149090766907e-01
            -
               depth: 4
               value: 8.8314002752304077e-01
            -
               depth: 3
               value: 1.2461066643397014e+00
               splits:
                  - { var:0, quality:4.6589813232421875e+00, le:26943. }
            -
               depth: 4
               value: 1.2255200147628784e+00
            -
               depth: 4
               value: 1.2563999891281128e+00
      -
         nodes:
            -
               depth: 0
               value: 7.9934582912828778e-01
               splits:
                  - { var:1, quality:5.7474922180175781e+01,
                      le:1.5000000000000000e+00 }
            -
               depth: 1
               value: 1.0543583112938160e+00
               splits:
                  - { var:1, quality:6.1401218414306641e+01,
                      le:5.0000000000000000e-01 }
            -
               depth: 2
               value: 7.2036264650523665e-02
               splits:
                  - { var:0, quality:7.0327267050743103e-02, le:2111. }
            -
               depth: 3
               value: 6.4503867179155350e-03
            -
               depth: 3
               value: 1.0014449805021286e-01
               splits:
                  - { var:0, quality:7.3001958429813385e-02, le:3647. }
            -
               depth: 4
               value: 7.7052496373653412e-02
            -
               depth: 4
               value: 1.1746349930763245e-01
               splits:
                  - { var:0, quality:5.5190760642290115e-02, le:4415. }
            -
               depth: 5
               value: 1.1759299784898758e-01
            -
               depth: 5
               value: 1.1733400076627731e-01
            -
               depth: 2
               value: 1.3432765603065491e+00
               splits:
                  - { var:0, quality:6.3011894226074219e+01, le:27199. }
            -
               depth: 3
               value: 1.0235211849212646e+00
            -
               depth: 3
               value: 1.4962030441864678e+00
               splits:
                  - { var:0, quality:5.2102966308593750e+01, le:32575. }
            -
               depth: 4
               value: 1.3880768865346909e+00
            -
               depth: 4
               value: 1.7433485473905290e+00
               splits:
                  - { var:0, quality:2.1329421997070312e+01, le:35391. }
            -
               depth: 5
               value: 1.6413933038711548e+00
            -
               depth: 5
               value: 1.8198149800300598e+00
            -
               depth: 1
               value: 4.8766390648153091e-01
               splits:
                  - { var:0, quality:9.9503297805786133e+00, le:13631. }
            -
               depth: 2
               value: 3.7425909660480638e-01
            -
               depth: 2
               value: 8.2787833611170447e-01
      -
         nodes:
            -
               depth: 0
               value: 8.5161547353491185e-01
               splits:
                  - { var:1, quality:6.6394737243652344e+01,
                      le:1.5000000000000000e+00 }
            -
               depth: 1
               value: 1.1369607607523600e+00
               splits:
                  - { var:0, quality:6.9220054626464844e+01, le:12095. }
            -
               depth: 2
               value: 7.1296982467174530e-02
            -
               depth: 2
               value: 1.3673745506518595e+00
            -
               depth: 1
               value: 4.8474296139819284e-01
               splits:
                  - { var:0, quality:1.0556390762329102e+01, le:15423. }
            -
               depth: 2
               value: 3.4423021006363408e-01
            -
               depth: 2
               value: 9.5897349715232849e-01
               splits:
                  - { var:0, quality:7.7395005226135254e+00, le:19263. }
            -
               depth: 3
               value: 7.4032449722290039e-01
            -
               depth: 3
               value: 1.1776224970817566e+00
               splits:
                  - { var:0, quality:5.5878129005432129e+00, le:23615. }
            -
               depth: 4
               value: 1.0030499696731567e+00
            -
               depth: 4
               value: 1.2358133395512898e+00
      -
         nodes:
            -
               depth: 0
               value: 9.3125276736354867e-01
               splits:
                  - { var:1, quality:7.7701744079589844e+01,
                      le:1.5000000000000000e+00 }
            -
               depth: 1
               value: 1.2015292852704582e+00
               splits:
                  - { var:1, quality:7.8592720031738281e+01,
                      le:5.0000000000000000e-01 }
            -
               depth: 2
               value: 5.8818463065628226e-02
               splits:
                  - { var:0, quality:5.5017374455928802e-02, le:3135. }
            -
               depth: 3
               value: 1.6866046696668489e-02
            -
               depth: 3
               value: 1.6369950398802757e-01
               splits:
                  - { var:0, quality:5.7894576340913773e-02, le:5183. }
            -
               depth: 4
               value: 1.1733400076627731e-01
            -
               depth: 4
               value: 2.1006500720977783e-01
            -
               depth: 2
               value: 1.4015036791563034e+00
            -
               depth: 1
               value: 5.4631348428401083e-01
               splits:
                  - { var:0, quality:1.1989540100097656e+01, le:13119. }
            -
               depth: 2
               value: 2.9923935453681383e-01
               splits:
                  - { var:0, quality:1.7134975194931030e+00, le:7487. }
            -
               depth: 3
               value: 1.5562666828433672e-01
            -
               depth: 3
               value: 3.7757354703816498e-01
            -
               depth: 2
               value: 8.0882974714040756e-01
      -
         nodes:
            -
               depth: 0
               value: 9.5530710846651345e-01
               splits:
                  - { var:1, quality:8.1331344604492188e+01,
                      le:5.0000000000000000e-01 }
            -
               depth: 1
               value: 1.0195423159748315e-01
               splits:
                  - { var:0, quality:1.5445634722709656e-01, le:3647. }
            -
               depth: 2
               value: 3.0884059146046638e-02
            -
               depth: 2
               value: 1.7302440404891967e-01
               splits:
                  - { var:0, quality:1.5997727215290070e-01, le:5183. }
            -
               depth: 3
               value: 1.1746349930763245e-01
               splits:
                  - { var:0, quality:2.7595380321145058e-02, le:4415. }
            -
               depth: 4
               value: 1.1759299784898758e-01
            -
               depth: 4
               value: 1.1733400076627731e-01
            -
               depth: 3
               value: 2.1006500720977783e-01
            -
               depth: 1
               value: 1.0772146623049463e+00
               splits:
                  - { var:0, quality:9.6792243957519531e+01, le:20287. }
            -
               depth: 2
               value: 4.4457032382488249e-01
               splits:
                  - { var:1, quality:5.1666746139526367e+00,
                      le:1.5000000000000000e+00 }
            -
               depth: 3
               value: 9.0995299816131592e-01
            -
               depth: 3
               value: 4.2517937906086445e-01
            -
               depth: 2
               value: 1.4286837392383152e+00
               splits:
                  - { var:0, quality:9.5003883361816406e+01, le:30783. }
            -
               depth: 3
               value: 1.1580460450866006e+00
               splits:
                  - { var:1, quality:2.9522182464599609e+01,
                      le:1.5000000000000000e+00 }
            -
               depth: 4
               value: 1.1738272414487951e+00
               splits:
                  - { var:0, quality:2.3599422454833984e+01, le:25407. }
            -
               depth: 5
               value: 1.0660203844308853e+00
            -
               depth: 5
               value: 1.2696555587980483e+00
            -
               depth: 4
               value: 1.1043899774551391e+00
               splits:
                  - { var:0, quality:6.1754097938537598e+00, le:23871. }
            -
               depth: 5
               value: 1.0030499696731567e+00
            -
               depth: 5
               value: 1.2563999891281128e+00
            -
               depth: 3
               value: 1.6875545771225640e+00
               splits:
                  - { var:0, quality:6.6011634826660156e+01, le:39999. }
            -
               depth: 4
               value: 1.7193427410992710e+00
            -
               depth: 4
               value: 9.8821496963500977e-01
      -
         nodes:
            -
               depth: 0
               value: 9.2111010906191948e-01
               splits:
                  - { var:0, quality:8.7857131958007812e+01, le:18239. }
            -
               depth: 1
               value: 3.2467610503910249e-01
               splits:
                  - { var:1, quality:4.3031773567199707e+00, le:1. }
            -
               depth: 2
               value: 4.5252902516949689e-02
               splits:
                  - { var:0, quality:3.0450766906142235e-02, le:2111. }
            -
               depth: 3
               value: 3.3181832914124243e-03
               splits:
                  - { var:0, quality:1.5384684957098216e-04, le:575. }
            -
               depth: 4
               value: 2.9321099282242358e-04
            -
               depth: 4
               value: 1.2393100187182426e-02
            -
               depth: 3
               value: 8.7187621742486954e-02
            -
               depth: 2
               value: 4.1409152984619141e-01
               splits:
                  - { var:0, quality:4.9909949302673340e+00, le:12351. }
            -
               depth: 3
               value: 3.0942912234200370e-01
            -
               depth: 3
               value: 6.8322343485695980e-01
               splits:
                  - { var:0, quality:3.2863450050354004e+00, le:14911. }
            -
               depth: 4
               value: 6.0131502151489258e-01
            -
               depth: 4
               value: 7.1598680019378658e-01
               splits:
                  - { var:0, quality:2.5700032711029053e+00, le:17215. }
            -
               depth: 5
               value: 6.9752350449562073e-01
            -
               depth: 5
               value: 7.8983998298645020e-01
            -
               depth: 1
               value: 1.3398829203970888e+00
               splits:
                  - { var:1, quality:8.4470710754394531e+01,
                      le:1.5000000000000000e+00 }
            -
               depth: 2
               value: 1.3492232733302647e+00
            -
               depth: 2
               value: 1.1297249794006348e+00
      -
         nodes:
            -
               depth: 0
               value: 9.5244867544279255e-01
               splits:
                  - { var:0, quality:9.3547386169433594e+01, le:22079. }
            -
               depth: 1
               value: 4.5305467312715425e-01
               splits:
                  - { var:1, quality:1.0706390380859375e+01,
                      le:5.0000000000000000e-01 }
            -
               depth: 2
               value: 8.5595465801209983e-02
            -
               depth: 2
               value: 6.0510675891720012e-01
               splits:
                  - { var:1, quality:1.1357721328735352e+01,
                      le:1.5000000000000000e+00 }
            -
               depth: 3
               value: 8.4311411115858292e-01
            -
               depth: 3
               value: 4.9800345040857791e-01
               splits:
                  - { var:0, quality:5.7432780265808105e+00, le:12607. }
            -
               depth: 4
               value: 3.0012350156903267e-01
            -
               depth: 4
               value: 6.9588339924812315e-01
               splits:
                  - { var:0, quality:4.9731054306030273e+00, le:17215. }
            -
               depth: 5
               value: 6.0258516669273376e-01
            -
               depth: 5
               value: 8.3583074808120728e-01
            -
               depth: 1
               value: 1.4774526265951304e+00
               splits:
                  - { var:0, quality:8.6897285461425781e+01, le:30527. }
            -
               depth: 2
               value: 1.2354118964251350e+00
               splits:
                  - { var:0, quality:2.6150566101074219e+01, le:26943. }
            -
               depth: 3
               value: 1.1320202350616455e+00
               splits:
                  - { var:0, quality:1.1554109573364258e+01, le:24895. }
            -
               depth: 4
               value: 1.1660800178845723e+00
               splits:
                  - { var:0, quality:8.1747455596923828e+00, le:23359. }
            -
               depth: 5
               value: 1.0495699644088745e+00
            -
               depth: 5
               value: 1.1893820285797119e+00
            -
               depth: 4
               value: 1.0639006694157918e+00
               splits:
                  - { var:0, quality:3.4348351955413818e+00, le:25919. }
            -
               depth: 5
               value: 9.8309099674224854e-01
            -
               depth: 5
               value: 1.2255200147628784e+00
            -
               depth: 3
               value: 1.3517275154590607e+00
               splits:
                  - { var:0, quality:1.4627723693847656e+01, le:27455. }
            -
               depth: 4
               value: 1.2563999891281128e+00
            -
               depth: 4
               value: 1.3653457335063390e+00
            -
               depth: 2
               value: 1.6644840999083086e+00
               splits:
                  - { var:1, quality:6.1957309722900391e+01,
                      le:1.5000000000000000e+00 }
            -
               depth: 3
               value: 1.7321110129356385e+00
            -
               depth: 3
               value: 9.8821496963500977e-01
      -
         nodes:
            -
               depth: 0
               value: 8.6410567079328759e-01
               splits:
                  - { var:0, quality:8.1269355773925781e+01, le:17727. }
            -
               depth: 1
               value: 2.9051351358147159e-01
               splits:
                  - { var:1, quality:3.7232046127319336e+00, le:1. }
            -
               depth: 2
               value: 8.2578583781882611e-02
            -
               depth: 2
               value: 3.8200488269329069e-01
               splits:
                  - { var:0, quality:4.5636324882507324e+00, le:9791. }
            -
               depth: 3
               value: 1.9815484720927018e-01
               splits:
                  - { var:0, quality:5.5896550416946411e-01, le:7231. }
            -
               depth: 4
               value: 1.6469440013170242e-01
               splits:
                  - { var:0, quality:2.7981948852539062e-01, le:5695. }
            -
               depth: 5
               value: 1.4078200111786524e-01
            -
               depth: 5
               value: 2.0056299865245819e-01
            -
               depth: 4
               value: 3.0968967080116272e-01
            -
               depth: 3
               value: 5.8117575446764624e-01
               splits:
                  - { var:0, quality:4.1054005622863770e+00, le:15423. }
            -
               depth: 4
               value: 5.2542471885681152e-01
            -
               depth: 4
               value: 6.5922720432281490e-01
            -
               depth: 1
               value: 1.3334083448756824e+00
               splits:
                  - { var:0, quality:8.0554870605468750e+01, le:27455. }
            -
               depth: 2
               value: 1.0697930110128302e+00
               splits:
                  - { var:1, quality:2.1855430603027344e+01,
                      le:1.5000000000000000e+00 }
            -
               depth: 3
               value: 1.0367342010140419e+00
            -
               depth: 3
               value: 1.2461066643397014e+00
               splits:
                  - { var:0, quality:4.6589813232421875e+00, le:26943. }
            -
               depth: 4
               value: 1.2255200147628784e+00
            -
               depth: 4
               value: 1.2563999891281128e+00
            -
               depth: 2
               value: 1.5337559986114502e+00
               splits:
                  - { var:0, quality:6.0227401733398438e+01, le:40255. }
            -
               depth: 3
               value: 1.6376685755593436e+00
               splits:
                  - { var:0, quality:5.7257137298583984e+01, le:34111. }
            -
               depth: 4
               value: 1.3685412555932999e+00
               splits:
                  - { var:0, quality:1.4999320983886719e+01, le:30271. }
            -
               depth: 5
               value: 1.3338140010833741e+00
            -
               depth: 5
               value: 1.4264200131098430e+00
            -
               depth: 4
               value: 1.8032853878461397e+00
            -
               depth: 3
               value: 9.8821496963500977e-01
      -
         nodes:
            -
               depth: 0
               value: 9.4357004337944095e-01
               splits:
                  - { var:0, quality:9.0576644897460938e+01, le:16447. }
            -
               depth: 1
               value: 3.0863747658828894e-01
               splits:
                  - { var:1, quality:3.6001484394073486e+00,
                      le:5.0000000000000000e-01 }
            -
               depth: 2
               value: 6.8335581570863724e-02
            -
               depth: 2
               value: 4.1162400302432833e-01
               splits:
                  - { var:0, quality:3.8589663505554199e+00, le:10559. }
            -
               depth: 3
               value: 2.8609080314636232e-01
               splits:
                  - { var:0, quality:8.5041552782058716e-01, le:7231. }
            -
               depth: 4
               value: 1.9976733128229776e-01
            -
               depth: 4
               value: 3.2308657680238995e-01
               splits:
                  - { var:0, quality:7.4219077825546265e-01, le:9535. }
            -
               depth: 5
               value: 2.9745600819587709e-01
            -
               depth: 5
               value: 3.8716299831867218e-01
            -
               depth: 3
               value: 5.2574509382247925e-01
               splits:
                  - { var:1, quality:3.0881903171539307e+00,
                      le:1.5000000000000000e+00 }
            -
               depth: 4
               value: 7.3399198055267334e-01
            -
               depth: 4
               value: 5.0492040514945979e-01
            -
               depth: 1
               value: 1.3245295834541322e+00
               splits:
                  - { var:1, quality:8.8460845947265625e+01,
                      le:1.5000000000000000e+00 }
            -
               depth: 2
               value: 1.3651337385177613e+00
               splits:
                  - { var:0, quality:8.6780899047851562e+01, le:30527. }
            -
               depth: 3
               value: 1.1373191261291504e+00
               splits:
                  - { var:0, quality:3.2836517333984375e+01, le:22847. }
            -
               depth: 4
               value: 9.6426180601119993e-01
            -
               depth: 4
               value: 1.2526906728744507e+00
            -
               depth: 3
               value: 1.6499020040035248e+00
            -
               depth: 2
               value: 9.5909218788146977e-01
      -
         nodes:
            -
               depth: 0
               value: 9.1447911789764480e-01
               splits:
                  - { var:1, quality:7.4483360290527344e+01,
                      le:1.5000000000000000e+00 }
            -
               depth: 1
               value: 1.1529366106708767e+00
               splits:
                  - { var:0, quality:7.9280570983886719e+01, le:17727. }
            -
               depth: 2
               value: 1.4031895146763418e-01
               splits:
                  - { var:1, quality:5.8850258588790894e-01,
                      le:5.0000000000000000e-01 }
            -
               depth: 3
               value: 7.4355281569296494e-02
               splits:
                  - { var:0, quality:6.5523624420166016e-02, le:2367. }
            -
               depth: 4
               value: 1.5165847076180702e-02
               splits:
                  - { var:0, quality:1.7481156392022967e-03, le:1087. }
            -
               depth: 5
               value: 1.8861204880522564e-03
            -
               depth: 5
               value: 4.1725300252437592e-02
            -
               depth: 4
               value: 1.0394999881585439e-01
            -
               depth: 3
               value: 7.3399198055267334e-01
            -
               depth: 2
               value: 1.4060910254716874e+00
            -
               depth: 1
               value: 5.1704996327559150e-01
      -
         nodes:
            -
               depth: 0
               value: 9.2868152961600570e-01
               splits:
                  - { var:0, quality:8.8434661865234375e+01, le:19775. }
            -
               depth: 1
               value: 3.8372253611062962e-01
               splits:
                  - { var:1, quality:6.4092750549316406e+00,
                      le:5.0000000000000000e-01 }
            -
               depth: 2
               value: 7.9786189107431307e-02
            -
               depth: 2
               value: 4.8503465177836241e-01
               splits:
                  - { var:1, quality:6.4567942619323730e+00,
                      le:1.5000000000000000e+00 }
            -
               depth: 3
               value: 8.0272901058197021e-01
            -
               depth: 3
               value: 4.7281563797822368e-01
               splits:
                  - { var:0, quality:6.9258561134338379e+00, le:9535. }
            -
               depth: 4
               value: 1.8840284314420488e-01
            -
               depth: 4
               value: 6.2338711759623355e-01
            -
               depth: 1
               value: 1.3745570697567679e+00
               splits:
                  - { var:1, quality:8.3898551940917969e+01,
                      le:1.5000000000000000e+00 }
            -
               depth: 2
               value: 1.4269393745221590e+00
               splits:
                  - { var:0, quality:8.0741783142089844e+01, le:30783. }
            -
               depth: 3
               value: 1.1292350543172736e+00
               splits:
                  - { var:0, quality:2.4622295379638672e+01, le:25663. }
            -
               depth: 4
               value: 1.0064241886138916e+00
               splits:
                  - { var:0, quality:1.1206844329833984e+01, le:22335. }
            -
               depth: 5
               value: 9.4828929219927105e-01
            -
               depth: 5
               value: 1.1081602573394775e+00
            -
               depth: 4
               value: 1.2980999946594238e+00
            -
               depth: 3
               value: 1.7246436947270443e+00
               splits:
                  - { var:0, quality:5.6937725067138672e+01, le:35647. }
            -
               depth: 4
               value: 1.5494325160980225e+00
            -
               depth: 4
               value: 1.8520700064572422e+00
               splits:
                  - { var:0, quality:3.7771610260009766e+01, le:37439. }
            -
               depth: 5
               value: 1.7538266976674397e+00
            -
               depth: 5
               value: 1.8889112472534180e+00
            -
               depth: 2
               value: 1.0428024729092915e+00
               splits:
                  - { var:0, quality:6.5435853004455566e+00, le:23871. }
            -
               depth: 3
               value: 1.0030499696731567e+00
            -
               depth: 3
               value: 1.1223074793815613e+00
      -
         nodes:
            -
               depth: 0
               value: 7.6441637066782275e-01
               splits:
                  - { var:1, quality:5.4255241394042969e+01,
                      le:5.0000000000000000e-01 }
            -
               depth: 1
               value: 3.5127166263312880e-02
               splits:
                  - { var:0, quality:2.4052290245890617e-02, le:2623. }
            -
               depth: 2
               value: 2.2713949801982380e-02
               splits:
                  - { var:0, quality:8.4314523264765739e-03, le:1343. }
            -
               depth: 3
               value: 4.6246802259702234e-03
            -
               depth: 3
               value: 4.0803219377994540e-02
            -
               depth: 2
               value: 9.7193248569965363e-02
               splits:
                  - { var:0, quality:1.9704354926943779e-02, le:3903. }
            -
               depth: 3
               value: 7.7052496373653412e-02
            -
               depth: 3
               value: 1.1733400076627731e-01
            -
               depth: 1
               value: 8.9311446556273633e-01
               splits:
                  - { var:1, quality:6.4450027465820312e+01,
                      le:1.5000000000000000e+00 }
            -
               depth: 2
               value: 1.3292092402776083e+00
            -
               depth: 2
               value: 5.4882911710362681e-01
      -
         nodes:
            -
               depth: 0
               value: 8.2968657939600232e-01
               splits:
                  - { var:0, quality:7.6030754089355469e+01, le:21055. }
            -
               depth: 1
               value: 4.0078021159353466e-01
               splits:
                  - { var:0, quality:1.0133012771606445e+01, le:12351. }
            -
               depth: 2
               value: 2.2428553181137734e-01
               splits:
                  - { var:1, quality:1.7741242647171021e+00, le:1. }
            -
               depth: 3
               value: 5.3920390446104909e-02
            -
               depth: 3
               value: 2.7613579222689505e-01
            -
               depth: 2
               value: 7.1224141120910645e-01
               splits:
                  - { var:0, quality:8.7456655502319336e+00, le:14911. }
            -
               depth: 3
               value: 5.9764484564463294e-01
            -
               depth: 3
               value: 7.7474862878972839e-01
               splits:
                  - { var:1, quality:6.6026482582092285e+00,
                      le:1.5000000000000000e+00 }
            -
               depth: 4
               value: 7.7221978902816768e-01
            -
               depth: 4
               value: 7.7685599525769555e-01
               splits:
                  - { var:0, quality:3.6368515491485596e+00, le:17215. }
            -
               depth: 5
               value: 7.0423799753189087e-01
            -
               depth: 5
               value: 8.1316499412059784e-01
            -
               depth: 1
               value: 1.4405532244480017e+00
               splits:
                  - { var:1, quality:6.8747253417968750e+01,
                      le:1.5000000000000000e+00 }
            -
               depth: 2
               value: 1.4689373811086019e+00
               splits:
                  - { var:0, quality:6.6597572326660156e+01, le:29759. }
            -
               depth: 3
               value: 1.1413155577399514e+00
               splits:
                  - { var:0, quality:1.4465561866760254e+01, le:26687. }
            -
               depth: 4
               value: 1.0887167851130168e+00
               splits:
                  - { var:0, quality:1.0686040878295898e+01, le:23871. }
            -
               depth: 5
               value: 1.0483819961547851e+00
            -
               depth: 5
               value: 1.1391352713108063e+00
            -
               depth: 4
               value: 1.3780100345611572e+00
            -
               depth: 3
               value: 1.6586131735851890e+00
            -
               depth: 2
               value: 1.1567116578420003e+00
      -
         nodes:
            -
               depth: 0
               value: 9.9889096961014734e-01
               splits:
                  - { var:0, quality:9.7295036315917969e+01, le:19775. }
            -
               depth: 1
               value: 4.2652116084082081e-01
               splits:
                  - { var:0, quality:7.7026920318603516e+00, le:11839. }
            -
               depth: 2
               value: 2.1268795135256369e-01
               splits:
                  - { var:0, quality:1.0991129875183105e+00, le:7487. }
            -
               depth: 3
               value: 1.0016891126579139e-01
               splits:
                  - { var:0, quality:1.3937237858772278e-01, le:2879. }
            -
               depth: 4
               value: 2.3650027556868736e-02
               splits:
                  - { var:0, quality:3.4354063682258129e-03, le:1343. }
            -
               depth: 5
               value: 6.3431555900024250e-03
            -
               depth: 5
               value: 4.0956899523735046e-02
            -
               depth: 4
               value: 1.5118150040507317e-01
               splits:
                  - { var:0, quality:1.4539484679698944e-01, le:5951. }
            -
               depth: 5
               value: 1.2494575046002865e-01
            -
               depth: 5
               value: 2.0365300029516220e-01
            -
               depth: 3
               value: 3.5333675146102905e-01
               splits:
                  - { var:0, quality:1.0094321966171265e+00, le:8511. }
            -
               depth: 4
               value: 2.9011900722980499e-01
               splits:
                  - { var:0, quality:1.6939985752105713e-01, le:7999. }
            -
               depth: 5
               value: 3.1316000223159790e-01
            -
               depth: 5
               value: 2.6707801222801208e-01
            -
               depth: 4
               value: 3.7440933287143707e-01
               splits:
                  - { var:0, quality:8.4338444471359253e-01, le:10815. }
            -
               depth: 5
               value: 3.6567180156707763e-01
            -
               depth: 5
               value: 4.1809698939323425e-01
            -
               depth: 2
               value: 7.0144957304000854e-01
               splits:
                  - { var:1, quality:6.9601631164550781e+00,
                      le:1.5000000000000000e+00 }
            -
               depth: 3
               value: 8.3850566546122229e-01
            -
               depth: 3
               value: 6.6407063874331385e-01
               splits:
                  - { var:0, quality:4.9906139373779297e+00, le:17471. }
            -
               depth: 4
               value: 5.7887386424200871e-01
               splits:
                  - { var:0, quality:2.3713827133178711e+00, le:13631. }
            -
               depth: 5
               value: 5.2638100087642670e-01
            -
               depth: 5
               value: 6.4886434872945153e-01
            -
               depth: 4
               value: 8.1316499412059784e-01
            -
               depth: 1
               value: 1.3804708421230316e+00
               splits:
                  - { var:0, quality:9.4449462890625000e+01, le:30783. }
            -
               depth: 2
               value: 1.1789293124757965e+00
               splits:
                  - { var:1, quality:4.0308612823486328e+01,
                      le:1.5000000000000000e+00 }
            -
               depth: 3
               value: 1.1834352223769478e+00
            -
               depth: 3
               value: 1.1616566578547161e+00
               splits:
                  - { var:0, quality:8.1721458435058594e+00, le:23615. }
            -
               depth: 4
               value: 1.0030499696731567e+00
            -
               depth: 4
               value: 1.2409600019454956e+00
               splits:
                  - { var:0, quality:6.1608805656433105e+00, le:26943. }
            -
               depth: 5
               value: 1.2255200147628784e+00
            -
               depth: 5
               value: 1.2563999891281128e+00
            -
               depth: 2
               value: 1.6880868610582853e+00
               splits:
                  - { var:0, quality:5.5238002777099609e+01, le:40255. }
            -
               depth: 3
               value: 1.7704247306374943e+00
            -
               depth: 3
               value: 9.8821496963500977e-01
      -
         nodes:
            -
               depth: 0
               value: 8.7142540559761983e-01
               splits:
                  - { var:1, quality:6.9036315917968750e+01,
                      le:5.0000000000000000e-01 }
            -
               depth: 1
               value: 6.5399925724539731e-02
            -
               depth: 1
               value: 9.9992222122956009e-01
               splits:
                  - { var:1, quality:8.1069976806640625e+01,
                      le:1.5000000000000000e+00 }
            -
               depth: 2
               value: 1.3669086465468774e+00
               splits:
                  - { var:0, quality:7.6213111877441406e+01, le:30527. }
            -
               depth: 3
               value: 1.1095062250440770e+00
               splits:
                  - { var:0, quality:2.7546445846557617e+01, le:25407. }
            -
               depth: 4
               value: 9.9968264358384273e-01
               splits:
                  - { var:0, quality:1.4096629142761230e+01, le:20543. }
            -
               depth: 5
               value: 8.3344632387161255e-01
            -
               depth: 5
               value: 1.0450198216871782e+00
            -
               depth: 4
               value: 1.3016974925994873e+00
            -
               depth: 3
               value: 1.7000176626093246e+00
               splits:
                  - { var:0, quality:4.9522010803222656e+01, le:35647. }
            -
               depth: 4
               value: 1.5570355653762817e+00
            -
               depth: 4
               value: 1.8608725219964981e+00
               splits:
                  - { var:0, quality:2.7741477966308594e+01, le:38719. }
            -
               depth: 5
               value: 1.7913149893283844e+00
            -
               depth: 5
               value: 1.9304300546646118e+00
            -
               depth: 2
               value: 5.2283986831704776e-01
      -
         nodes:
            -
               depth: 0
               value: 8.8878207074012605e-01
               splits:
                  - { var:0, quality:8.2050994873046875e+01, le:20543. }
            -
               depth: 1
               value: 4.6061712135043409e-01
               splits:
                  - { var:1, quality:1.0941596031188965e+01,
                      le:5.0000000000000000e-01 }
            -
               depth: 2
               value: 8.2099862163886428e-02
            -
               depth: 2
               value: 5.4245869090428223e-01
               splits:
                  - { var:1, quality:1.1457343101501465e+01,
                      le:1.5000000000000000e+00 }
            -
               depth: 3
               value: 8.2450216015179956e-01
               splits:
                  - { var:0, quality:4.1033992767333984e+00, le:16959. }
            -
               depth: 4
               value: 7.3399198055267334e-01
            -
               depth: 4
               value: 8.6975724995136261e-01
            -
               depth: 3
               value: 4.8786963234024661e-01
               splits:
                  - { var:0, quality:8.6284894943237305e+00, le:12863. }
            -
               depth: 4
               value: 3.0564444994225221e-01
            -
               depth: 4
               value: 7.0914306810923988e-01
               splits:
                  - { var:0, quality:7.1652903556823730e+00, le:16959. }
            -
               depth: 5
               value: 6.4940169453620911e-01
            -
               depth: 5
               value: 8.5849650204181671e-01
            -
               depth: 1
               value: 1.4392798628125871e+00
               splits:
                  - { var:1, quality:7.2716552734375000e+01,
                      le:1.5000000000000000e+00 }
            -
               depth: 2
               value: 1.4584903102932554e+00
            -
               depth: 2
               value: 1.1223074793815613e+00
               splits:
                  - { var:0, quality:2.5551097393035889e+00, le:33855. }
            -
               depth: 3
               value: 1.2563999891281128e+00
            -
               depth: 3
               value: 9.8821496963500977e-01
      -
         nodes:
            -
               depth: 0
               value: 1.0018265713810250e+00
               splits:
                  - { var:0, quality:9.7810264587402344e+01, le:19263. }
            -
               depth: 1
               value: 3.9771307827613783e-01
               splits:
                  - { var:1, quality:5.3274517059326172e+00,
                      le:5.0000000000000000e-01 }
            -
               depth: 2
               value: 4.2552202685328666e-02
               splits:
                  - { var:0, quality:1.4699182473123074e-02, le:3391. }
            -
               depth: 3
               value: 1.7624936658345785e-02
            -
               depth: 3
               value: 1.1733400076627731e-01
            -
               depth: 2
               value: 4.5235321298241615e-01
               splits:
                  - { var:0, quality:6.3042197227478027e+00, le:11583. }
            -
               depth: 3
               value: 2.5781127867790371e-01
               splits:
                  - { var:0, quality:9.6522140502929688e-01, le:7487. }
            -
               depth: 4
               value: 1.7614394107035228e-01
            -
               depth: 4
               value: 3.5308983922004700e-01
               splits:
                  - { var:0, quality:7.6640057563781738e-01, le:10047. }
            -
               depth: 5
               value: 3.1396825611591339e-01
            -
               depth: 5
               value: 4.3133300542831421e-01
            -
               depth: 3
               value: 6.4689514728692865e-01
               splits:
                  - { var:1, quality:5.4921350479125977e+00,
                      le:1.5000000000000000e+00 }
            -
               depth: 4
               value: 7.9519298672676086e-01
            -
               depth: 4
               value: 6.1993190375241369e-01
            -
               depth: 1
               value: 1.3642946672439575e+00
               splits:
                  - { var:0, quality:9.6584220886230469e+01, le:32575. }
            -
               depth: 2
               value: 1.1822997997788822e+00
               splits:
                  - { var:1, quality:4.7526416778564453e+01,
                      le:1.5000000000000000e+00 }
            -
               depth: 3
               value: 1.1829234401384989e+00
               splits:
                  - { var:0, quality:4.2643070220947266e+01, le:26943. }
            -
               depth: 4
               value: 1.0614662898911371e+00
               splits:
                  - { var:0, quality:2.0380638122558594e+01, le:22591. }
            -
               depth: 5
               value: 9.5613851149876916e-01
            -
               depth: 5
               value: 1.1141301790873210e+00
            -
               depth: 4
               value: 1.3651091655095418e+00
            -
               depth: 3
               value: 1.1776224970817566e+00
               splits:
                  - { var:0, quality:5.5878129005432129e+00, le:23615. }
            -
               depth: 4
               value: 1.0030499696731567e+00
            -
               depth: 4
               value: 1.2358133395512898e+00
            -
               depth: 2
               value: 1.7510337606072426e+00
      -
         nodes:
            -
               depth: 0
               value: 9.1303586913272738e-01
               splits:
                  - { var:0, quality:8.5825881958007812e+01, le:16447. }
            -
               depth: 1
               value: 2.8164973929524423e-01
               splits:
                  - { var:0, quality:3.0574030876159668e+00, le:9023. }
            -
               depth: 2
               value: 1.5893906644648975e-01
               splits:
                  - { var:1, quality:5.1393890380859375e-01, le:1. }
            -
               depth: 3
               value: 8.7030509752886634e-02
            -
               depth: 3
               value: 2.0469905706969174e-01
               splits:
                  - { var:0, quality:4.9278393387794495e-01, le:5183. }
            -
               depth: 4
               value: 9.0524800121784210e-02
               splits:
                  - { var:0, quality:1.6956731677055359e-02, le:3135. }
            -
               depth: 5
               value: 7.3683597147464752e-02
            -
               depth: 5
               value: 1.0736600309610367e-01
            -
               depth: 4
               value: 2.3007111416922676e-01
            -
               depth: 2
               value: 4.6571574856837589e-01
               splits:
                  - { var:1, quality:2.6812088489532471e+00,
                      le:1.5000000000000000e+00 }
            -
               depth: 3
               value: 7.3399198055267334e-01
            -
               depth: 3
               value: 4.4132700020616705e-01
               splits:
                  - { var:0, quality:2.1579110622406006e+00, le:12607. }
            -
               depth: 4
               value: 4.2947709858417510e-01
               splits:
                  - { var:0, quality:1.8509885072708130e+00, le:10559. }
            -
               depth: 5
               value: 3.9058432976404828e-01
            -
               depth: 5
               value: 4.4614542807851520e-01
            -
               depth: 4
               value: 5.5982601642608643e-01
            -
               depth: 1
               value: 1.2918675470352172e+00
               splits:
                  - { var:1, quality:8.4851081848144531e+01,
                      le:1.5000000000000000e+00 }
            -
               depth: 2
               value: 1.3912302561708398e+00
               splits:
                  - { var:0, quality:7.4002136230468750e+01, le:32063. }
            -
               depth: 3
               value: 1.1694861508551098e+00
               splits:
                  - { var:0, quality:2.9297998428344727e+01, le:22847. }
            -
               depth: 4
               value: 9.5830362290143967e-01
               splits:
                  - { var:0, quality:7.3909654617309570e+00, le:20287. }
            -
               depth: 5
               value: 8.2956150174140930e-01
            -
               depth: 5
               value: 1.0012176632881165e+00
            -
               depth: 4
               value: 1.2994446295958300e+00
            -
               depth: 3
               value: 1.6822693943977356e+00
            -
               depth: 2
               value: 1.0090659902645991e+00
               splits:
                  - { var:0, quality:1.3366628646850586e+01, le:19775. }
            -
               depth: 3
               value: 8.5915575921535492e-01
            -
               depth: 3
               value: 1.0756927596198187e+00
               splits:
                  - { var:0, quality:1.0448470115661621e+01, le:33855. }
            -
               depth: 4
               value: 1.1194316546122234e+00
               splits:
                  - { var:0, quality:7.6000313758850098e+00, le:23615. }
            -
               depth: 5
               value: 1.0030499696731567e+00
            -
               depth: 5
               value: 1.2358133395512898e+00
            -
