%YAML:1.0
---
opencv_ml_rtrees:
   format: 3
   is_classifier: 0
   var_all: 3
   var_count: 2
   ord_var_count: 3
   cat_var_count: 0
   training_params:
      use_surrogates: 0
      max_categories: 10
      regression_accuracy: 9.9999999747524271e-07
      max_depth: 5
      min_sample_count: 1
      cross_validation_folds: 0
      nactive_vars: 0
   global_var_idx: 1
   var_idx: [ 0, 1 ]
   var_type: [ 0, 0, 0 ]
   cat_ofs: [ 0, 0, 0, 0 ]
   missing_subst: [ 0., 0., 0. ]
   oob_error: 1.6145425115914564e-02
   ntrees: 50
   trees:
      -
         nodes:
            -
               depth: 0
               value: 8.2873425655998290e-01
               splits:
                  - { var:0, quality:7.8474609375000000e+01, le:20799. }
            -
               depth: 1
               value: 3.2565330254823660e-01
               splits:
                  - { var:0, quality:6.0784740447998047e+00, le:10047. }
            -
               depth: 2
               value: 1.5042725675131963e-01
               splits:
                  - { var:1, quality:5.8095586299896240e-01, le:1. }
            -
               depth: 3
               value: 1.1297086005409558e-01
            -
               depth: 3
               value: 2.2065800055861473e-01
            -
               depth: 2
               value: 5.2716325521469121e-01
               splits:
                  - { var:0, quality:5.8464756011962891e+00, le:15935. }
            -
               depth: 3
               value: 4.5782667001088462e-01
               splits:
                  - { var:0, quality:3.2010388374328613e+00, le:12607. }
            -
               depth: 4
               value: 4.0018412843346596e-01
            -
               depth: 4
               value: 5.2370386038507732e-01
               splits:
                  - { var:0, quality:1.9258391857147217e+00, le:14143. }
            -
               depth: 5
               value: 4.9839349836111069e-01
            -
               depth: 5
               value: 5.5745100975036621e-01
            -
               depth: 3
               value: 7.3517301082611086e-01
               splits:
                  - { var:0, quality:2.7067899703979492e+00, le:19263. }
            -
               depth: 4
               value: 7.4999375641345978e-01
               splits:
                  - { var:1, quality:2.2573013305664062e+00,
                      le:1.5000000000000000e+00 }
            -
               depth: 5
               value: 6.7580401897430420e-01
            -
               depth: 5
               value: 7.7472366889317834e-01
            -
               depth: 4
               value: 6.7589002847671509e-01
            -
               depth: 1
               value: 1.4133959058168772e+00
               splits:
                  - { var:0, quality:7.6551597595214844e+01, le:31807. }
            -
               depth: 2
               value: 1.1075409315526485e+00
               splits:
                  - { var:0, quality:1.9830131530761719e+01, le:26943. }
            -
               depth: 3
               value: 9.9468562752008438e-01
               splits:
                  - { var:0, quality:7.9550881385803223e+00, le:24383. }
            -
               depth: 4
               value: 9.0352167685826623e-01
               splits:
                  - { var:0, quality:2.4540629386901855e+00, le:22335. }
            -
               depth: 5
               value: 9.6130698919296265e-01
            -
               depth: 5
               value: 8.7462902069091797e-01
            -
               depth: 4
               value: 1.0493839979171753e+00
               splits:
                  - { var:0, quality:5.5092616081237793e+00, le:26431. }
            -
               depth: 5
               value: 1.0366799831390381e+00
            -
               depth: 5
               value: 1.1002000570297241e+00
            -
               depth: 3
               value: 1.2203962355852127e+00
            -
               depth: 2
               value: 1.6464282671610515e+00
               splits:
                  - { var:0, quality:5.7400165557861328e+01, le:40255. }
            -
               depth: 3
               value: 1.6800549924373627e+00
            -
               depth: 3
               value: 9.7389376163482666e-01
      -
         nodes:
            -
               depth: 0
               value: 7.9877434010850268e-01
               splits:
                  - { var:0, quality:7.0707199096679688e+01, le:20543. }
            -
               depth: 1
               value: 3.5032285633496940e-01
               splits:
                  - { var:1, quality:7.4668574333190918e+00,
                      le:5.0000000000000000e-01 }
            -
               depth: 2
               value: 7.7178799547255039e-02
               splits:
                  - { var:0, quality:1.3067354261875153e-01, le:3903. }
            -
               depth: 3
               value: 3.3061050926335156e-02
               splits:
                  - { var:0, quality:1.0842901654541492e-02, le:1855. }
            -
               depth: 4
               value: 1.2151337228715420e-02
            -
               depth: 4
               value: 4.5606879144906999e-02
            -
               depth: 3
               value: 1.1639457609918383e-01
            -
               depth: 2
               value: 5.2230244764575251e-01
               splits:
                  - { var:1, quality:7.4013996124267578e+00,
                      le:1.5000000000000000e+00 }
            -
               depth: 3
               value: 7.0798397064208984e-01
            -
               depth: 3
               value: 5.1516085060743189e-01
               splits:
                  - { var:0, quality:7.4480381011962891e+00, le:15423. }
            -
               depth: 4
               value: 4.1838550402058494e-01
            -
               depth: 4
               value: 7.3290538042783737e-01
               splits:
                  - { var:0, quality:4.3356032371520996e+00, le:17727. }
            -
               depth: 5
               value: 6.6362275183200836e-01
            -
               depth: 5
               value: 8.0218800902366638e-01
            -
               depth: 1
               value: 1.3468817091650434e+00
               splits:
                  - { var:1, quality:6.5450347900390625e+01,
                      le:1.5000000000000000e+00 }
            -
               depth: 2
               value: 1.3575385076659066e+00
            -
               depth: 2
               value: 9.7389376163482666e-01
      -
         nodes:
            -
               depth: 0
               value: 6.9775881035943710e-01
               splits:
                  - { var:1, quality:4.9642845153808594e+01,
                      le:5.0000000000000000e-01 }
            -
               depth: 1
               value: 1.0412755929411849e-01
               splits:
                  - { var:0, quality:4.1849017143249512e-01, le:6207. }
            -
               depth: 2
               value: 6.1492852648977227e-02
            -
               depth: 2
               value: 2.9598373919725418e-01
            -
               depth: 1
               value: 9.2292928490145454e-01
               splits:
                  - { var:0, quality:5.7062152862548828e+01, le:25407. }
            -
               depth: 2
               value: 6.2837242739541188e-01
               splits:
                  - { var:0, quality:1.5974432945251465e+01, le:14655. }
            -
               depth: 3
               value: 3.2449628625597271e-01
            -
               depth: 3
               value: 8.3095652148837140e-01
               splits:
                  - { var:0, quality:1.4608181953430176e+01, le:19519. }
            -
               depth: 4
               value: 7.2957642589296612e-01
               splits:
                  - { var:0, quality:3.7379813194274902e+00, le:18239. }
            -
               depth: 5
               value: 7.0338059663772579e-01
            -
               depth: 5
               value: 7.9506599903106689e-01
            -
               depth: 4
               value: 8.8164656928607399e-01
               splits:
                  - { var:1, quality:1.0883496284484863e+01,
                      le:1.5000000000000000e+00 }
            -
               depth: 5
               value: 8.7773250043392181e-01
            -
               depth: 5
               value: 9.0513098239898682e-01
            -
               depth: 2
               value: 1.3711679811063020e+00
               splits:
                  - { var:0, quality:4.3894142150878906e+01, le:31295. }
            -
               depth: 3
               value: 1.1406550109386444e+00
               splits:
                  - { var:0, quality:1.0461032867431641e+01, le:29503. }
            -
               depth: 4
               value: 1.0939816832542419e+00
               splits:
                  - { var:0, quality:7.1931486129760742e+00, le:26431. }
            -
               depth: 5
               value: 1.0297600030899048e+00
            -
               depth: 5
               value: 1.1260925233364105e+00
            -
               depth: 4
               value: 1.2806749939918518e+00
            -
               depth: 3
               value: 1.4941082318623862e+00
               splits:
                  - { var:0, quality:3.3775344848632812e+01, le:40255. }
            -
               depth: 4
               value: 1.5312664083072118e+00
               splits:
                  - { var:0, quality:3.3053791046142578e+01, le:36159. }
            -
               depth: 5
               value: 1.4792916476726532e+00
            -
               depth: 5
               value: 1.8431149721145630e+00
            -
               depth: 4
               value: 9.7389376163482666e-01
      -
         nodes:
            -
               depth: 0
               value: 7.9532984463248790e-01
               splits:
                  - { var:1, quality:5.8610355377197266e+01,
                      le:5.0000000000000000e-01 }
            -
               depth: 1
               value: 1.0844914645661317e-01
               splits:
                  - { var:0, quality:3.3233693242073059e-01, le:6719. }
            -
               depth: 2
               value: 5.1295917530792809e-02
            -
               depth: 2
               value: 3.1801098585128784e-01
            -
               depth: 1
               value: 9.4103181091221899e-01
               splits:
                  - { var:0, quality:7.4281349182128906e+01, le:26175. }
            -
               depth: 2
               value: 4.9387961460484398e-01
               splits:
                  - { var:1, quality:9.6207370758056641e+00,
                      le:1.5000000000000000e+00 }
            -
               depth: 3
               value: 9.2585751414299011e-01
               splits:
                  - { var:0, quality:3.4314916133880615e+00, le:23103. }
            -
               depth: 4
               value: 9.0015202760696411e-01
            -
               depth: 4
               value: 9.5156300067901611e-01
               splits:
                  - { var:0, quality:1.8109446763992310e+00, le:24383. }
            -
               depth: 5
               value: 9.5202499628067017e-01
            -
               depth: 5
               value: 9.5110100507736206e-01
            -
               depth: 3
               value: 4.3988237716257572e-01
            -
               depth: 2
               value: 1.4776144464810690e+00
               splits:
                  - { var:0, quality:6.6292274475097656e+01, le:31551. }
            -
               depth: 3
               value: 1.2081812471151352e+00
               splits:
                  - { var:0, quality:1.1724218368530273e+01, le:29503. }
            -
               depth: 4
               value: 1.1318574845790863e+00
            -
               depth: 4
               value: 1.2845050096511841e+00
               splits:
                  - { var:0, quality:6.5999054908752441e+00, le:31039. }
            -
               depth: 5
               value: 1.2872900168100994e+00
            -
               depth: 5
               value: 1.2761499881744385e+00
            -
               depth: 3
               value: 1.5755901553414084e+00
               splits:
                  - { var:1, quality:5.4993934631347656e+01,
                      le:1.5000000000000000e+00 }
            -
               depth: 4
               value: 1.6042423645655315e+00
               splits:
                  - { var:0, quality:5.4411315917968750e+01, le:35647. }
            -
               depth: 5
               value: 1.4783945191990246e+00
            -
               depth: 5
               value: 1.7426749944686890e+00
            -
               depth: 4
               value: 9.7389376163482666e-01
      -
         nodes:
            -
               depth: 0
               value: 8.4387257191801834e-01
               splits:
                  - { var:1, quality:7.0159645080566406e+01,
                      le:5.0000000000000000e-01 }
            -
               depth: 1
               value: 9.0280172704094885e-02
               splits:
                  - { var:0, quality:2.6604321599006653e-01, le:5439. }
            -
               depth: 2
               value: 4.6757866201785091e-02
               splits:
                  - { var:0, quality:4.8024404793977737e-02, le:2879. }
            -
               depth: 3
               value: 1.6212615136282693e-02
               splits:
                  - { var:0, quality:3.1037793960422277e-03, le:2111. }
            -
               depth: 4
               value: 9.7544540318873860e-03
               splits:
                  - { var:0, quality:8.9520297478884459e-04, le:1343. }
            -
               depth: 5
               value: 2.4025072610432594e-03
            -
               depth: 5
               value: 1.7106400802731514e-02
            -
               depth: 4
               value: 3.5587098449468613e-02
            -
               depth: 3
               value: 8.7484867622454957e-02
               splits:
                  - { var:0, quality:4.8104915767908096e-02, le:3647. }
            -
               depth: 4
               value: 6.0507699847221375e-02
            -
               depth: 4
               value: 1.0097345151007175e-01
            -
               depth: 2
               value: 2.4260824546217918e-01
               splits:
                  - { var:0, quality:2.4301581084728241e-01, le:7231. }
            -
               depth: 3
               value: 2.1747399866580963e-01
            -
               depth: 3
               value: 3.1801098585128784e-01
            -
               depth: 1
               value: 1.0626574620123832e+00
               splits:
                  - { var:1, quality:7.6034484863281250e+01,
                      le:1.5000000000000000e+00 }
            -
               depth: 2
               value: 1.2387152060549309e+00
               splits:
                  - { var:0, quality:7.6680236816406250e+01, le:32063. }
            -
               depth: 3
               value: 9.9324430884986092e-01
               splits:
                  - { var:0, quality:2.9154291152954102e+01, le:25663. }
            -
               depth: 4
               value: 8.6969781294465065e-01
            -
               depth: 4
               value: 1.1453015345793505e+00
               splits:
                  - { var:0, quality:1.7119577407836914e+01, le:29503. }
            -
               depth: 5
               value: 1.1059000015258789e+00
            -
               depth: 5
               value: 1.2766399780909221e+00
            -
               depth: 3
               value: 1.6341960959964328e+00
            -
               depth: 2
               value: 5.1100986401240034e-01
               splits:
                  - { var:0, quality:4.8804459571838379e+00, le:16959. }
            -
               depth: 3
               value: 3.3180050253868104e-01
               splits:
                  - { var:0, quality:1.2095249891281128e+00, le:10303. }
            -
               depth: 4
               value: 2.4670867125193277e-01
               splits:
                  - { var:0, quality:3.7498480081558228e-01, le:6719. }
            -
               depth: 5
               value: 1.8957200646400452e-01
            -
               depth: 5
               value: 2.7527700364589691e-01
            -
               depth: 4
               value: 4.5943824946880341e-01
               splits:
                  - { var:0, quality:8.5916751623153687e-01, le:13631. }
            -
               depth: 5
               value: 4.2427966992060345e-01
            -
               depth: 5
               value: 5.6491398811340332e-01
            -
               depth: 3
               value: 8.6942858695983882e-01
      -
         nodes:
            -
               depth: 0
               value: 8.6626466968787097e-01
               splits:
                  - { var:1, quality:6.6818832397460938e+01,
                      le:5.0000000000000000e-01 }
            -
               depth: 1
               value: 1.3684113254203112e-01
            -
               depth: 1
               value: 9.8254958140677295e-01
               splits:
                  - { var:1, quality:7.3619079589843750e+01,
                      le:1.5000000000000000e+00 }
            -
               depth: 2
               value: 1.2303317341693611e+00
            -
               depth: 2
               value: 5.7275602106864631e-01
      -
         nodes:
            -
               depth: 0
               value: 7.1184988746636013e-01
               splits:
                  - { var:1, quality:5.0441764831542969e+01,
                      le:5.0000000000000000e-01 }
            -
               depth: 1
               value: 1.2210753199005489e-01
               splits:
                  - { var:0, quality:5.6984704732894897e-01, le:5439. }
            -
               depth: 2
               value: 4.3924016517848941e-02
            -
               depth: 2
               value: 2.7847456293446676e-01
               splits:
                  - { var:0, quality:5.5742579698562622e-01, le:7743. }
            -
               depth: 3
               value: 2.2575933237870535e-01
               splits:
                  - { var:0, quality:1.5300479531288147e-01, le:6719. }
            -
               depth: 4
               value: 2.1747399866580963e-01
            -
               depth: 4
               value: 2.2990199923515320e-01
            -
               depth: 3
               value: 3.1801098585128784e-01
            -
               depth: 1
               value: 9.2175818348335004e-01
               splits:
                  - { var:0, quality:5.9443782806396484e+01, le:26943. }
            -
               depth: 2
               value: 6.7937960527664010e-01
               splits:
                  - { var:0, quality:2.2255624771118164e+01, le:16191. }
            -
               depth: 3
               value: 4.2557180076837542e-01
            -
               depth: 3
               value: 9.0008204397947889e-01
               splits:
                  - { var:0, quality:1.8829738616943359e+01, le:20799. }
            -
               depth: 4
               value: 7.6039600372314453e-01
               splits:
                  - { var:0, quality:4.0614562034606934e+00, le:17983. }
            -
               depth: 5
               value: 7.0867965618769324e-01
            -
               depth: 5
               value: 7.9918326437473297e-01
            -
               depth: 4
               value: 9.6119468659162521e-01
            -
               depth: 2
               value: 1.5731506124138832e+00
               splits:
                  - { var:0, quality:4.0253101348876953e+01, le:34111. }
            -
               depth: 3
               value: 1.3116933107376099e+00
               splits:
                  - { var:0, quality:1.0401305198669434e+01, le:32575. }
            -
               depth: 4
               value: 1.2310349941253662e+00
            -
               depth: 4
               value: 1.4730099439620972e+00
            -
               depth: 3
               value: 1.7300249934196472e+00
      -
         nodes:
            -
               depth: 0
               value: 7.8836060658795759e-01
               splits:
                  - { var:1, quality:5.7120376586914062e+01,
                      le:5.0000000000000000e-01 }
            -
               depth: 1
               value: 9.7932600559523478e-02
            -
               depth: 1
               value: 9.2232424954869852e-01
               splits:
                  - { var:0, quality:6.7790580749511719e+01, le:28223. }
            -
               depth: 2
               value: 6.5111632904280792e-01
               splits:
                  - { var:0, quality:2.1663803100585938e+01, le:15935. }
            -
               depth: 3
               value: 3.9268037049393906e-01
            -
               depth: 3
               value: 8.3297867024386374e-01
               splits:
                  - { var:1, quality:1.8814357757568359e+01,
                      le:1.5000000000000000e+00 }
            -
               depth: 4
               value: 8.7820075452327728e-01
               splits:
                  - { var:0, quality:1.2489491462707520e+01, le:20799. }
            -
               depth: 5
               value: 7.1065975725650787e-01
            -
               depth: 5
               value: 9.3404775361220038e-01
            -
               depth: 4
               value: 7.6720109311017126e-01
            -
               depth: 2
               value: 1.5163987420854115e+00
               splits:
                  - { var:0, quality:4.8640972137451172e+01, le:31295. }
            -
               depth: 3
               value: 1.1991766691207886e+00
               splits:
                  - { var:0, quality:4.3247981071472168e+00, le:30015. }
            -
               depth: 4
               value: 1.1568999886512756e+00
               splits:
                  - { var:0, quality:2.6773619651794434e+00, le:28991. }
            -
               depth: 5
               value: 1.1406699419021606e+00
            -
               depth: 5
               value: 1.1731300354003906e+00
            -
               depth: 4
               value: 1.2837300300598145e+00
            -
               depth: 3
               value: 1.5692690875795152e+00
               splits:
                  - { var:0, quality:4.4702220916748047e+01, le:40255. }
            -
               depth: 4
               value: 1.6042911655762617e+00
            -
               depth: 4
               value: 9.7389376163482666e-01
      -
         nodes:
            -
               depth: 0
               value: 8.3509785088926947e-01
               splits:
                  - { var:1, quality:6.5759384155273438e+01,
                      le:5.0000000000000000e-01 }
            -
               depth: 1
               value: 6.8665743046169930e-02
            -
               depth: 1
               value: 9.9767435861356335e-01
               splits:
                  - { var:0, quality:7.4629013061523438e+01, le:25407. }
            -
               depth: 2
               value: 6.2972266746289807e-01
               splits:
                  - { var:0, quality:1.4376345634460449e+01, le:15935. }
            -
               depth: 3
               value: 4.4922288921144271e-01
            -
               depth: 3
               value: 8.4632240136464432e-01
               splits:
                  - { var:1, quality:1.0783908843994141e+01,
                      le:1.5000000000000000e+00 }
            -
               depth: 4
               value: 8.8283010125160222e-01
            -
               depth: 4
               value: 7.7330700159072874e-01
            -
               depth: 2
               value: 1.3656260497642285e+00
      -
         nodes:
            -
               depth: 0
               value: 8.1056950130732730e-01
               splits:
                  - { var:1, quality:6.2461811065673828e+01,
                      le:5.0000000000000000e-01 }
            -
               depth: 1
               value: 1.0700795246521011e-01
            -
               depth: 1
               value: 9.8645988851785660e-01
               splits:
                  - { var:1, quality:7.1479438781738281e+01,
                      le:1.5000000000000000e+00 }
            -
               depth: 2
               value: 1.2514313445534817e+00
               splits:
                  - { var:0, quality:7.2232269287109375e+01, le:32319. }
            -
               depth: 3
               value: 9.9181363538459499e-01
               splits:
                  - { var:0, quality:2.7031290054321289e+01, le:25407. }
            -
               depth: 4
               value: 8.6446700351578853e-01
            -
               depth: 4
               value: 1.1289561620125403e+00
            -
               depth: 3
               value: 1.6895362287759781e+00
            -
               depth: 2
               value: 4.4389928806395756e-01
      -
         nodes:
            -
               depth: 0
               value: 8.9360282281413672e-01
               splits:
                  - { var:0, quality:7.9688743591308594e+01, le:19775. }
            -
               depth: 1
               value: 3.4919951693154871e-01
               splits:
                  - { var:1, quality:4.9035387039184570e+00,
                      le:5.0000000000000000e-01 }
            -
               depth: 2
               value: 1.0477050393819809e-01
               splits:
                  - { var:0, quality:1.7706418037414551e-01, le:5439. }
            -
               depth: 3
               value: 6.0953193344175816e-02
            -
               depth: 3
               value: 2.2161666552225748e-01
               splits:
                  - { var:0, quality:1.4744481444358826e-01, le:6719. }
            -
               depth: 4
               value: 2.1747399866580963e-01
            -
               depth: 4
               value: 2.2990199923515320e-01
            -
               depth: 2
               value: 4.7723376183282762e-01
               splits:
                  - { var:1, quality:4.9004940986633301e+00,
                      le:1.5000000000000000e+00 }
            -
               depth: 3
               value: 7.0798397064208984e-01
            -
               depth: 3
               value: 4.5294426616869476e-01
            -
               depth: 1
               value: 1.2565383600691955e+00
               splits:
                  - { var:0, quality:7.9104721069335938e+01, le:30015. }
            -
               depth: 2
               value: 9.8242653193681140e-01
               splits:
                  - { var:0, quality:2.2330625534057617e+01, le:25407. }
            -
               depth: 3
               value: 9.1600768841229951e-01
               splits:
                  - { var:0, quality:1.0913229942321777e+01, le:23359. }
            -
               depth: 4
               value: 8.9415900905927026e-01
               splits:
                  - { var:0, quality:4.8032112121582031e+00, le:22847. }
            -
               depth: 5
               value: 9.1668550670146942e-01
            -
               depth: 5
               value: 8.4910601377487183e-01
            -
               depth: 4
               value: 9.3473512785775326e-01
               splits:
                  - { var:0, quality:6.1195993423461914e+00, le:24383. }
            -
               depth: 5
               value: 9.4885938167572026e-01
            -
               depth: 5
               value: 8.9942449331283569e-01
            -
               depth: 3
               value: 1.0687710285186767e+00
               splits:
                  - { var:0, quality:1.1451261520385742e+01, le:26431. }
            -
               depth: 4
               value: 1.0251466830571492e+00
               splits:
                  - { var:0, quality:6.3065757751464844e+00, le:25919. }
            -
               depth: 5
               value: 1.0159200429916382e+00
            -
               depth: 5
               value: 1.0435999631881714e+00
            -
               depth: 4
               value: 1.1342075467109680e+00
               splits:
                  - { var:0, quality:5.1517667770385742e+00, le:28735. }
            -
               depth: 5
               value: 1.0952850580215454e+00
            -
               depth: 5
               value: 1.1731300354003906e+00
            -
               depth: 2
               value: 1.5087212419509888e+00
               splits:
                  - { var:0, quality:5.7881134033203125e+01, le:40255. }
            -
               depth: 3
               value: 1.5816522619941018e+00
            -
               depth: 3
               value: 9.7389376163482666e-01
      -
         nodes:
            -
               depth: 0
               value: 8.0766170262359083e-01
               splits:
                  - { var:0, quality:6.6650688171386719e+01, le:19775. }
            -
               depth: 1
               value: 3.9293784075757354e-01
               splits:
                  - { var:0, quality:7.7592988014221191e+00, le:12607. }
            -
               depth: 2
               value: 2.5850975665229337e-01
               splits:
                  - { var:0, quality:2.1834211349487305e+00, le:7743. }
            -
               depth: 3
               value: 1.2603261663268009e-01
               splits:
                  - { var:0, quality:2.3651406168937683e-01, le:4671. }
            -
               depth: 4
               value: 6.4183733736475304e-02
            -
               depth: 4
               value: 1.8788149952888489e-01
               splits:
                  - { var:1, quality:2.1215029060840607e-01, le:1. }
            -
               depth: 5
               value: 1.9555766383806863e-01
            -
               depth: 5
               value: 1.8020533521970114e-01
            -
               depth: 3
               value: 3.6449146866798399e-01
               splits:
                  - { var:1, quality:1.9951251745223999e+00, le:1. }
            -
               depth: 4
               value: 3.1801098585128784e-01
            -
               depth: 4
               value: 3.6781150315489086e-01
            -
               depth: 2
               value: 6.5219200296061375e-01
               splits:
                  - { var:1, quality:5.9583139419555664e+00,
                      le:1.5000000000000000e+00 }
            -
               depth: 3
               value: 7.0798397064208984e-01
            -
               depth: 3
               value: 6.4790031313896179e-01
            -
               depth: 1
               value: 1.2436534548417115e+00
               splits:
                  - { var:1, quality:6.0515285491943359e+01,
                      le:1.5000000000000000e+00 }
            -
               depth: 2
               value: 1.2600935133727822e+00
            -
               depth: 2
               value: 9.3951237201690674e-01
      -
         nodes:
            -
               depth: 0
               value: 7.8860485508098466e-01
               splits:
                  - { var:1, quality:5.8398357391357422e+01,
                      le:5.0000000000000000e-01 }
            -
               depth: 1
               value: 7.4792024865278764e-02
               splits:
                  - { var:0, quality:1.6062422096729279e-01, le:5439. }
            -
               depth: 2
               value: 3.4748941049739107e-02
            -
               depth: 2
               value: 2.2161666552225748e-01
               splits:
                  - { var:0, quality:1.4744481444358826e-01, le:6719. }
            -
               depth: 3
               value: 2.1747399866580963e-01
            -
               depth: 3
               value: 2.2990199923515320e-01
            -
               depth: 1
               value: 9.4001969785401318e-01
               splits:
                  - { var:1, quality:6.4327156066894531e+01,
                      le:1.5000000000000000e+00 }
            -
               depth: 2
               value: 1.1989889537033283e+00
            -
               depth: 2
               value: 5.8856142205851414e-01
               splits:
                  - { var:0, quality:1.0765417098999023e+01, le:16191. }
            -
               depth: 3
               value: 4.1957625001668930e-01
            -
               depth: 3
               value: 8.1387498478094733e-01
               splits:
                  - { var:0, quality:8.0008554458618164e+00, le:19775. }
            -
               depth: 4
               value: 7.7581601010428536e-01
            -
               depth: 4
               value: 9.2805190881093347e-01
      -
         nodes:
            -
               depth: 0
               value: 7.4185847845851638e-01
               splits:
                  - { var:1, quality:5.6614677429199219e+01,
                      le:5.0000000000000000e-01 }
            -
               depth: 1
               value: 7.7011919482521035e-02
               splits:
                  - { var:0, quality:2.4081270396709442e-01, le:6207. }
            -
               depth: 2
               value: 4.6635295822852640e-02
            -
               depth: 2
               value: 2.5927166144053143e-01
               splits:
                  - { var:0, quality:2.0684084296226501e-01, le:7743. }
            -
               depth: 3
               value: 2.2990199923515320e-01
            -
               depth: 3
               value: 3.1801098585128784e-01
            -
               depth: 1
               value: 9.7849877911098937e-01
               splits:
                  - { var:1, quality:6.3264480590820312e+01,
                      le:1.5000000000000000e+00 }
            -
               depth: 2
               value: 1.2397860578588538e+00
               splits:
                  - { var:0, quality:6.0031299591064453e+01, le:29759. }
            -
               depth: 3
               value: 9.5535073782268320e-01
            -
               depth: 3
               value: 1.5400233401192560e+00
               splits:
                  - { var:0, quality:4.3118537902832031e+01, le:34111. }
            -
               depth: 4
               value: 1.3675324916839600e+00
               splits:
                  - { var:0, quality:1.5013820648193359e+01, le:31295. }
            -
               depth: 5
               value: 1.2864000201225281e+00
            -
               depth: 5
               value: 1.4486649632453918e+00
            -
               depth: 4
               value: 1.6780160188674926e+00
            -
               depth: 2
               value: 5.3906108303503553e-01
               splits:
                  - { var:0, quality:7.2920393943786621e+00, le:14911. }
            -
               depth: 3
               value: 3.5451325774192810e-01
            -
               depth: 3
               value: 7.6051847338676448e-01
      -
         nodes:
            -
               depth: 0
               value: 8.2193594811010373e-01
               splits:
                  - { var:1, quality:6.1000900268554688e+01,
                      le:5.0000000000000000e-01 }
            -
               depth: 1
               value: 1.2006867512385118e-01
            -
               depth: 1
               value: 9.4579487863708944e-01
               splits:
                  - { var:1, quality:6.9653877258300781e+01,
                      le:1.5000000000000000e+00 }
            -
               depth: 2
               value: 1.2204974155093349e+00
            -
               depth: 2
               value: 4.7330651521682737e-01
               splits:
                  - { var:0, quality:6.3082017898559570e+00, le:14655. }
            -
               depth: 3
               value: 3.6838244729571873e-01
            -
               depth: 3
               value: 7.4311126129967831e-01
               splits:
                  - { var:0, quality:3.9276378154754639e+00, le:30015. }
            -
               depth: 4
               value: 7.0464751124382019e-01
               splits:
                  - { var:0, quality:2.9955770969390869e+00, le:16191. }
            -
               depth: 5
               value: 5.8771300315856934e-01
            -
               depth: 5
               value: 7.2803441286087034e-01
            -
               depth: 4
               value: 9.7389376163482666e-01
      -
         nodes:
            -
               depth: 0
               value: 6.9132184646541650e-01
               splits:
                  - { var:0, quality:5.8235046386718750e+01, le:20799. }
            -
               depth: 1
               value: 2.8306358989766522e-01
               splits:
                  - { var:0, quality:6.1594600677490234e+00, le:10047. }
            -
               depth: 2
               value: 1.1300990679568107e-01
               splits:
                  - { var:0, quality:5.5280536413192749e-01, le:5439. }
            -
               depth: 3
               value: 6.3777486464892896e-02
            -
               depth: 3
               value: 2.2788555423418680e-01
               splits:
                  - { var:1, quality:4.6756327152252197e-01, le:1. }
            -
               depth: 4
               value: 2.2161666552225748e-01
               splits:
                  - { var:0, quality:1.4744481444358826e-01, le:6719. }
            -
               depth: 5
               value: 2.1747399866580963e-01
            -
               depth: 5
               value: 2.2990199923515320e-01
            -
               depth: 4
               value: 2.3101999859015146e-01
            -
               depth: 2
               value: 5.6648639506763887e-01
               splits:
                  - { var:0, quality:6.0248370170593262e+00, le:15679. }
            -
               depth: 3
               value: 4.8340108493963879e-01
            -
               depth: 3
               value: 7.3265701532363892e-01
               splits:
                  - { var:0, quality:3.2339217662811279e+00, le:18239. }
            -
               depth: 4
               value: 6.6631451249122620e-01
               splits:
                  - { var:1, quality:8.8813018798828125e-01,
                      le:1.5000000000000000e+00 }
            -
               depth: 5
               value: 6.7580401897430420e-01
            -
               depth: 5
               value: 6.5682500600814819e-01
            -
               depth: 4
               value: 7.6582826673984528e-01
               splits:
                  - { var:1, quality:2.3463671207427979e+00,
                      le:1.5000000000000000e+00 }
            -
               depth: 5
               value: 7.8304702043533325e-01
            -
               depth: 5
               value: 7.6008868217468262e-01
            -
               depth: 1
               value: 1.3037092313170433e+00
               splits:
                  - { var:0, quality:5.6692134857177734e+01, le:31807. }
            -
               depth: 2
               value: 1.0517087052850163e+00
               splits:
                  - { var:0, quality:1.9150466918945312e+01, le:26431. }
            -
               depth: 3
               value: 9.3218979835510252e-01
               splits:
                  - { var:1, quality:8.6900138854980469e+00,
                      le:1.5000000000000000e+00 }
            -
               depth: 4
               value: 9.3057211240132653e-01
            -
               depth: 4
               value: 9.4674897193908691e-01
            -
               depth: 3
               value: 1.2224500008991785e+00
            -
               depth: 2
               value: 1.5893098274866739e+00
               splits:
                  - { var:0, quality:3.8762596130371094e+01, le:40255. }
            -
               depth: 3
               value: 1.6839892222331121e+00
               splits:
                  - { var:0, quality:3.7056308746337891e+01, le:34111. }
            -
               depth: 4
               value: 1.4628899892171223e+00
            -
               depth: 4
               value: 1.7503189921379090e+00
            -
               depth: 3
               value: 9.7389376163482666e-01
      -
         nodes:
            -
               depth: 0
               value: 8.1134541019564499e-01
               splits:
                  - { var:1, quality:5.9691852569580078e+01,
                      le:5.0000000000000000e-01 }
            -
               depth: 1
               value: 1.0571682600614925e-01
               splits:
                  - { var:0, quality:2.2340855002403259e-01, le:5695. }
            -
               depth: 2
               value: 5.5912769813504487e-02
            -
               depth: 2
               value: 2.5512899458408356e-01
            -
               depth: 1
               value: 9.3586810152320299e-01
               splits:
                  - { var:1, quality:6.8439193725585938e+01,
                      le:1.5000000000000000e+00 }
            -
               depth: 2
               value: 1.2382365971803666e+00
            -
               depth: 2
               value: 5.0391310772725517e-01
      -
         nodes:
            -
               depth: 0
               value: 7.7915943302214141e-01
               splits:
                  - { var:1, quality:5.6305011749267578e+01,
                      le:5.0000000000000000e-01 }
            -
               depth: 1
               value: 7.3116589051026568e-02
            -
               depth: 1
               value: 9.1615282065832793e-01
               splits:
                  - { var:1, quality:6.4224975585937500e+01,
                      le:1.5000000000000000e+00 }
            -
               depth: 2
               value: 1.2178203714521307e+00
               splits:
                  - { var:0, quality:5.9289192199707031e+01, le:29759. }
            -
               depth: 3
               value: 9.8093837499618530e-01
            -
               depth: 3
               value: 1.5435331165790558e+00
            -
               depth: 2
               value: 5.2086430582506904e-01
      -
         nodes:
            -
               depth: 0
               value: 8.4268860251859223e-01
               splits:
                  - { var:0, quality:7.8882400512695312e+01, le:20799. }
            -
               depth: 1
               value: 3.1742114039570879e-01
               splits:
                  - { var:0, quality:6.1150317192077637e+00, le:8511. }
            -
               depth: 2
               value: 7.7408873455791949e-02
               splits:
                  - { var:1, quality:1.3855953514575958e-01, le:1. }
            -
               depth: 3
               value: 6.5039681741087832e-02
               splits:
                  - { var:0, quality:1.6601066291332245e-01, le:5439. }
            -
               depth: 4
               value: 3.0599756604455512e-02
            -
               depth: 4
               value: 2.2575933237870535e-01
            -
               depth: 3
               value: 1.8254700303077698e-01
            -
               depth: 2
               value: 5.3457509619849064e-01
               splits:
                  - { var:0, quality:6.3447685241699219e+00, le:16191. }
            -
               depth: 3
               value: 4.5367686351140341e-01
               splits:
                  - { var:0, quality:3.1587641239166260e+00, le:12863. }
            -
               depth: 4
               value: 3.8912937417626381e-01
               splits:
                  - { var:0, quality:1.2189552783966064e+00, le:11071. }
            -
               depth: 5
               value: 3.5834400355815887e-01
            -
               depth: 5
               value: 4.1991474479436874e-01
            -
               depth: 4
               value: 5.2744542275156292e-01
            -
               depth: 3
               value: 7.3682067791620887e-01
               splits:
                  - { var:1, quality:3.2601263523101807e+00,
                      le:1.5000000000000000e+00 }
            -
               depth: 4
               value: 7.5802600383758545e-01
               splits:
                  - { var:0, quality:1.7275665998458862e+00, le:19007. }
            -
               depth: 5
               value: 7.0798397064208984e-01
            -
               depth: 5
               value: 7.8304702043533325e-01
            -
               depth: 4
               value: 7.1561535199483239e-01
               splits:
                  - { var:0, quality:1.5457845926284790e+00, le:19263. }
            -
               depth: 5
               value: 7.9506599903106689e-01
            -
               depth: 5
               value: 6.7589002847671509e-01
            -
               depth: 1
               value: 1.3679560646414757e+00
               splits:
                  - { var:1, quality:7.5201972961425781e+01,
                      le:1.5000000000000000e+00 }
            -
               depth: 2
               value: 1.3894105224232924e+00
            -
               depth: 2
               value: 9.6032136678695679e-01
               splits:
                  - { var:0, quality:1.8448026180267334e+00, le:32319. }
            -
               depth: 3
               value: 9.4674897193908691e-01
            -
               depth: 3
               value: 9.7389376163482666e-01
      -
         nodes:
            -
               depth: 0
               value: 8.8347464122343811e-01
               splits:
                  - { var:1, quality:7.0833984375000000e+01,
                      le:5.0000000000000000e-01 }
            -
               depth: 1
               value: 1.1248946888372302e-01
            -
               depth: 1
               value: 1.0195308481069172e+00
               splits:
                  - { var:1, quality:7.7758926391601562e+01,
                      le:1.5000000000000000e+00 }
            -
               depth: 2
               value: 1.2426290848980779e+00
            -
               depth: 2
               value: 5.5305271663449029e-01
      -
         nodes:
            -
               depth: 0
               value: 7.4529783334342026e-01
               splits:
                  - { var:1, quality:5.4358455657958984e+01,
                      le:5.0000000000000000e-01 }
            -
               depth: 1
               value: 6.7379471998933960e-02
               splits:
                  - { var:0, quality:1.4217096567153931e-01, le:4159. }
            -
               depth: 2
               value: 2.7468086514697159e-02
               splits:
                  - { var:0, quality:1.5466778539121151e-02, le:1855. }
            -
               depth: 3
               value: 4.3509403543187846e-03
               splits:
                  - { var:0, quality:3.0882621649652719e-04, le:1087. }
            -
               depth: 4
               value: 1.7998482646362391e-03
            -
               depth: 4
               value: 1.7106400802731514e-02
            -
               depth: 3
               value: 5.0585232675075531e-02
               splits:
                  - { var:0, quality:1.6030624508857727e-02, le:2879. }
            -
               depth: 4
               value: 4.3071748688817024e-02
               splits:
                  - { var:0, quality:7.6447823084890842e-03, le:2367. }
            -
               depth: 5
               value: 5.0556398928165436e-02
            -
               depth: 5
               value: 3.5587098449468613e-02
            -
               depth: 4
               value: 6.5612200647592545e-02
            -
               depth: 2
               value: 1.6316679716110230e-01
               splits:
                  - { var:0, quality:1.4294792711734772e-01, le:5695. }
            -
               depth: 3
               value: 1.2696199615796408e-01
            -
               depth: 3
               value: 2.1747399866580963e-01
            -
               depth: 1
               value: 9.2822818481732927e-01
               splits:
                  - { var:1, quality:6.4164321899414062e+01,
                      le:1.5000000000000000e+00 }
            -
               depth: 2
               value: 1.3180632740259171e+00
               splits:
                  - { var:0, quality:5.8763240814208984e+01, le:31807. }
            -
               depth: 3
               value: 1.0404897199736700e+00
            -
               depth: 3
               value: 1.6749435578073775e+00
               splits:
                  - { var:0, quality:3.9552551269531250e+01, le:36927. }
            -
               depth: 4
               value: 1.4864139795303344e+00
            -
               depth: 4
               value: 1.7796822124057345e+00
            -
               depth: 2
               value: 5.2581777015039999e-01
      -
         nodes:
            -
               depth: 0
               value: 7.9327103371956587e-01
               splits:
                  - { var:0, quality:6.9455795288085938e+01, le:19775. }
            -
               depth: 1
               value: 3.2833625779338554e-01
               splits:
                  - { var:1, quality:6.0478997230529785e+00,
                      le:5.0000000000000000e-01 }
            -
               depth: 2
               value: 8.5821357892882588e-02
            -
               depth: 2
               value: 4.7757619619369507e-01
               splits:
                  - { var:0, quality:6.3063602447509766e+00, le:12351. }
            -
               depth: 3
               value: 3.2540110349655149e-01
            -
               depth: 3
               value: 5.7268562912940979e-01
               splits:
                  - { var:0, quality:5.3407921791076660e+00, le:15935. }
            -
               depth: 4
               value: 5.2859983344872796e-01
            -
               depth: 4
               value: 7.0494301617145538e-01
               splits:
                  - { var:0, quality:1.9911649227142334e+00, le:17215. }
            -
               depth: 5
               value: 7.3403900861740112e-01
            -
               depth: 5
               value: 6.7584702372550964e-01
            -
               depth: 1
               value: 1.3071463123748177e+00
               splits:
                  - { var:1, quality:6.5213325500488281e+01,
                      le:1.5000000000000000e+00 }
            -
               depth: 2
               value: 1.3275704201724794e+00
            -
               depth: 2
               value: 9.3951237201690674e-01
               splits:
                  - { var:0, quality:1.7677311897277832e+00, le:30271. }
            -
               depth: 3
               value: 9.0513098239898682e-01
            -
               depth: 3
               value: 9.7389376163482666e-01
      -
         nodes:
            -
               depth: 0
               value: 8.2364785507770644e-01
               splits:
                  - { var:0, quality:7.5202888488769531e+01, le:19519. }
            -
               depth: 1
               value: 3.2477177033486931e-01
               splits:
                  - { var:1, quality:5.4757375717163086e+00,
                      le:5.0000000000000000e-01 }
            -
               depth: 2
               value: 9.2069831516190401e-02
            -
               depth: 2
               value: 4.4543203490751759e-01
               splits:
                  - { var:0, quality:5.9039554595947266e+00, le:14399. }
            -
               depth: 3
               value: 3.5308183964930084e-01
            -
               depth: 3
               value: 6.6476374864578247e-01
               splits:
                  - { var:1, quality:3.5372495651245117e+00,
                      le:1.5000000000000000e+00 }
            -
               depth: 4
               value: 6.9189399480819702e-01
               splits:
                  - { var:0, quality:9.5795238018035889e-01, le:17727. }
            -
               depth: 5
               value: 7.0798397064208984e-01
            -
               depth: 5
               value: 6.7580401897430420e-01
            -
               depth: 4
               value: 6.5572033325831092e-01
            -
               depth: 1
               value: 1.3481073287817149e+00
               splits:
                  - { var:1, quality:7.1043670654296875e+01,
                      le:1.5000000000000000e+00 }
            -
               depth: 2
               value: 1.3586693908038892e+00
               splits:
                  - { var:0, quality:7.2756210327148438e+01, le:31295. }
            -
               depth: 3
               value: 1.0824759470091925e+00
            -
               depth: 3
               value: 1.6072434902191162e+00
               splits:
                  - { var:0, quality:5.1979850769042969e+01, le:36671. }
            -
               depth: 4
               value: 1.4817009806632995e+00
            -
               depth: 4
               value: 1.7327859997749329e+00
            -
               depth: 2
               value: 9.4674897193908691e-01
      -
         nodes:
            -
               depth: 0
               value: 7.4354855286655952e-01
               splits:
                  - { var:0, quality:6.0074489593505859e+01, le:20799. }
            -
               depth: 1
               value: 3.8956059513575569e-01
               splits:
                  - { var:1, quality:8.9471273422241211e+00,
                      le:5.0000000000000000e-01 }
            -
               depth: 2
               value: 1.2517986788103977e-01
            -
               depth: 2
               value: 5.0619915127754211e-01
               splits:
                  - { var:0, quality:9.5446977615356445e+00, le:14655. }
            -
               depth: 3
               value: 3.8307423818679082e-01
               splits:
                  - { var:0, quality:3.2345082759857178e+00, le:10047. }
            -
               depth: 4
               value: 2.6242328541619436e-01
               splits:
                  - { var:0, quality:5.0320702791213989e-01, le:7231. }
            -
               depth: 5
               value: 1.7552199959754944e-01
            -
               depth: 5
               value: 2.9718379974365233e-01
            -
               depth: 4
               value: 4.4339971457208904e-01
            -
               depth: 3
               value: 7.0509324165490961e-01
               splits:
                  - { var:0, quality:6.5081214904785156e+00, le:18239. }
            -
               depth: 4
               value: 6.4148267110188806e-01
               splits:
                  - { var:0, quality:2.4776735305786133e+00, le:15679. }
            -
               depth: 5
               value: 5.8771300315856934e-01
            -
               depth: 5
               value: 6.6836750507354736e-01
            -
               depth: 4
               value: 7.5961658784321373e-01
               splits:
                  - { var:0, quality:4.0476045608520508e+00, le:19263. }
            -
               depth: 5
               value: 7.9981400569279992e-01
            -
               depth: 5
               value: 7.2946852445602417e-01
            -
               depth: 1
               value: 1.3030779054087978e+00
               splits:
                  - { var:0, quality:5.3868812561035156e+01, le:31551. }
            -
               depth: 2
               value: 1.1337669624222650e+00
            -
               depth: 2
               value: 1.5375084418516893e+00
      -
         nodes:
            -
               depth: 0
               value: 8.2971274551237006e-01
               splits:
                  - { var:0, quality:7.3003570556640625e+01, le:25919. }
            -
               depth: 1
               value: 4.7272317544283238e-01
               splits:
                  - { var:1, quality:1.3812596321105957e+01,
                      le:5.0000000000000000e-01 }
            -
               depth: 2
               value: 1.1890555898259793e-01
               splits:
                  - { var:0, quality:3.2251858711242676e-01, le:5439. }
            -
               depth: 3
               value: 3.7211728864349425e-02
               splits:
                  - { var:0, quality:1.8892312422394753e-02, le:1855. }
            -
               depth: 4
               value: 5.9575077611953020e-03
               splits:
                  - { var:0, quality:3.0769800650887191e-04, le:1087. }
            -
               depth: 5
               value: 2.2412100806832314e-03
            -
               depth: 5
               value: 1.7106400802731514e-02
            -
               depth: 4
               value: 6.8465949967503548e-02
               splits:
                  - { var:0, quality:2.0275946706533432e-02, le:3903. }
            -
               depth: 5
               value: 5.7190599540869393e-02
            -
               depth: 5
               value: 1.0229200124740601e-01
            -
               depth: 3
               value: 2.2783066580692926e-01
            -
               depth: 2
               value: 6.0660011140075887e-01
               splits:
                  - { var:1, quality:1.4569040298461914e+01,
                      le:1.5000000000000000e+00 }
            -
               depth: 3
               value: 8.3841425677140557e-01
               splits:
                  - { var:0, quality:8.5065326690673828e+00, le:20799. }
            -
               depth: 4
               value: 7.2942551970481873e-01
               splits:
                  - { var:0, quality:2.1397473812103271e+00, le:19263. }
            -
               depth: 5
               value: 6.7580401897430420e-01
            -
               depth: 5
               value: 7.8304702043533325e-01
            -
               depth: 4
               value: 8.9290862530469894e-01
            -
               depth: 3
               value: 4.9532932162284848e-01
               splits:
                  - { var:0, quality:7.3469257354736328e+00, le:16703. }
            -
               depth: 4
               value: 3.4421441309592304e-01
               splits:
                  - { var:0, quality:2.1424818038940430e+00, le:9791. }
            -
               depth: 5
               value: 2.5208475440740585e-01
            -
               depth: 5
               value: 4.2610744304127163e-01
            -
               depth: 4
               value: 8.1644850224256516e-01
               splits:
                  - { var:0, quality:5.3646740913391113e+00, le:19775. }
            -
               depth: 5
               value: 7.7995134393374121e-01
            -
               depth: 5
               value: 9.2593997716903687e-01
            -
               depth: 1
               value: 1.4575219894277638e+00
               splits:
                  - { var:0, quality:6.2817474365234375e+01, le:31807. }
            -
               depth: 2
               value: 1.1758770108222962e+00
            -
               depth: 2
               value: 1.6057561886937994e+00
               splits:
                  - { var:0, quality:4.9883049011230469e+01, le:40255. }
            -
               depth: 3
               value: 1.6800929448183846e+00
            -
               depth: 3
               value: 9.7389376163482666e-01
      -
         nodes:
            -
               depth: 0
               value: 8.1789113698960136e-01
               splits:
                  - { var:0, quality:7.2520950317382812e+01, le:18239. }
            -
               depth: 1
               value: 2.3621121605383727e-01
               splits:
                  - { var:1, quality:2.5597465038299561e+00,
                      le:5.0000000000000000e-01 }
            -
               depth: 2
               value: 9.3062299422693770e-02
               splits:
                  - { var:0, quality:2.7413457632064819e-01, le:5439. }
            -
               depth: 3
               value: 4.5136162092183858e-02
               splits:
                  - { var:0, quality:4.0604468435049057e-02, le:1855. }
            -
               depth: 4
               value: 3.4488009609049187e-03
            -
               depth: 4
               value: 7.1190762799233198e-02
            -
               depth: 3
               value: 2.4882224574685097e-01
            -
               depth: 2
               value: 3.8830693997442722e-01
               splits:
                  - { var:0, quality:2.5859575271606445e+00, le:13119. }
            -
               depth: 3
               value: 3.2819575319687527e-01
               splits:
                  - { var:0, quality:1.3528374433517456e+00, le:8511. }
            -
               depth: 4
               value: 2.0542766650517783e-01
            -
               depth: 4
               value: 3.6911844876077438e-01
               splits:
                  - { var:0, quality:1.2351597547531128e+00, le:10047. }
            -
               depth: 5
               value: 3.1020849943161011e-01
            -
               depth: 5
               value: 3.8594986285482136e-01
            -
               depth: 3
               value: 5.6864050030708313e-01
               splits:
                  - { var:1, quality:1.3087201118469238e+00,
                      le:1.5000000000000000e+00 }
            -
               depth: 4
               value: 6.7580401897430420e-01
            -
               depth: 4
               value: 5.3291932741800940e-01
               splits:
                  - { var:0, quality:8.5354453325271606e-01, le:14399. }
            -
               depth: 5
               value: 5.1692199707031250e-01
            -
               depth: 5
               value: 5.6491398811340332e-01
            -
               depth: 1
               value: 1.2263046984976911e+00
               splits:
                  - { var:0, quality:7.4426612854003906e+01, le:31551. }
            -
               depth: 2
               value: 1.0137590289115905e+00
               splits:
                  - { var:0, quality:3.1380500793457031e+01, le:25663. }
            -
               depth: 3
               value: 8.8718631118535995e-01
               splits:
                  - { var:0, quality:1.2610106468200684e+01, le:19519. }
            -
               depth: 4
               value: 8.0218800902366638e-01
            -
               depth: 4
               value: 8.9932892577988766e-01
               splits:
                  - { var:0, quality:1.1333329200744629e+01, le:24895. }
            -
               depth: 5
               value: 8.8520926778966735e-01
            -
               depth: 5
               value: 9.5110100507736206e-01
            -
               depth: 3
               value: 1.1584135634558541e+00
            -
               depth: 2
               value: 1.6013852918849272e+00
      -
         nodes:
            -
               depth: 0
               value: 8.2382654982120584e-01
               splits:
                  - { var:0, quality:7.5532371520996094e+01, le:18239. }
            -
               depth: 1
               value: 2.6838731738491728e-01
               splits:
                  - { var:0, quality:3.9478065967559814e+00, le:7999. }
            -
               depth: 2
               value: 6.6438807567465119e-02
               splits:
                  - { var:0, quality:1.1713282763957977e-01, le:5695. }
            -
               depth: 3
               value: 4.8269048654280292e-02
            -
               depth: 3
               value: 2.0271199941635132e-01
               splits:
                  - { var:1, quality:8.3662904798984528e-02, le:1. }
            -
               depth: 4
               value: 2.2990199923515320e-01
            -
               depth: 4
               value: 1.7552199959754944e-01
            -
               depth: 2
               value: 4.4004355072975160e-01
               splits:
                  - { var:0, quality:4.1301960945129395e+00, le:13119. }
            -
               depth: 3
               value: 3.5679215422043431e-01
            -
               depth: 3
               value: 5.9465328710419796e-01
               splits:
                  - { var:0, quality:2.5313096046447754e+00, le:15423. }
            -
               depth: 4
               value: 5.1717849820852280e-01
            -
               depth: 4
               value: 6.9795300563176477e-01
               splits:
                  - { var:0, quality:1.4633685350418091e+00, le:16703. }
            -
               depth: 5
               value: 7.3403900861740112e-01
            -
               depth: 5
               value: 6.7991000413894653e-01
            -
               depth: 1
               value: 1.3017626335454542e+00
               splits:
                  - { var:1, quality:7.3707565307617188e+01,
                      le:1.5000000000000000e+00 }
            -
               depth: 2
               value: 1.3524726456717442e+00
               splits:
                  - { var:0, quality:7.2360633850097656e+01, le:31295. }
            -
               depth: 3
               value: 1.0925870448350907e+00
               splits:
                  - { var:0, quality:2.4307332992553711e+01, le:26687. }
            -
               depth: 4
               value: 9.4554908871650700e-01
            -
               depth: 4
               value: 1.2396250009536742e+00
               splits:
                  - { var:0, quality:1.5394217491149902e+01, le:29503. }
            -
               depth: 5
               value: 1.1753800213336945e+00
            -
               depth: 5
               value: 1.2824549873669941e+00
            -
               depth: 3
               value: 1.6412344243791368e+00
            -
               depth: 2
               value: 9.1636654138565066e-01
               splits:
                  - { var:0, quality:4.2129645347595215e+00, le:19263. }
            -
               depth: 3
               value: 8.0931001901626587e-01
            -
               depth: 3
               value: 9.4313067197799683e-01
      -
         nodes:
            -
               depth: 0
               value: 8.8488658173932888e-01
               splits:
                  - { var:0, quality:7.7643043518066406e+01, le:21055. }
            -
               depth: 1
               value: 3.8120498444646622e-01
               splits:
                  - { var:0, quality:6.9457135200500488e+00, le:11583. }
            -
               depth: 2
               value: 1.5225868717627439e-01
               splits:
                  - { var:0, quality:6.8340218067169189e-01, le:5439. }
            -
               depth: 3
               value: 5.5263578281565889e-02
               splits:
                  - { var:0, quality:6.0782551765441895e-02, le:3135. }
            -
               depth: 4
               value: 9.8798114795499714e-03
            -
               depth: 4
               value: 1.0972409844398498e-01
               splits:
                  - { var:0, quality:6.3112072646617889e-02, le:4927. }
            -
               depth: 5
               value: 9.0008834997812912e-02
            -
               depth: 5
               value: 1.3929699361324310e-01
            -
               depth: 3
               value: 3.0467957258224487e-01
               splits:
                  - { var:0, quality:6.6652709245681763e-01, le:7999. }
            -
               depth: 4
               value: 2.2740550339221954e-01
               splits:
                  - { var:0, quality:1.0628927499055862e-01, le:6719. }
            -
               depth: 5
               value: 1.8957200646400452e-01
            -
               depth: 5
               value: 2.6523900032043457e-01
            -
               depth: 4
               value: 3.3558920025825500e-01
               splits:
                  - { var:0, quality:5.6962651014328003e-01, le:10047. }
            -
               depth: 5
               value: 3.0609132846196491e-01
            -
               depth: 5
               value: 3.7983600795269012e-01
            -
               depth: 2
               value: 6.3876956887543201e-01
               splits:
                  - { var:1, quality:6.5541739463806152e+00,
                      le:1.5000000000000000e+00 }
            -
               depth: 3
               value: 7.2227833668390906e-01
               splits:
                  - { var:0, quality:1.5705972909927368e+00, le:19263. }
            -
               depth: 4
               value: 6.9189399480819702e-01
            -
               depth: 4
               value: 7.8304702043533325e-01
            -
               depth: 3
               value: 6.1949831476578343e-01
            -
               depth: 1
               value: 1.2571729797384013e+00
               splits:
                  - { var:1, quality:7.3187599182128906e+01,
                      le:1.5000000000000000e+00 }
            -
               depth: 2
               value: 1.2930433619313124e+00
            -
               depth: 2
               value: 9.6303584575653078e-01
      -
         nodes:
            -
               depth: 0
               value: 8.1785639442969116e-01
               splits:
                  - { var:1, quality:6.4025451660156250e+01,
                      le:5.0000000000000000e-01 }
            -
               depth: 1
               value: 9.2793505289591849e-02
            -
               depth: 1
               value: 9.9912211671471596e-01
               splits:
                  - { var:0, quality:7.1663375854492188e+01, le:26431. }
            -
               depth: 2
               value: 7.0136605404518748e-01
               splits:
                  - { var:1, quality:1.9376111984252930e+01,
                      le:1.5000000000000000e+00 }
            -
               depth: 3
               value: 9.2980492966515682e-01
               splits:
                  - { var:0, quality:1.2138228416442871e+01, le:25407. }
            -
               depth: 4
               value: 9.0380263328552246e-01
            -
               depth: 4
               value: 1.0251466830571492e+00
               splits:
                  - { var:0, quality:3.1532878875732422e+00, le:25919. }
            -
               depth: 5
               value: 1.0159200429916382e+00
            -
               depth: 5
               value: 1.0435999631881714e+00
            -
               depth: 3
               value: 5.6231630366781482e-01
               splits:
                  - { var:0, quality:8.1080627441406250e+00, le:14143. }
            -
               depth: 4
               value: 3.6325073242187500e-01
            -
               depth: 4
               value: 7.4479307730992639e-01
            -
               depth: 2
               value: 1.4071582025951810e+00
               splits:
                  - { var:1, quality:5.4096092224121094e+01,
                      le:1.5000000000000000e+00 }
            -
               depth: 3
               value: 1.4613162577152252e+00
               splits:
                  - { var:0, quality:5.2417968750000000e+01, le:31295. }
            -
               depth: 4
               value: 1.1766033437516954e+00
            -
               depth: 4
               value: 1.6321440060933432e+00
               splits:
                  - { var:0, quality:4.0122432708740234e+01, le:37183. }
            -
               depth: 5
               value: 1.5467633406321208e+00
            -
               depth: 5
               value: 1.7602150042851765e+00
            -
               depth: 3
               value: 9.7389376163482666e-01
      -
         nodes:
            -
               depth: 0
               value: 8.5286369330715384e-01
               splits:
                  - { var:0, quality:7.4557533264160156e+01, le:18239. }
            -
               depth: 1
               value: 3.2674402540878339e-01
               splits:
                  - { var:1, quality:4.8732986450195312e+00,
                      le:5.0000000000000000e-01 }
            -
               depth: 2
               value: 8.3689146746809662e-02
            -
               depth: 2
               value: 4.7720656934238614e-01
               splits:
                  - { var:0, quality:5.3025140762329102e+00, le:13119. }
            -
               depth: 3
               value: 3.4089474628369015e-01
            -
               depth: 3
               value: 6.5895566675398087e-01
               splits:
                  - { var:0, quality:3.9477424621582031e+00, le:15935. }
            -
               depth: 4
               value: 5.6498233477274573e-01
               splits:
                  - { var:0, quality:9.5839011669158936e-01, le:15167. }
            -
               depth: 5
               value: 5.5361700057983398e-01
            -
               depth: 5
               value: 5.8771300315856934e-01
            -
               depth: 4
               value: 7.0594233274459839e-01
               splits:
                  - { var:1, quality:2.9924957752227783e+00,
                      le:1.5000000000000000e+00 }
            -
               depth: 5
               value: 6.9189399480819702e-01
            -
               depth: 5
               value: 7.3403900861740112e-01
            -
               depth: 1
               value: 1.2417347521885582e+00
               splits:
                  - { var:0, quality:7.3882812500000000e+01, le:29503. }
            -
               depth: 2
               value: 9.9906353900829947e-01
               splits:
                  - { var:1, quality:2.4042551040649414e+01,
                      le:1.5000000000000000e+00 }
            -
               depth: 3
               value: 1.0260634481906892e+00
               splits:
                  - { var:0, quality:2.1190248489379883e+01, le:24383. }
            -
               depth: 4
               value: 9.2576737701892853e-01
               splits:
                  - { var:0, quality:6.8734388351440430e+00, le:22335. }
            -
               depth: 5
               value: 9.6155499219894414e-01
            -
               depth: 5
               value: 8.6612135171890259e-01
            -
               depth: 4
               value: 1.0929274956385295e+00
            -
               depth: 3
               value: 8.6406399309635162e-01
            -
               depth: 2
               value: 1.5064669847488403e+00
               splits:
                  - { var:0, quality:5.0224880218505859e+01, le:39999. }
            -
               depth: 3
               value: 1.5318276144209362e+00
            -
               depth: 3
               value: 9.7389376163482666e-01
      -
         nodes:
            -
               depth: 0
               value: 9.0480257186572999e-01
               splits:
                  - { var:0, quality:8.4582824707031250e+01, le:26431. }
            -
               depth: 1
               value: 4.9548601196642889e-01
               splits:
                  - { var:1, quality:1.4704648017883301e+01,
                      le:5.0000000000000000e-01 }
            -
               depth: 2
               value: 9.7022036755723615e-02
               splits:
                  - { var:0, quality:2.1728003025054932e-01, le:5439. }
            -
               depth: 3
               value: 4.7598451934754850e-02
               splits:
                  - { var:0, quality:2.9082203283905983e-02, le:2879. }
            -
               depth: 4
               value: 2.2248743101954460e-02
               splits:
                  - { var:0, quality:3.8093707989901304e-03, le:1599. }
            -
               depth: 5
               value: 2.2412100806832314e-03
            -
               depth: 5
               value: 3.5587098449468613e-02
            -
               depth: 4
               value: 7.2948160767555240e-02
               splits:
                  - { var:0, quality:2.7683496475219727e-02, le:4159. }
            -
               depth: 5
               value: 6.5612200647592545e-02
            -
               depth: 5
               value: 1.0229200124740601e-01
            -
               depth: 3
               value: 2.2058099880814552e-01
               splits:
                  - { var:0, quality:1.9473974406719208e-01, le:6719. }
            -
               depth: 4
               value: 2.1747399866580963e-01
            -
               depth: 4
               value: 2.2990199923515320e-01
            -
               depth: 2
               value: 6.6453133478309168e-01
               splits:
                  - { var:1, quality:1.5296597480773926e+01,
                      le:1.5000000000000000e+00 }
            -
               depth: 3
               value: 8.7396564808758825e-01
            -
               depth: 3
               value: 5.5981417813084344e-01
            -
               depth: 1
               value: 1.4877685814192800e+00
               splits:
                  - { var:0, quality:7.3774200439453125e+01, le:32575. }
            -
               depth: 2
               value: 1.2621789813041686e+00
            -
               depth: 2
               value: 1.5858510162519373e+00
               splits:
                  - { var:0, quality:5.8234752655029297e+01, le:40255. }
            -
               depth: 3
               value: 1.6136672550981694e+00
               splits:
                  - { var:0, quality:5.7557434082031250e+01, le:36671. }
            -
               depth: 4
               value: 1.5297456979751587e+00
            -
               depth: 4
               value: 1.7605299800634384e+00
            -
               depth: 3
               value: 9.7389376163482666e-01
      -
         nodes:
            -
               depth: 0
               value: 8.2264706982532521e-01
               splits:
                  - { var:0, quality:6.8580108642578125e+01, le:20799. }
            -
               depth: 1
               value: 4.3834975304674695e-01
               splits:
                  - { var:1, quality:1.1154590606689453e+01,
                      le:5.0000000000000000e-01 }
            -
               depth: 2
               value: 1.1065306543605402e-01
               splits:
                  - { var:0, quality:3.1410965323448181e-01, le:5439. }
            -
               depth: 3
               value: 4.4074905384331939e-02
               splits:
                  - { var:0, quality:3.0693344771862030e-02, le:3135. }
            -
               depth: 4
               value: 1.6667641233652830e-02
               splits:
                  - { var:0, quality:3.7583922967314720e-03, le:1599. }
            -
               depth: 5
               value: 3.4655875060707331e-03
            -
               depth: 5
               value: 4.3071748688817024e-02
            -
               depth: 4
               value: 8.5185801610350609e-02
            -
               depth: 3
               value: 2.2161666552225748e-01
               splits:
                  - { var:0, quality:2.9488962888717651e-01, le:6719. }
            -
               depth: 4
               value: 2.1747399866580963e-01
            -
               depth: 4
               value: 2.2990199923515320e-01
            -
               depth: 2
               value: 6.2560500311000011e-01
               splits:
                  - { var:0, quality:1.1684161186218262e+01, le:14399. }
            -
               depth: 3
               value: 3.7109637632966042e-01
               splits:
                  - { var:0, quality:1.2189657688140869e+00, le:9535. }
            -
               depth: 4
               value: 2.1479433774948120e-01
            -
               depth: 4
               value: 4.6487759947776797e-01
            -
               depth: 3
               value: 7.2740845382213593e-01
               splits:
                  - { var:1, quality:1.0597939491271973e+01,
                      le:1.5000000000000000e+00 }
            -
               depth: 4
               value: 7.8304702043533325e-01
            -
               depth: 4
               value: 7.1349881216883659e-01
               splits:
                  - { var:0, quality:8.2292270660400391e+00, le:19775. }
            -
               depth: 5
               value: 6.8612278785024372e-01
            -
               depth: 5
               value: 9.0513098239898682e-01
            -
               depth: 1
               value: 1.2923437903324764e+00
               splits:
                  - { var:1, quality:6.0358936309814453e+01,
                      le:1.5000000000000000e+00 }
            -
               depth: 2
               value: 1.3118745211292715e+00
               splits:
                  - { var:0, quality:6.1207984924316406e+01, le:32319. }
            -
               depth: 3
               value: 1.0763876944780351e+00
            -
               depth: 3
               value: 1.6482842734881811e+00
            -
               depth: 2
               value: 9.6032136678695679e-01
               splits:
                  - { var:0, quality:1.8448026180267334e+00, le:32319. }
            -
               depth: 3
               value: 9.4674897193908691e-01
            -
               depth: 3
               value: 9.7389376163482666e-01
      -
         nodes:
            -
               depth: 0
               value: 6.9910323734852686e-01
               splits:
                  - { var:0, quality:5.5821933746337891e+01, le:14655. }
            -
               depth: 1
               value: 1.8069087529802347e-01
               splits:
                  - { var:1, quality:1.8316993713378906e+00, le:1. }
            -
               depth: 2
               value: 7.2838710231239515e-02
            -
               depth: 2
               value: 3.6320992387258089e-01
               splits:
                  - { var:0, quality:1.8168616294860840e+00, le:9791. }
            -
               depth: 3
               value: 2.3041850328445435e-01
               splits:
                  - { var:0, quality:2.2442525625228882e-01, le:7231. }
            -
               depth: 4
               value: 1.7552199959754944e-01
            -
               depth: 4
               value: 2.8531500697135925e-01
            -
               depth: 3
               value: 4.2222833302285934e-01
               splits:
                  - { var:0, quality:1.6130331754684448e+00, le:12607. }
            -
               depth: 4
               value: 4.0576071398598806e-01
               splits:
                  - { var:0, quality:1.1543620824813843e+00, le:11071. }
            -
               depth: 5
               value: 3.8688867290814716e-01
            -
               depth: 5
               value: 4.1991474479436874e-01
            -
               depth: 4
               value: 4.7986499965190887e-01
               splits:
                  - { var:0, quality:4.6086266636848450e-01, le:13119. }
            -
               depth: 5
               value: 4.6718001365661621e-01
            -
               depth: 5
               value: 4.9254998564720154e-01
            -
               depth: 1
               value: 1.1023128522766961e+00
               splits:
                  - { var:1, quality:5.5616569519042969e+01,
                      le:1.5000000000000000e+00 }
            -
               depth: 2
               value: 1.1794585960251944e+00
               splits:
                  - { var:0, quality:5.1474224090576172e+01, le:28991. }
            -
               depth: 3
               value: 9.3516955673694613e-01
               splits:
                  - { var:0, quality:1.7804870605468750e+01, le:25919. }
            -
               depth: 4
               value: 8.5313793165343144e-01
            -
               depth: 4
               value: 1.1265766819318135e+00
               splits:
                  - { var:0, quality:7.6298098564147949e+00, le:27455. }
            -
               depth: 5
               value: 1.1616474986076355e+00
            -
               depth: 5
               value: 1.0564350485801697e+00
            -
               depth: 3
               value: 1.5051773150761922e+00
               splits:
                  - { var:0, quality:3.4351741790771484e+01, le:34623. }
            -
               depth: 4
               value: 1.3772255447175767e+00
               splits:
                  - { var:0, quality:1.7133949279785156e+01, le:31295. }
            -
               depth: 5
               value: 1.2835375070571899e+00
            -
               depth: 5
               value: 1.4521759748458862e+00
            -
               depth: 4
               value: 1.6971049706141155e+00
               splits:
                  - { var:0, quality:1.7303325653076172e+01, le:38719. }
            -
               depth: 5
               value: 1.6698199748992919e+00
            -
               depth: 5
               value: 1.8335299491882324e+00
            -
               depth: 2
               value: 8.3230274915695190e-01
               splits:
                  - { var:0, quality:7.0453419685363770e+00, le:19263. }
            -
               depth: 3
               value: 7.2364580631256104e-01
               splits:
                  - { var:0, quality:2.6274893283843994e+00, le:17727. }
            -
               depth: 4
               value: 7.0222975313663483e-01
               splits:
                  - { var:0, quality:1.9752552509307861e+00, le:16191. }
            -
               depth: 5
               value: 6.5682500600814819e-01
            -
               depth: 5
               value: 7.1736466884613037e-01
            -
               depth: 4
               value: 8.0931001901626587e-01
            -
               depth: 3
               value: 9.4095969200134277e-01
               splits:
                  - { var:0, quality:4.4313049316406250e+00, le:22079. }
            -
               depth: 4
               value: 9.0513098239898682e-01
            -
               depth: 4
               value: 9.6484549840291345e-01
      -
         nodes:
            -
               depth: 0
               value: 7.9682189453160390e-01
               splits:
                  - { var:1, quality:5.6616065979003906e+01,
                      le:5.0000000000000000e-01 }
            -
               depth: 1
               value: 1.5464162353115776e-01
               splits:
                  - { var:0, quality:4.2227226495742798e-01, le:5695. }
            -
               depth: 2
               value: 6.4898646702723842e-02
               splits:
                  - { var:0, quality:4.2560443282127380e-02, le:3135. }
            -
               depth: 3
               value: 1.4989009437461695e-02
               splits:
                  - { var:0, quality:1.3104331446811557e-03, le:1855. }
            -
               depth: 4
               value: 4.6899649314582348e-03
               splits:
                  - { var:0, quality:5.5984342907322571e-05, le:831. }
            -
               depth: 5
               value: 2.2412100806832314e-03
            -
               depth: 5
               value: 7.1387197822332382e-03
            -
               depth: 4
               value: 3.5587098449468613e-02
            -
               depth: 3
               value: 1.0233087465167046e-01
               splits:
                  - { var:0, quality:4.3708425015211105e-02, le:4927. }
            -
               depth: 4
               value: 9.0008834997812912e-02
               splits:
                  - { var:0, quality:2.4863051250576973e-02, le:3903. }
            -
               depth: 5
               value: 7.0716701447963715e-02
            -
               depth: 5
               value: 9.9654901772737503e-02
            -
               depth: 4
               value: 1.3929699361324310e-01
            -
               depth: 2
               value: 2.8028179109096529e-01
               splits:
                  - { var:0, quality:4.0346559882164001e-01, le:7743. }
            -
               depth: 3
               value: 2.2368799895048141e-01
               splits:
                  - { var:0, quality:1.0014986991882324e-01, le:6719. }
            -
               depth: 4
               value: 2.1747399866580963e-01
            -
               depth: 4
               value: 2.2990199923515320e-01
            -
               depth: 3
               value: 3.1801098585128784e-01
            -
               depth: 1
               value: 9.1014782470815325e-01
               splits:
                  - { var:1, quality:6.5622520446777344e+01,
                      le:1.5000000000000000e+00 }
            -
               depth: 2
               value: 1.2485346536378603e+00
               splits:
                  - { var:0, quality:6.0717994689941406e+01, le:31551. }
            -
               depth: 3
               value: 1.0499136877059936e+00
               splits:
                  - { var:0, quality:2.8093338012695312e+01, le:25663. }
            -
               depth: 4
               value: 8.7068719863891597e-01
            -
               depth: 4
               value: 1.1693980137507121e+00
            -
               depth: 3
               value: 1.6623283326625824e+00
            -
               depth: 2
               value: 5.0626677082430926e-01
      -
         nodes:
            -
               depth: 0
               value: 8.5651821811434270e-01
               splits:
                  - { var:0, quality:7.6058227539062500e+01, le:25919. }
            -
               depth: 1
               value: 5.0516152178441220e-01
               splits:
                  - { var:1, quality:1.6547136306762695e+01,
                      le:5.0000000000000000e-01 }
            -
               depth: 2
               value: 9.7439625895640342e-02
               splits:
                  - { var:0, quality:2.3566447198390961e-01, le:5695. }
            -
               depth: 3
               value: 5.8017283723529545e-02
               splits:
                  - { var:0, quality:6.3308589160442352e-02, le:3391. }
            -
               depth: 4
               value: 2.1083844637489944e-02
            -
               depth: 4
               value: 1.0972409844398498e-01
            -
               depth: 3
               value: 2.5512899458408356e-01
            -
               depth: 2
               value: 6.7504564507140052e-01
               splits:
                  - { var:0, quality:1.7527494430541992e+01, le:14911. }
            -
               depth: 3
               value: 3.6916222506099278e-01
               splits:
                  - { var:0, quality:1.3006873130798340e+00, le:11071. }
            -
               depth: 4
               value: 2.8797080516815188e-01
               splits:
                  - { var:0, quality:4.3044182658195496e-01, le:7743. }
            -
               depth: 5
               value: 1.7552199959754944e-01
            -
               depth: 5
               value: 3.1608300656080246e-01
            -
               depth: 4
               value: 4.7065149992704391e-01
               splits:
                  - { var:0, quality:8.9480614662170410e-01, le:12863. }
            -
               depth: 5
               value: 4.2386800050735474e-01
            -
               depth: 5
               value: 5.1743499934673309e-01
            -
               depth: 3
               value: 7.7700678507486975e-01
               splits:
                  - { var:1, quality:1.6380655288696289e+01,
                      le:1.5000000000000000e+00 }
            -
               depth: 4
               value: 8.2935707909720280e-01
               splits:
                  - { var:0, quality:9.7781744003295898e+00, le:20799. }
            -
               depth: 5
               value: 7.2636244126728600e-01
            -
               depth: 5
               value: 9.3235171692711971e-01
            -
               depth: 4
               value: 7.2062954535851109e-01
            -
               depth: 1
               value: 1.4744213737290481e+00
               splits:
                  - { var:0, quality:6.4286941528320312e+01, le:31551. }
            -
               depth: 2
               value: 1.2095527323809536e+00
            -
               depth: 2
               value: 1.6362855434417725e+00
               splits:
                  - { var:0, quality:4.8459190368652344e+01, le:36671. }
            -
               depth: 3
               value: 1.5276689887046815e+00
            -
               depth: 3
               value: 1.7720562368631363e+00
               splits:
                  - { var:0, quality:2.5147546768188477e+01, le:39743. }
            -
               depth: 4
               value: 1.7390916546185811e+00
            -
               depth: 4
               value: 1.8709499835968018e+00
      -
         nodes:
            -
               depth: 0
               value: 8.8180288823787123e-01
               splits:
                  - { var:1, quality:7.1125244140625000e+01,
                      le:5.0000000000000000e-01 }
            -
               depth: 1
               value: 8.6961766239255667e-02
               splits:
                  - { var:0, quality:1.6918419301509857e-01, le:5695. }
            -
               depth: 2
               value: 5.0805621035397056e-02
            -
               depth: 2
               value: 2.6774249225854874e-01
            -
               depth: 1
               value: 1.0220689685905682e+00
               splits:
                  - { var:1, quality:8.3015640258789062e+01,
                      le:1.5000000000000000e+00 }
            -
               depth: 2
               value: 1.3320777009833942e+00
               splits:
                  - { var:0, quality:8.2803138732910156e+01, le:31295. }
            -
               depth: 3
               value: 1.0188456151796423e+00
            -
               depth: 3
               value: 1.6751414140065510e+00
            -
               depth: 2
               value: 4.5371962587038678e-01
               splits:
                  - { var:0, quality:5.3646693229675293e+00, le:13375. }
            -
               depth: 3
               value: 3.5076413551966351e-01
               splits:
                  - { var:0, quality:1.9058319330215454e+00, le:10047. }
            -
               depth: 4
               value: 2.8298314554350718e-01
               splits:
                  - { var:0, quality:5.7073611021041870e-01, le:6719. }
            -
               depth: 5
               value: 1.8957200646400452e-01
            -
               depth: 5
               value: 2.9855166872342426e-01
            -
               depth: 4
               value: 4.1007250174880028e-01
            -
               depth: 3
               value: 6.2531210978825891e-01
      -
         nodes:
            -
               depth: 0
               value: 7.8993845259296902e-01
               splits:
                  - { var:0, quality:6.4772605895996094e+01, le:19775. }
            -
               depth: 1
               value: 3.6970223256529849e-01
               splits:
                  - { var:0, quality:7.7376728057861328e+00, le:9023. }
            -
               depth: 2
               value: 9.8641613541771866e-02
               splits:
                  - { var:1, quality:2.3822230100631714e-01, le:1. }
            -
               depth: 3
               value: 6.8346958793232007e-02
               splits:
                  - { var:0, quality:1.2718626856803894e-01, le:4927. }
            -
               depth: 4
               value: 3.3653130144640192e-02
            -
               depth: 4
               value: 1.9555766383806863e-01
            -
               depth: 3
               value: 2.4001666903495789e-01
            -
               depth: 2
               value: 5.6170350437362992e-01
               splits:
                  - { var:0, quality:7.9581923484802246e+00, le:14911. }
            -
               depth: 3
               value: 4.3489449967940647e-01
            -
               depth: 3
               value: 6.8851250906785333e-01
               splits:
                  - { var:0, quality:5.7063465118408203e+00, le:16191. }
            -
               depth: 4
               value: 6.4300260543823240e-01
            -
               depth: 4
               value: 7.2101958308901104e-01
               splits:
                  - { var:1, quality:3.6414699554443359e+00,
                      le:1.5000000000000000e+00 }
            -
               depth: 5
               value: 6.7580401897430420e-01
            -
               depth: 5
               value: 7.2855551044146216e-01
            -
               depth: 1
               value: 1.2317252480066740e+00
               splits:
                  - { var:1, quality:5.9441684722900391e+01,
                      le:1.5000000000000000e+00 }
            -
               depth: 2
               value: 1.2558753043413162e+00
               splits:
                  - { var:0, quality:5.9492237091064453e+01, le:30015. }
            -
               depth: 3
               value: 9.8139506247308517e-01
               splits:
                  - { var:0, quality:1.7420103073120117e+01, le:25407. }
            -
               depth: 4
               value: 9.3319091697533929e-01
            -
               depth: 4
               value: 1.0778033534685771e+00
            -
               depth: 3
               value: 1.5303555462095473e+00
               splits:
                  - { var:0, quality:4.2478404998779297e+01, le:34111. }
            -
               depth: 4
               value: 1.3964777655071683e+00
               splits:
                  - { var:0, quality:1.7608554840087891e+01, le:31295. }
            -
               depth: 5
               value: 1.2837300300598145e+00
            -
               depth: 5
               value: 1.4528516332308452e+00
            -
               depth: 4
               value: 1.6642333269119263e+00
            -
               depth: 2
