%YAML:1.0
---
opencv_ml_rtrees:
   format: 3
   is_classifier: 0
   var_all: 3
   var_count: 2
   ord_var_count: 3
   cat_var_count: 0
   training_params:
      use_surrogates: 0
      max_categories: 10
      regression_accuracy: 9.9999999747524271e-07
      max_depth: 5
      min_sample_count: 1
      cross_validation_folds: 0
      nactive_vars: 0
   global_var_idx: 1
   var_idx: [ 0, 1 ]
   var_type: [ 0, 0, 0 ]
   cat_ofs: [ 0, 0, 0, 0 ]
   missing_subst: [ 0., 0., 0. ]
   oob_error: 9.3951204921827979e-03
   ntrees: 50
   trees:
      -
         nodes:
            -
               depth: 0
               value: 5.8399975732667375e-01
               splits:
                  - { var:1, quality:2.1025169372558594e+01,
                      le:5.0000000000000000e-01 }
            -
               depth: 1
               value: 1.0847870793301038e-01
            -
               depth: 1
               value: 7.5107472062714997e-01
               splits:
                  - { var:0, quality:2.8263660430908203e+01, le:16639. }
            -
               depth: 2
               value: 3.3900182051584127e-01
               splits:
                  - { var:0, quality:2.7545804977416992e+00, le:7199. }
            -
               depth: 3
               value: 1.0831623617559671e-01
            -
               depth: 3
               value: 4.3786707094737459e-01
            -
               depth: 2
               value: 1.2358663678169250e+00
               splits:
                  - { var:1, quality:2.6192285537719727e+01,
                      le:1.5000000000000000e+00 }
            -
               depth: 3
               value: 1.2780674060185750e+00
            -
               depth: 3
               value: 9.1935858130455017e-01
      -
         nodes:
            -
               depth: 0
               value: 7.7309603460831566e-01
               splits:
                  - { var:1, quality:3.6056571960449219e+01,
                      le:1.5000000000000000e+00 }
            -
               depth: 1
               value: 1.1244561479380355e+00
               splits:
                  - { var:1, quality:3.6560493469238281e+01,
                      le:5.0000000000000000e-01 }
            -
               depth: 2
               value: 1.0485097634955309e-01
               splits:
                  - { var:0, quality:7.5082145631313324e-02, le:5439. }
            -
               depth: 3
               value: 5.3936638675319649e-02
            -
               depth: 3
               value: 2.5759398937225342e-01
            -
               depth: 2
               value: 1.3186666568120320e+00
            -
               depth: 1
               value: 4.2173592127859594e-01
               splits:
                  - { var:0, quality:5.9764118194580078e+00, le:10879. }
            -
               depth: 2
               value: 1.8406397634400770e-01
               splits:
                  - { var:0, quality:5.9728497266769409e-01, le:7199. }
            -
               depth: 3
               value: 9.7225588979199529e-02
               splits:
                  - { var:0, quality:1.0722641646862030e-01, le:3903. }
            -
               depth: 4
               value: 4.8539941385388377e-02
               splits:
                  - { var:0, quality:1.8830455839633942e-02, le:1855. }
            -
               depth: 5
               value: 1.7880899831652641e-02
            -
               depth: 5
               value: 9.4528503715991974e-02
            -
               depth: 4
               value: 1.7836833496888480e-01
               splits:
                  - { var:0, quality:9.6483901143074036e-02, le:5183. }
            -
               depth: 5
               value: 1.5206100046634674e-01
            -
               depth: 5
               value: 1.9152200222015381e-01
            -
               depth: 3
               value: 3.2300539612770079e-01
               splits:
                  - { var:0, quality:5.3001129627227783e-01, le:8959. }
            -
               depth: 4
               value: 2.8964099287986755e-01
            -
               depth: 4
               value: 3.7305200099945068e-01
            -
               depth: 2
               value: 6.7921386162439978e-01
      -
         nodes:
            -
               depth: 0
               value: 7.9130677163600927e-01
               splits:
                  - { var:1, quality:3.6443264007568359e+01,
                      le:1.5000000000000000e+00 }
            -
               depth: 1
               value: 1.0753700871552740e+00
               splits:
                  - { var:0, quality:3.8139942169189453e+01, le:12831. }
            -
               depth: 2
               value: 1.0258432030677796e-01
               splits:
                  - { var:0, quality:7.7361151576042175e-02, le:2367. }
            -
               depth: 3
               value: 1.6427300870418549e-02
            -
               depth: 3
               value: 1.6002233326435089e-01
               splits:
                  - { var:0, quality:8.7191738188266754e-02, le:5439. }
            -
               depth: 4
               value: 1.1844850331544876e-01
               splits:
                  - { var:0, quality:2.8172461315989494e-02, le:3903. }
            -
               depth: 5
               value: 1.1095300316810608e-01
            -
               depth: 5
               value: 1.2594400346279144e-01
            -
               depth: 4
               value: 2.4316999316215515e-01
            -
               depth: 2
               value: 1.2868452538614688e+00
               splits:
                  - { var:0, quality:3.9064506530761719e+01, le:26239. }
            -
               depth: 3
               value: 1.0715582587502219e+00
               splits:
                  - { var:0, quality:1.2689615249633789e+01, le:21631. }
            -
               depth: 4
               value: 9.9132616519927974e-01
               splits:
                  - { var:0, quality:4.9374275207519531e+00, le:19711. }
            -
               depth: 5
               value: 8.5337102413177490e-01
            -
               depth: 5
               value: 1.0258149504661560e+00
            -
               depth: 4
               value: 1.1384183367093403e+00
               splits:
                  - { var:0, quality:7.7801532745361328e+00, le:22399. }
            -
               depth: 5
               value: 1.0794299840927124e+00
            -
               depth: 5
               value: 1.1502160072326659e+00
            -
               depth: 3
               value: 1.4841916660467784e+00
            -
               depth: 1
               value: 4.2977164279330859e-01
               splits:
                  - { var:0, quality:4.7903847694396973e+00, le:10111. }
            -
               depth: 2
               value: 2.1130877733230591e-01
            -
               depth: 2
               value: 5.8101516503554129e-01
               splits:
                  - { var:0, quality:4.6086907386779785e+00, le:15871. }
            -
               depth: 3
               value: 5.0973529815673824e-01
            -
               depth: 3
               value: 8.1861472129821777e-01
      -
         nodes:
            -
               depth: 0
               value: 6.3334203500999142e-01
               splits:
                  - { var:1, quality:2.4201509475708008e+01,
                      le:5.0000000000000000e-01 }
            -
               depth: 1
               value: 1.4757553046533409e-01
               splits:
                  - { var:0, quality:3.8507059216499329e-01, le:5439. }
            -
               depth: 2
               value: 8.8537770258780152e-02
               splits:
                  - { var:0, quality:8.4076181054115295e-02, le:3135. }
            -
               depth: 3
               value: 3.3713304243671395e-02
            -
               depth: 3
               value: 1.1595000326633453e-01
               splits:
                  - { var:0, quality:8.0966062843799591e-02, le:3903. }
            -
               depth: 4
               value: 1.1095300316810608e-01
            -
               depth: 4
               value: 1.2594400346279144e-01
            -
               depth: 2
               value: 2.8041049093008041e-01
               splits:
                  - { var:0, quality:3.2367753982543945e-01, le:8095. }
            -
               depth: 3
               value: 2.5278599063555401e-01
               splits:
                  - { var:0, quality:1.9184097647666931e-01, le:6975. }
            -
               depth: 4
               value: 2.4316999316215515e-01
            -
               depth: 4
               value: 2.5759398937225342e-01
            -
               depth: 3
               value: 3.6328399181365967e-01
            -
               depth: 1
               value: 8.0401675282297913e-01
               splits:
                  - { var:1, quality:3.0183567047119141e+01,
                      le:1.5000000000000000e+00 }
            -
               depth: 2
               value: 1.2267889380455017e+00
               splits:
                  - { var:0, quality:2.7685184478759766e+01, le:27775. }
            -
               depth: 3
               value: 1.1140354504952064e+00
               splits:
                  - { var:0, quality:1.6256317138671875e+01, le:22015. }
            -
               depth: 4
               value: 9.9132616519927974e-01
            -
               depth: 4
               value: 1.1907287538051605e+00
            -
               depth: 3
               value: 1.5199480056762695e+00
               splits:
                  - { var:0, quality:1.1694219589233398e+01, le:31615. }
            -
               depth: 4
               value: 1.4353875219821930e+00
               splits:
                  - { var:0, quality:8.2414979934692383e+00, le:28543. }
            -
               depth: 5
               value: 1.4248399734497070e+00
            -
               depth: 5
               value: 1.4389033714930217e+00
            -
               depth: 4
               value: 1.8581899404525757e+00
            -
               depth: 2
               value: 4.0349573524374710e-01
      -
         nodes:
            -
               depth: 0
               value: 7.0580268067074936e-01
               splits:
                  - { var:0, quality:3.7471733093261719e+01, le:17023. }
            -
               depth: 1
               value: 2.6146931807826540e-01
               splits:
                  - { var:0, quality:3.2787673473358154e+00, le:8351. }
            -
               depth: 2
               value: 9.6928496657508523e-02
               splits:
                  - { var:0, quality:2.3216205835342407e-01, le:1855. }
            -
               depth: 3
               value: 2.2737287833089277e-02
               splits:
                  - { var:1, quality:3.6849263124167919e-03, le:1. }
            -
               depth: 4
               value: 2.4679843033663929e-02
            -
               depth: 4
               value: 1.7880899831652641e-02
            -
               depth: 3
               value: 1.4414108409122986e-01
               splits:
                  - { var:1, quality:2.4105952680110931e-01, le:1. }
            -
               depth: 4
               value: 1.0718948245048524e-01
               splits:
                  - { var:0, quality:5.8023527264595032e-02, le:2879. }
            -
               depth: 5
               value: 9.4048701226711273e-02
            -
               depth: 5
               value: 1.1595000326633453e-01
            -
               depth: 4
               value: 1.7493408545851707e-01
               splits:
                  - { var:0, quality:2.0261836051940918e-01, le:6975. }
            -
               depth: 5
               value: 1.4976350218057632e-01
            -
               depth: 5
               value: 3.0078700184822083e-01
            -
               depth: 2
               value: 5.5764279663562777e-01
               splits:
                  - { var:0, quality:3.3266823291778564e+00, le:12799. }
            -
               depth: 3
               value: 3.7721524387598038e-01
               splits:
                  - { var:1, quality:5.7149434089660645e-01, le:1. }
            -
               depth: 4
               value: 3.6328399181365967e-01
            -
               depth: 4
               value: 4.1900900006294250e-01
            -
               depth: 3
               value: 6.7792783180872596e-01
            -
               depth: 1
               value: 1.2713178694248199e+00
               splits:
                  - { var:0, quality:3.6863670349121094e+01, le:27775. }
            -
               depth: 2
               value: 1.0276535424319180e+00
               splits:
                  - { var:1, quality:1.1737191200256348e+01,
                      le:1.5000000000000000e+00 }
            -
               depth: 3
               value: 1.0769724448521931e+00
               splits:
                  - { var:0, quality:1.0567392349243164e+01, le:20095. }
            -
               depth: 4
               value: 8.5337102413177490e-01
            -
               depth: 4
               value: 1.1408585650580270e+00
            -
               depth: 3
               value: 8.0571848154067993e-01
            -
               depth: 2
               value: 1.5149821964177219e+00
               splits:
                  - { var:1, quality:2.5664361953735352e+01,
                      le:1.5000000000000000e+00 }
            -
               depth: 3
               value: 1.5765879988670348e+00
            -
               depth: 3
               value: 8.9892417192459106e-01
      -
         nodes:
            -
               depth: 0
               value: 6.8362074714154009e-01
               splits:
                  - { var:1, quality:2.7381950378417969e+01,
                      le:5.0000000000000000e-01 }
            -
               depth: 1
               value: 1.1686976924538613e-01
               splits:
                  - { var:0, quality:2.3025803267955780e-01, le:5695. }
            -
               depth: 2
               value: 6.8477463908493519e-02
            -
               depth: 2
               value: 3.1043899059295654e-01
               splits:
                  - { var:0, quality:1.9832992553710938e-01, le:8095. }
            -
               depth: 3
               value: 2.5759398937225342e-01
            -
               depth: 3
               value: 3.6328399181365967e-01
            -
               depth: 1
               value: 8.2530849161557851e-01
               splits:
                  - { var:1, quality:3.6962688446044922e+01,
                      le:1.5000000000000000e+00 }
            -
               depth: 2
               value: 1.4289637431502342e+00
            -
               depth: 2
               value: 4.2287165725914139e-01
               splits:
                  - { var:0, quality:5.1270370483398438e+00, le:11647. }
            -
               depth: 3
               value: 2.6519634987094570e-01
            -
               depth: 3
               value: 6.4361708760261538e-01
               splits:
                  - { var:0, quality:4.3257007598876953e+00, le:16255. }
            -
               depth: 4
               value: 5.5499156032289776e-01
               splits:
                  - { var:0, quality:2.1922309398651123e+00, le:13951. }
            -
               depth: 5
               value: 4.9278099834918976e-01
            -
               depth: 5
               value: 6.3793897628784180e-01
            -
               depth: 4
               value: 8.5040998458862305e-01
      -
         nodes:
            -
               depth: 0
               value: 6.5021916665136814e-01
               splits:
                  - { var:0, quality:2.9330757141113281e+01, le:15103. }
            -
               depth: 1
               value: 2.9143830348870586e-01
               splits:
                  - { var:0, quality:3.0746619701385498e+00, le:8959. }
            -
               depth: 2
               value: 1.5485571813769639e-01
               splits:
                  - { var:1, quality:4.0008315443992615e-01, le:1. }
            -
               depth: 3
               value: 1.2284158635884523e-01
               splits:
                  - { var:0, quality:1.6409792006015778e-01, le:5439. }
            -
               depth: 4
               value: 8.0328118056058884e-02
               splits:
                  - { var:0, quality:4.4958066195249557e-02, le:3391. }
            -
               depth: 5
               value: 5.7520175352692604e-02
            -
               depth: 5
               value: 1.2594400346279144e-01
            -
               depth: 4
               value: 2.5038199126720428e-01
            -
               depth: 3
               value: 1.8686984991654754e-01
               splits:
                  - { var:0, quality:3.5551542043685913e-01, le:3135. }
            -
               depth: 4
               value: 1.7880899831652641e-02
            -
               depth: 4
               value: 2.4319949994484583e-01
               splits:
                  - { var:0, quality:3.7228924036026001e-01, le:6975. }
            -
               depth: 5
               value: 1.8932733436425528e-01
            -
               depth: 5
               value: 2.9707166552543640e-01
            -
               depth: 2
               value: 4.7354841729005176e-01
            -
               depth: 1
               value: 1.1068493561311201e+00
               splits:
                  - { var:0, quality:2.7887224197387695e+01, le:22015. }
            -
               depth: 2
               value: 9.1868798931439721e-01
               splits:
                  - { var:1, quality:1.0160422325134277e+01,
                      le:1.5000000000000000e+00 }
            -
               depth: 3
               value: 9.6271898065294537e-01
            -
               depth: 3
               value: 8.5704460144042971e-01
               splits:
                  - { var:0, quality:3.7239818572998047e+00, le:17791. }
            -
               depth: 4
               value: 7.3292201757431030e-01
            -
               depth: 4
               value: 9.3979299068450928e-01
            -
               depth: 2
               value: 1.3326429963111877e+00
      -
         nodes:
            -
               depth: 0
               value: 7.4246954069240023e-01
               splits:
                  - { var:1, quality:3.2532394409179688e+01,
                      le:5.0000000000000000e-01 }
            -
               depth: 1
               value: 1.4886057329237123e-01
               splits:
                  - { var:0, quality:3.2363161444664001e-01, le:5439. }
            -
               depth: 2
               value: 9.6677291483501904e-02
               splits:
                  - { var:0, quality:8.5327260196208954e-02, le:1087. }
            -
               depth: 3
               value: 5.7391298469156027e-04
            -
               depth: 3
               value: 1.1040634555476052e-01
            -
               depth: 2
               value: 2.8801599144935608e-01
               splits:
                  - { var:0, quality:2.5735753774642944e-01, le:8095. }
            -
               depth: 3
               value: 2.5038199126720428e-01
            -
               depth: 3
               value: 3.6328399181365967e-01
            -
               depth: 1
               value: 9.0989771098471606e-01
               splits:
                  - { var:1, quality:4.0262054443359375e+01,
                      le:1.5000000000000000e+00 }
            -
               depth: 2
               value: 1.3506064951419829e+00
               splits:
                  - { var:0, quality:3.7310554504394531e+01, le:27775. }
            -
               depth: 3
               value: 1.1665836355902932e+00
               splits:
                  - { var:0, quality:1.4995181083679199e+01, le:26239. }
            -
               depth: 4
               value: 1.1440700027677748e+00
               splits:
                  - { var:0, quality:1.1790809631347656e+01, le:22399. }
            -
               depth: 5
               value: 1.0794299840927124e+00
            -
               depth: 5
               value: 1.1625385795320784e+00
            -
               depth: 4
               value: 1.2678949832916260e+00
               splits:
                  - { var:0, quality:3.2231431007385254e+00, le:27007. }
            -
               depth: 5
               value: 1.3312499523162842e+00
            -
               depth: 5
               value: 1.2045400142669678e+00
            -
               depth: 3
               value: 1.5755233234829373e+00
               splits:
                  - { var:0, quality:2.2613014221191406e+01, le:31615. }
            -
               depth: 4
               value: 1.4524716734886169e+00
            -
               depth: 4
               value: 1.8216266234715779e+00
               splits:
                  - { var:0, quality:9.9629917144775391e+00, le:32383. }
            -
               depth: 5
               value: 1.8581899404525757e+00
            -
               depth: 5
               value: 1.7484999895095825e+00
            -
               depth: 2
               value: 4.4599372766127710e-01
      -
         nodes:
            -
               depth: 0
               value: 6.3902992048766460e-01
               splits:
                  - { var:1, quality:2.4628002166748047e+01,
                      le:5.0000000000000000e-01 }
            -
               depth: 1
               value: 1.4949090812856761e-01
               splits:
                  - { var:0, quality:4.4018712639808655e-01, le:5695. }
            -
               depth: 2
               value: 7.7958427033283650e-02
            -
               depth: 2
               value: 3.1043899059295654e-01
               splits:
                  - { var:0, quality:3.9665985107421875e-01, le:8095. }
            -
               depth: 3
               value: 2.5759398937225342e-01
            -
               depth: 3
               value: 3.6328399181365967e-01
            -
               depth: 1
               value: 8.1103011401923930e-01
               splits:
                  - { var:0, quality:3.1127065658569336e+01, le:18175. }
            -
               depth: 2
               value: 3.7092016802893746e-01
               splits:
                  - { var:0, quality:2.9768667221069336e+00, le:8735. }
            -
               depth: 3
               value: 1.8450762704014778e-01
               splits:
                  - { var:0, quality:3.0840024352073669e-01, le:6975. }
            -
               depth: 4
               value: 1.4574783543745676e-01
               splits:
                  - { var:0, quality:1.3532485067844391e-01, le:3903. }
            -
               depth: 5
               value: 9.4528503715991974e-02
            -
               depth: 5
               value: 1.7135750129818916e-01
            -
               depth: 4
               value: 3.0078700184822083e-01
            -
               depth: 3
               value: 5.2005020081996922e-01
               splits:
                  - { var:0, quality:2.7762527465820312e+00, le:12415. }
            -
               depth: 4
               value: 4.1632174700498581e-01
            -
               depth: 4
               value: 5.8920250336329139e-01
            -
               depth: 2
               value: 1.2279763786416305e+00
               splits:
                  - { var:1, quality:2.9005046844482422e+01,
                      le:1.5000000000000000e+00 }
            -
               depth: 3
               value: 1.2871193662285805e+00
               splits:
                  - { var:0, quality:2.7077962875366211e+01, le:27775. }
            -
               depth: 4
               value: 1.1407709956169128e+00
            -
               depth: 4
               value: 1.5310333172480266e+00
            -
               depth: 3
               value: 9.1254711151123047e-01
               splits:
                  - { var:0, quality:2.4993402957916260e+00, le:26623. }
            -
               depth: 4
               value: 9.3979299068450928e-01
            -
               depth: 4
               value: 8.9892417192459106e-01
      -
         nodes:
            -
               depth: 0
               value: 7.3263442218303676e-01
               splits:
                  - { var:1, quality:3.1197336196899414e+01,
                      le:5.0000000000000000e-01 }
            -
               depth: 1
               value: 1.4206336811184883e-01
               splits:
                  - { var:0, quality:2.9922899603843689e-01, le:5695. }
            -
               depth: 2
               value: 7.7451672937188826e-02
            -
               depth: 2
               value: 2.9282399018605548e-01
            -
               depth: 1
               value: 8.8027718570083380e-01
               splits:
                  - { var:0, quality:3.7683601379394531e+01, le:16255. }
            -
               depth: 2
               value: 3.2303553553564207e-01
               splits:
                  - { var:0, quality:1.8114867210388184e+00, le:9119. }
            -
               depth: 3
               value: 2.0509028020832273e-01
            -
               depth: 3
               value: 5.3533699512481692e-01
            -
               depth: 2
               value: 1.1803303819436293e+00
               splits:
                  - { var:0, quality:3.7230941772460938e+01, le:26239. }
            -
               depth: 3
               value: 1.0370464675566728e+00
               splits:
                  - { var:0, quality:1.8574050903320312e+01, le:19711. }
            -
               depth: 4
               value: 8.3431000709533687e-01
               splits:
                  - { var:0, quality:3.4834775924682617e+00, le:17791. }
            -
               depth: 5
               value: 7.8441697359085083e-01
            -
               depth: 5
               value: 8.4678326547145844e-01
            -
               depth: 4
               value: 1.1215199927488964e+00
               splits:
                  - { var:0, quality:1.5129790306091309e+01, le:22399. }
            -
               depth: 5
               value: 1.0439474582672119e+00
            -
               depth: 5
               value: 1.1603062599897385e+00
            -
               depth: 3
               value: 1.4509777757856581e+00
               splits:
                  - { var:0, quality:1.9047613143920898e+01, le:31999. }
            -
               depth: 4
               value: 1.4137874990701675e+00
               splits:
                  - { var:0, quality:1.6047119140625000e+01, le:27775. }
            -
               depth: 5
               value: 1.2678949832916260e+00
            -
               depth: 5
               value: 1.4624183376630147e+00
            -
               depth: 4
               value: 1.7484999895095825e+00
      -
         nodes:
            -
               depth: 0
               value: 6.1406757391989231e-01
               splits:
                  - { var:0, quality:2.6081615447998047e+01, le:15103. }
            -
               depth: 1
               value: 2.9053001632464343e-01
               splits:
                  - { var:0, quality:3.0833997726440430e+00, le:8575. }
            -
               depth: 2
               value: 1.7480024798876709e-01
               splits:
                  - { var:1, quality:5.5691486597061157e-01, le:1. }
            -
               depth: 3
               value: 1.5518929643763435e-01
            -
               depth: 3
               value: 1.9441119953989983e-01
               splits:
                  - { var:0, quality:4.2029473185539246e-01, le:2623. }
            -
               depth: 4
               value: 1.7880899831652641e-02
            -
               depth: 4
               value: 2.4484842802797044e-01
               splits:
                  - { var:0, quality:4.4602325558662415e-01, le:6719. }
            -
               depth: 5
               value: 1.7397899925708771e-01
            -
               depth: 5
               value: 2.9800049960613251e-01
            -
               depth: 2
               value: 4.7990600087425928e-01
               splits:
                  - { var:1, quality:2.5666534900665283e+00, le:1. }
            -
               depth: 3
               value: 3.6328399181365967e-01
            -
               depth: 3
               value: 5.0582200288772583e-01
            -
               depth: 1
               value: 1.0608575344085693e+00
               splits:
                  - { var:0, quality:2.4700048446655273e+01, le:23935. }
            -
               depth: 2
               value: 8.8409338089135980e-01
               splits:
                  - { var:1, quality:1.0292050361633301e+01,
                      le:1.5000000000000000e+00 }
            -
               depth: 3
               value: 9.9251031875610352e-01
            -
               depth: 3
               value: 7.9116457700729370e-01
               splits:
                  - { var:0, quality:4.4434428215026855e+00, le:18175. }
            -
               depth: 4
               value: 7.3171321153640745e-01
            -
               depth: 4
               value: 9.3979299068450928e-01
            -
               depth: 2
               value: 1.3480992838740349e+00
               splits:
                  - { var:0, quality:1.4769554138183594e+01, le:32767. }
            -
               depth: 3
               value: 1.4122671570096696e+00
               splits:
                  - { var:0, quality:1.4242841720581055e+01, le:27775. }
            -
               depth: 4
               value: 1.1807700395584106e+00
            -
               depth: 4
               value: 1.5858899950981140e+00
            -
               depth: 3
               value: 8.9892417192459106e-01
      -
         nodes:
            -
               depth: 0
               value: 5.9351290662540124e-01
               splits:
                  - { var:1, quality:2.1698869705200195e+01,
                      le:5.0000000000000000e-01 }
            -
               depth: 1
               value: 8.4809243242489174e-02
               splits:
                  - { var:0, quality:1.1920926719903946e-01, le:3391. }
            -
               depth: 2
               value: 4.7785614893655293e-02
               splits:
                  - { var:0, quality:2.8248677030205727e-02, le:1599. }
            -
               depth: 3
               value: 1.2463953898986802e-02
               splits:
                  - { var:0, quality:8.0989801790565252e-04, le:575. }
            -
               depth: 4
               value: 5.7391298469156027e-04
            -
               depth: 4
               value: 1.6427300870418549e-02
            -
               depth: 3
               value: 8.3107275888323784e-02
            -
               depth: 2
               value: 1.5885649994015694e-01
            -
               depth: 1
               value: 7.5415616874632085e-01
               splits:
                  - { var:0, quality:2.6203554153442383e+01, le:17791. }
            -
               depth: 2
               value: 4.4142114477498190e-01
               splits:
                  - { var:0, quality:4.6484308242797852e+00, le:10111. }
            -
               depth: 3
               value: 2.1119857047285354e-01
               splits:
                  - { var:0, quality:3.7149706482887268e-01, le:6943. }
            -
               depth: 4
               value: 1.3151400163769722e-01
            -
               depth: 4
               value: 3.1744466225306195e-01
            -
               depth: 3
               value: 5.5653243192604607e-01
               splits:
                  - { var:0, quality:4.4393634796142578e+00, le:13951. }
            -
               depth: 4
               value: 4.7068928394998821e-01
            -
               depth: 4
               value: 6.4237557990210392e-01
               splits:
                  - { var:0, quality:2.9107210636138916e+00, le:15487. }
            -
               depth: 5
               value: 6.0676140785217281e-01
            -
               depth: 5
               value: 7.3141101002693176e-01
            -
               depth: 2
               value: 1.1404759042403276e+00
               splits:
                  - { var:1, quality:2.2243904113769531e+01,
                      le:1.5000000000000000e+00 }
            -
               depth: 3
               value: 1.1726828018824260e+00
            -
               depth: 3
               value: 8.9892417192459106e-01
      -
         nodes:
            -
               depth: 0
               value: 7.4191431820392606e-01
               splits:
                  - { var:0, quality:3.6628974914550781e+01, le:17023. }
            -
               depth: 1
               value: 3.3187570824072909e-01
               splits:
                  - { var:1, quality:3.3109846115112305e+00, le:1. }
            -
               depth: 2
               value: 1.1578134128025599e-01
               splits:
                  - { var:0, quality:1.3927526772022247e-01, le:4671. }
            -
               depth: 3
               value: 6.4825880527496341e-02
            -
               depth: 3
               value: 2.4316999316215515e-01
            -
               depth: 2
               value: 4.1148942238406133e-01
               splits:
                  - { var:0, quality:3.7389209270477295e+00, le:12415. }
            -
               depth: 3
               value: 2.9890761237878066e-01
               splits:
                  - { var:0, quality:1.3242323398590088e+00, le:6943. }
            -
               depth: 4
               value: 1.3108000159263611e-01
               splits:
                  - { var:0, quality:7.4071913957595825e-02, le:4159. }
            -
               depth: 5
               value: 9.4528503715991974e-02
            -
               depth: 5
               value: 1.6763149946928024e-01
            -
               depth: 4
               value: 3.7349766161706710e-01
               splits:
                  - { var:0, quality:1.2871482372283936e+00, le:8959. }
            -
               depth: 5
               value: 2.8964099287986755e-01
            -
               depth: 5
               value: 4.1542599598566693e-01
            -
               depth: 3
               value: 6.5541667739550269e-01
               splits:
                  - { var:0, quality:2.6116192340850830e+00, le:15103. }
            -
               depth: 4
               value: 5.7992601394653320e-01
               splits:
                  - { var:0, quality:1.0111179351806641e+00, le:13951. }
            -
               depth: 5
               value: 5.4184401035308838e-01
            -
               depth: 5
               value: 5.9896701574325562e-01
            -
               depth: 4
               value: 7.3090734084447229e-01
            -
               depth: 1
               value: 1.1861228123307228e+00
               splits:
                  - { var:0, quality:3.4231372833251953e+01, le:21247. }
            -
               depth: 2
               value: 8.7451474368572235e-01
               splits:
                  - { var:1, quality:3.0699276924133301e+00,
                      le:1.5000000000000000e+00 }
            -
               depth: 3
               value: 9.0454733371734619e-01
            -
               depth: 3
               value: 7.8441697359085083e-01
            -
               depth: 2
               value: 1.2484444260597229e+00
               splits:
                  - { var:0, quality:3.1443746566772461e+01, le:32383. }
            -
               depth: 3
               value: 1.2872800098525152e+00
            -
               depth: 3
               value: 8.9892417192459106e-01
      -
         nodes:
            -
               depth: 0
               value: 7.6674497266067188e-01
               splits:
                  - { var:0, quality:3.9248825073242188e+01, le:18175. }
            -
               depth: 1
               value: 3.5701113312798377e-01
               splits:
                  - { var:0, quality:5.2228460311889648e+00, le:9727. }
            -
               depth: 2
               value: 1.2726031407558669e-01
               splits:
                  - { var:0, quality:4.0422037243843079e-01, le:5183. }
            -
               depth: 3
               value: 6.4729339220899754e-02
               splits:
                  - { var:0, quality:6.2989689409732819e-02, le:2879. }
            -
               depth: 4
               value: 2.8947035840246826e-02
            -
               depth: 4
               value: 1.0766810327768325e-01
               splits:
                  - { var:0, quality:5.8177914470434189e-02, le:3391. }
            -
               depth: 5
               value: 9.4528503715991974e-02
            -
               depth: 5
               value: 1.1095300316810608e-01
            -
               depth: 3
               value: 2.9922049492597580e-01
               splits:
                  - { var:1, quality:3.5819584131240845e-01, le:1. }
            -
               depth: 4
               value: 3.0322699248790741e-01
            -
               depth: 4
               value: 2.9521399736404419e-01
               splits:
                  - { var:0, quality:1.7436473071575165e-01, le:7967. }
            -
               depth: 5
               value: 3.0078700184822083e-01
            -
               depth: 5
               value: 2.8964099287986755e-01
            -
               depth: 2
               value: 6.4419965694348014e-01
               splits:
                  - { var:0, quality:5.0428280830383301e+00, le:13567. }
            -
               depth: 3
               value: 4.8229749500751495e-01
            -
               depth: 3
               value: 6.7658008933067326e-01
               splits:
                  - { var:0, quality:4.6081657409667969e+00, le:15487. }
            -
               depth: 4
               value: 6.3144364953041077e-01
            -
               depth: 4
               value: 7.4428474903106689e-01
               splits:
                  - { var:0, quality:2.2179865837097168e+00, le:17023. }
            -
               depth: 5
               value: 7.3090734084447229e-01
            -
               depth: 5
               value: 7.8441697359085083e-01
            -
               depth: 1
               value: 1.2477368712425232e+00
               splits:
                  - { var:1, quality:3.6043693542480469e+01,
                      le:1.5000000000000000e+00 }
            -
               depth: 2
               value: 1.2790109940937586e+00
            -
               depth: 2
               value: 9.1935858130455017e-01
               splits:
                  - { var:0, quality:1.6912754774093628e+00, le:26623. }
            -
               depth: 3
               value: 9.3979299068450928e-01
            -
               depth: 3
               value: 8.9892417192459106e-01
      -
         nodes:
            -
               depth: 0
               value: 6.9552972112549472e-01
               splits:
                  - { var:1, quality:2.7616479873657227e+01,
                      le:5.0000000000000000e-01 }
            -
               depth: 1
               value: 9.5544649564544670e-02
            -
               depth: 1
               value: 8.0981259189900900e-01
               splits:
                  - { var:1, quality:3.3888595581054688e+01,
                      le:1.5000000000000000e+00 }
            -
               depth: 2
               value: 1.2374574134224339e+00
            -
               depth: 2
               value: 4.5654078281444049e-01
      -
         nodes:
            -
               depth: 0
               value: 6.5220644191605970e-01
               splits:
                  - { var:0, quality:2.8623575210571289e+01, le:14719. }
            -
               depth: 1
               value: 2.5301171002502088e-01
               splits:
                  - { var:1, quality:1.7200134992599487e+00, le:1. }
            -
               depth: 2
               value: 1.1668794314443533e-01
            -
               depth: 2
               value: 3.0914502579937964e-01
            -
               depth: 1
               value: 1.0206938867385571e+00
               splits:
                  - { var:1, quality:2.7836835861206055e+01,
                      le:1.5000000000000000e+00 }
            -
               depth: 2
               value: 1.1549313589930534e+00
            -
               depth: 2
               value: 8.0591393113136289e-01
               splits:
                  - { var:0, quality:6.5437040328979492e+00, le:18943. }
            -
               depth: 3
               value: 7.6021399668284828e-01
               splits:
                  - { var:0, quality:4.0532202720642090e+00, le:17023. }
            -
               depth: 4
               value: 7.3141101002693176e-01
            -
               depth: 4
               value: 7.9861797889073693e-01
               splits:
                  - { var:0, quality:1.9145820140838623e+00, le:17791. }
            -
               depth: 5
               value: 7.8441697359085083e-01
            -
               depth: 5
               value: 8.2701998949050903e-01
            -
               depth: 3
               value: 9.1254711151123047e-01
               splits:
                  - { var:0, quality:2.4993402957916260e+00, le:26623. }
            -
               depth: 4
               value: 9.3979299068450928e-01
            -
               depth: 4
               value: 8.9892417192459106e-01
      -
         nodes:
            -
               depth: 0
               value: 8.8643326710909609e-01
               splits:
                  - { var:1, quality:4.5667198181152344e+01,
                      le:5.0000000000000000e-01 }
            -
               depth: 1
               value: 1.7206626608967782e-01
               splits:
                  - { var:0, quality:3.9786827564239502e-01, le:5183. }
            -
               depth: 2
               value: 7.1170140802860257e-02
            -
               depth: 2
               value: 2.7296239137649536e-01
               splits:
                  - { var:0, quality:3.8273981213569641e-01, le:8095. }
            -
               depth: 3
               value: 2.5038199126720428e-01
               splits:
                  - { var:0, quality:2.5097262859344482e-01, le:6975. }
            -
               depth: 4
               value: 2.4316999316215515e-01
            -
               depth: 4
               value: 2.5759398937225342e-01
            -
               depth: 3
               value: 3.6328399181365967e-01
            -
               depth: 1
               value: 1.0650250173639506e+00
               splits:
                  - { var:0, quality:5.3288322448730469e+01, le:18943. }
            -
               depth: 2
               value: 4.2386598985355634e-01
               splits:
                  - { var:0, quality:2.7913382053375244e+00, le:10111. }
            -
               depth: 3
               value: 2.2163198360552391e-01
            -
               depth: 3
               value: 5.9720942378044128e-01
               splits:
                  - { var:0, quality:2.5937225818634033e+00, le:13183. }
            -
               depth: 4
               value: 4.6120598912239075e-01
            -
               depth: 4
               value: 6.9921199977397919e-01
            -
               depth: 2
               value: 1.3737312157948811e+00
               splits:
                  - { var:0, quality:5.2441558837890625e+01, le:27775. }
            -
               depth: 3
               value: 1.1474487866674150e+00
               splits:
                  - { var:0, quality:1.8521896362304688e+01, le:24703. }
            -
               depth: 4
               value: 1.0677375623158045e+00
               splits:
                  - { var:1, quality:7.9995427131652832e+00,
                      le:1.5000000000000000e+00 }
            -
               depth: 5
               value: 1.0890616575876872e+00
            -
               depth: 5
               value: 9.3979299068450928e-01
            -
               depth: 4
               value: 1.2271600110190255e+00
            -
               depth: 3
               value: 1.6174199856244600e+00
      -
         nodes:
            -
               depth: 0
               value: 6.4212686721934009e-01
               splits:
                  - { var:1, quality:2.5545381546020508e+01,
                      le:5.0000000000000000e-01 }
            -
               depth: 1
               value: 1.3864568530282537e-01
            -
               depth: 1
               value: 8.3792510463131797e-01
               splits:
                  - { var:0, quality:3.2363613128662109e+01, le:18559. }
            -
               depth: 2
               value: 4.4106670320034025e-01
            -
               depth: 2
               value: 1.3339981064200401e+00
               splits:
                  - { var:0, quality:2.9295936584472656e+01, le:27775. }
            -
               depth: 3
               value: 1.1583079814910888e+00
            -
               depth: 3
               value: 1.6268149813016255e+00
               splits:
                  - { var:0, quality:1.6029417037963867e+01, le:31231. }
            -
               depth: 4
               value: 1.4685666561126709e+00
               splits:
                  - { var:0, quality:6.4729323387145996e+00, le:29311. }
            -
               depth: 5
               value: 1.4248399734497070e+00
            -
               depth: 5
               value: 1.4904299974441528e+00
            -
               depth: 4
               value: 1.7850633064905803e+00
      -
         nodes:
            -
               depth: 0
               value: 7.2658200790639971e-01
               splits:
                  - { var:0, quality:3.8546447753906250e+01, le:19711. }
            -
               depth: 1
               value: 3.7276607285479479e-01
               splits:
                  - { var:1, quality:5.6335897445678711e+00,
                      le:5.0000000000000000e-01 }
            -
               depth: 2
               value: 1.3701087459533787e-01
            -
               depth: 2
               value: 5.0748332900305593e-01
               splits:
                  - { var:0, quality:6.5919041633605957e+00, le:11647. }
            -
               depth: 3
               value: 2.0485086343251169e-01
            -
               depth: 3
               value: 6.9371869243108308e-01
               splits:
                  - { var:0, quality:6.4173970222473145e+00, le:15871. }
            -
               depth: 4
               value: 5.5286239981651308e-01
            -
               depth: 4
               value: 7.8175387531518936e-01
               splits:
                  - { var:1, quality:4.8949747085571289e+00,
                      le:1.5000000000000000e+00 }
            -
               depth: 5
               value: 8.5337102413177490e-01
            -
               depth: 5
               value: 7.7152285405567711e-01
            -
               depth: 1
               value: 1.4134011759477503e+00
      -
         nodes:
            -
               depth: 0
               value: 7.5583964329212905e-01
               splits:
                  - { var:1, quality:3.2922462463378906e+01,
                      le:5.0000000000000000e-01 }
            -
               depth: 1
               value: 1.2572637697060904e-01
            -
               depth: 1
               value: 8.9415718955782852e-01
               splits:
                  - { var:0, quality:4.1307746887207031e+01, le:20479. }
            -
               depth: 2
               value: 4.9070462608790916e-01
               splits:
                  - { var:1, quality:5.6756992340087891e+00,
                      le:1.5000000000000000e+00 }
            -
               depth: 3
               value: 8.5337102413177490e-01
            -
               depth: 3
               value: 4.7421978981318796e-01
               splits:
                  - { var:0, quality:6.2019057273864746e+00, le:12415. }
            -
               depth: 4
               value: 2.5623586572085816e-01
            -
               depth: 4
               value: 7.3580049872398379e-01
            -
               depth: 2
               value: 1.4096799095471699e+00
               splits:
                  - { var:1, quality:3.6356513977050781e+01,
                      le:1.5000000000000000e+00 }
            -
               depth: 3
               value: 1.4735243767499924e+00
               splits:
                  - { var:0, quality:3.5343517303466797e+01, le:26239. }
            -
               depth: 4
               value: 1.1372399926185608e+00
               splits:
                  - { var:0, quality:5.1777153015136719e+00, le:22399. }
            -
               depth: 5
               value: 1.0794299840927124e+00
            -
               depth: 5
               value: 1.1565099954605103e+00
            -
               depth: 4
               value: 1.5856191714604695e+00
            -
               depth: 3
               value: 8.9892417192459106e-01
      -
         nodes:
            -
               depth: 0
               value: 7.7635443311184649e-01
               splits:
                  - { var:1, quality:3.4364978790283203e+01,
                      le:1.5000000000000000e+00 }
            -
               depth: 1
               value: 1.0238272167485336e+00
               splits:
                  - { var:1, quality:3.6921527862548828e+01,
                      le:5.0000000000000000e-01 }
            -
               depth: 2
               value: 1.8303265316145761e-01
            -
               depth: 2
               value: 1.2913527597080579e+00
            -
               depth: 1
               value: 4.3460630332784994e-01
      -
         nodes:
            -
               depth: 0
               value: 7.9673040434718134e-01
               splits:
                  - { var:1, quality:3.6649925231933594e+01,
                      le:1.5000000000000000e+00 }
            -
               depth: 1
               value: 1.0634216237170944e+00
               splits:
                  - { var:0, quality:3.9930530548095703e+01, le:13951. }
            -
               depth: 2
               value: 1.8404804063694818e-01
               splits:
                  - { var:0, quality:3.3884012699127197e-01, le:5439. }
            -
               depth: 3
               value: 7.9649576917290688e-02
               splits:
                  - { var:0, quality:3.3948916941881180e-02, le:3391. }
            -
               depth: 4
               value: 3.3355150371789932e-02
            -
               depth: 4
               value: 1.2594400346279144e-01
            -
               depth: 3
               value: 3.2324599226315814e-01
            -
               depth: 2
               value: 1.3432223092425952e+00
               splits:
                  - { var:0, quality:4.0793354034423828e+01, le:27775. }
            -
               depth: 3
               value: 1.1571754492246187e+00
               splits:
                  - { var:0, quality:1.7525892257690430e+01, le:26239. }
            -
               depth: 4
               value: 1.1049530982971192e+00
            -
               depth: 4
               value: 1.3312499523162842e+00
            -
               depth: 3
               value: 1.6119566626018949e+00
               splits:
                  - { var:0, quality:2.3649370193481445e+01, le:31231. }
            -
               depth: 4
               value: 1.4588460206985474e+00
            -
               depth: 4
               value: 1.8033449649810791e+00
            -
               depth: 1
               value: 4.2844252997920629e-01
      -
         nodes:
            -
               depth: 0
               value: 7.4414055250585076e-01
               splits:
                  - { var:0, quality:3.7573509216308594e+01, le:17023. }
            -
               depth: 1
               value: 3.1692232807668358e-01
               splits:
                  - { var:1, quality:2.7807619571685791e+00, le:1. }
            -
               depth: 2
               value: 1.8396704005343573e-01
            -
               depth: 2
               value: 3.6590585524314329e-01
            -
               depth: 1
               value: 1.2069602956374486e+00
               splits:
                  - { var:0, quality:3.5578166961669922e+01, le:26239. }
            -
               depth: 2
               value: 1.0828541954358419e+00
               splits:
                  - { var:0, quality:1.7730978012084961e+01, le:20479. }
            -
               depth: 3
               value: 8.8800098498662317e-01
               splits:
                  - { var:0, quality:2.3817317485809326e+00, le:18559. }
            -
               depth: 4
               value: 7.8441697359085083e-01
            -
               depth: 4
               value: 9.3979299068450928e-01
            -
               depth: 3
               value: 1.1315674980481465e+00
               splits:
                  - { var:0, quality:1.5390044212341309e+01, le:23935. }
            -
               depth: 4
               value: 1.0778819799423218e+00
               splits:
                  - { var:0, quality:5.8128113746643066e+00, le:21631. }
            -
               depth: 5
               value: 1.0447299480438232e+00
            -
               depth: 5
               value: 1.0999833345413208e+00
            -
               depth: 4
               value: 1.1699142966951643e+00
               splits:
                  - { var:0, quality:9.5812873840332031e+00, le:24703. }
            -
               depth: 5
               value: 1.1580899953842163e+00
            -
               depth: 5
               value: 1.1746440172195434e+00
            -
               depth: 2
               value: 1.4138037959734600e+00
               splits:
                  - { var:1, quality:1.8287809371948242e+01,
                      le:1.5000000000000000e+00 }
            -
               depth: 3
               value: 1.4781637489795685e+00
            -
               depth: 3
               value: 8.9892417192459106e-01
      -
         nodes:
            -
               depth: 0
               value: 7.5639945760369298e-01
               splits:
                  - { var:0, quality:3.8209819793701172e+01, le:15487. }
            -
               depth: 1
               value: 2.4140379577875137e-01
               splits:
                  - { var:0, quality:1.9168832302093506e+00, le:9343. }
            -
               depth: 2
               value: 1.3984660664573312e-01
               splits:
                  - { var:1, quality:3.1356880068778992e-01, le:1. }
            -
               depth: 3
               value: 1.3344533648341894e-01
            -
               depth: 3
               value: 1.4624787680804729e-01
               splits:
                  - { var:0, quality:1.9652289152145386e-01, le:5439. }
            -
               depth: 4
               value: 1.1370600263277690e-01
               splits:
                  - { var:0, quality:8.1987649202346802e-02, le:3903. }
            -
               depth: 5
               value: 9.4528503715991974e-02
            -
               depth: 5
               value: 1.5206100046634674e-01
            -
               depth: 4
               value: 2.4387349933385849e-01
            -
               depth: 2
               value: 5.6638680100440975e-01
            -
               depth: 1
               value: 1.1293273506493404e+00
               splits:
                  - { var:1, quality:3.8462451934814453e+01,
                      le:1.5000000000000000e+00 }
            -
               depth: 2
               value: 1.2806879818439483e+00
            -
               depth: 2
               value: 7.9297039243910050e-01
      -
         nodes:
            -
               depth: 0
               value: 7.7258261983050036e-01
               splits:
                  - { var:0, quality:3.9034725189208984e+01, le:18943. }
            -
               depth: 1
               value: 4.0774811246705339e-01
               splits:
                  - { var:1, quality:5.9082131385803223e+00, le:1. }
            -
               depth: 2
               value: 1.4091739006107673e-01
            -
               depth: 2
               value: 5.4818533478598841e-01
               splits:
                  - { var:0, quality:6.7515392303466797e+00, le:9503. }
            -
               depth: 3
               value: 1.5633890181779861e-01
            -
               depth: 3
               value: 6.8813048941748478e-01
               splits:
                  - { var:0, quality:6.7534580230712891e+00, le:15487. }
            -
               depth: 4
               value: 5.7940282424290979e-01
            -
               depth: 4
               value: 7.6967623829841614e-01
               splits:
                  - { var:0, quality:4.7464265823364258e+00, le:17023. }
            -
               depth: 5
               value: 7.3090734084447229e-01
            -
               depth: 5
               value: 7.9293757677078247e-01
            -
               depth: 1
               value: 1.2764017014276414e+00
               splits:
                  - { var:0, quality:3.5446155548095703e+01, le:30079. }
            -
               depth: 2
               value: 1.1588674012352438e+00
               splits:
                  - { var:1, quality:2.2939336776733398e+01,
                      le:1.5000000000000000e+00 }
            -
               depth: 3
               value: 1.1880773226420085e+00
               splits:
                  - { var:0, quality:2.1302276611328125e+01, le:27775. }
            -
               depth: 4
               value: 1.1516522994408240e+00
               splits:
                  - { var:0, quality:1.7298601150512695e+01, le:22399. }
            -
               depth: 5
               value: 1.0526224672794342e+00
            -
               depth: 5
               value: 1.1956655581792195e+00
            -
               depth: 4
               value: 1.4248399734497070e+00
            -
               depth: 3
               value: 9.3979299068450928e-01
            -
               depth: 2
               value: 1.7759224772453308e+00
      -
         nodes:
            -
               depth: 0
               value: 7.0350763455033305e-01
               splits:
                  - { var:1, quality:2.7432922363281250e+01,
                      le:5.0000000000000000e-01 }
            -
               depth: 1
               value: 1.7236624658107758e-01
            -
               depth: 1
               value: 8.0467742273495313e-01
               splits:
                  - { var:0, quality:3.4067378997802734e+01, le:15871. }
            -
               depth: 2
               value: 2.8903577895835042e-01
               splits:
                  - { var:0, quality:1.6371688842773438e+00, le:9343. }
            -
               depth: 3
               value: 1.9663995572111823e-01
               splits:
                  - { var:0, quality:4.8641729354858398e-01, le:6975. }
            -
               depth: 4
               value: 1.4031193192516053e-01
            -
               depth: 4
               value: 2.9521399736404419e-01
               splits:
                  - { var:0, quality:3.4872946143150330e-01, le:7967. }
            -
               depth: 5
               value: 3.0078700184822083e-01
            -
               depth: 5
               value: 2.8964099287986755e-01
            -
               depth: 3
               value: 4.9230659008026123e-01
               splits:
                  - { var:0, quality:1.2383399009704590e+00, le:13567. }
            -
               depth: 4
               value: 4.5589849352836609e-01
            -
               depth: 4
               value: 6.3793897628784180e-01
            -
               depth: 2
               value: 1.1219953573667085e+00
               splits:
                  - { var:0, quality:3.3555046081542969e+01, le:22399. }
            -
               depth: 3
               value: 8.9676607847213741e-01
               splits:
                  - { var:0, quality:8.1669855117797852e+00, le:19327. }
            -
               depth: 4
               value: 7.8492159843444820e-01
               splits:
                  - { var:1, quality:3.0863661766052246e+00,
                      le:1.5000000000000000e+00 }
            -
               depth: 5
               value: 8.5337102413177490e-01
            -
               depth: 5
               value: 7.6780924201011658e-01
            -
               depth: 4
               value: 1.0086105585098266e+00
               splits:
                  - { var:1, quality:5.0923962593078613e+00,
                      le:1.5000000000000000e+00 }
            -
               depth: 5
               value: 1.0258149504661560e+00
            -
               depth: 5
               value: 9.3979299068450928e-01
            -
               depth: 3
               value: 1.2627636566758156e+00
               splits:
                  - { var:1, quality:2.5815732955932617e+01,
                      le:1.5000000000000000e+00 }
            -
               depth: 4
               value: 1.3147407259259904e+00
               splits:
                  - { var:0, quality:2.4625263214111328e+01, le:27007. }
            -
               depth: 5
               value: 1.1637337654829025e+00
            -
               depth: 5
               value: 1.5160833398501079e+00
            -
               depth: 4
               value: 8.9892417192459106e-01
      -
         nodes:
            -
               depth: 0
               value: 6.7037760582519690e-01
               splits:
                  - { var:0, quality:3.3509307861328125e+01, le:15871. }
            -
               depth: 1
               value: 2.7053362896649874e-01
               splits:
                  - { var:0, quality:2.9585235118865967e+00, le:8959. }
            -
               depth: 2
               value: 1.4735295811643531e-01
               splits:
                  - { var:1, quality:4.4113662838935852e-01, le:1. }
            -
               depth: 3
               value: 1.1055159069364891e-01
            -
               depth: 3
               value: 1.8824336636397573e-01
               splits:
                  - { var:0, quality:4.1328904032707214e-01, le:4415. }
            -
               depth: 4
               value: 4.3430101126432419e-02
               splits:
                  - { var:0, quality:9.5750913023948669e-03, le:1855. }
            -
               depth: 5
               value: 1.7880899831652641e-02
            -
               depth: 5
               value: 9.4528503715991974e-02
            -
               depth: 4
               value: 2.6064999898274738e-01
            -
               depth: 2
               value: 5.0457690358161922e-01
            -
               depth: 1
               value: 1.2225430976776850e+00
               splits:
                  - { var:1, quality:3.1811164855957031e+01,
                      le:1.5000000000000000e+00 }
            -
               depth: 2
               value: 1.2686616370552464e+00
               splits:
                  - { var:0, quality:3.1325267791748047e+01, le:28159. }
            -
               depth: 3
               value: 1.1341608487642729e+00
            -
               depth: 3
               value: 1.5600800116856892e+00
            -
               depth: 2
               value: 7.8441697359085083e-01
      -
         nodes:
            -
               depth: 0
               value: 6.7853698776569216e-01
               splits:
                  - { var:1, quality:2.7077304840087891e+01,
                      le:5.0000000000000000e-01 }
            -
               depth: 1
               value: 7.0582391150916621e-02
               splits:
                  - { var:0, quality:8.4181867539882660e-02, le:5439. }
            -
               depth: 2
               value: 4.7205941373249516e-02
            -
               depth: 2
               value: 2.5759398937225342e-01
            -
               depth: 1
               value: 8.1199043580308194e-01
               splits:
                  - { var:0, quality:3.5350440979003906e+01, le:18175. }
            -
               depth: 2
               value: 3.7242632306047846e-01
            -
               depth: 2
               value: 1.2735327541828156e+00
               splits:
                  - { var:1, quality:3.3064910888671875e+01,
                      le:1.5000000000000000e+00 }
            -
               depth: 3
               value: 1.3620762974023819e+00
               splits:
                  - { var:0, quality:3.0710824966430664e+01, le:27007. }
            -
               depth: 4
               value: 1.0748301403863090e+00
            -
               depth: 4
               value: 1.5854899750815497e+00
            -
               depth: 3
               value: 9.1935858130455017e-01
      -
         nodes:
            -
               depth: 0
               value: 7.1454664237797261e-01
               splits:
                  - { var:0, quality:3.7396400451660156e+01, le:17023. }
            -
               depth: 1
               value: 2.8270160313695669e-01
               splits:
                  - { var:0, quality:3.3861427307128906e+00, le:9343. }
            -
               depth: 2
               value: 1.3175371641086209e-01
               splits:
                  - { var:1, quality:3.1927174329757690e-01, le:1. }
            -
               depth: 3
               value: 1.0424818222721417e-01
            -
               depth: 3
               value: 1.4550648350268602e-01
               splits:
                  - { var:0, quality:3.2434254884719849e-01, le:4415. }
            -
               depth: 4
               value: 6.8979302421212196e-02
            -
               depth: 4
               value: 2.2203366458415985e-01
            -
               depth: 2
               value: 5.5440779924392702e-01
               splits:
                  - { var:0, quality:3.1705205440521240e+00, le:13567. }
            -
               depth: 3
               value: 4.7405833005905151e-01
               splits:
                  - { var:0, quality:1.3525942564010620e+00, le:11647. }
            -
               depth: 4
               value: 4.3661299347877502e-01
            -
               depth: 4
               value: 4.9278099834918976e-01
            -
               depth: 3
               value: 6.7493200302124023e-01
               splits:
                  - { var:0, quality:1.8348923921585083e+00, le:15487. }
            -
               depth: 4
               value: 6.1845299601554871e-01
               splits:
                  - { var:0, quality:7.6572763919830322e-01, le:14719. }
            -
               depth: 5
               value: 5.9896701574325562e-01
            -
               depth: 5
               value: 6.3793897628784180e-01
            -
               depth: 4
               value: 7.3141101002693176e-01
               splits:
                  - { var:0, quality:1.0699286460876465e+00, le:16255. }
            -
               depth: 5
               value: 7.3292201757431030e-01
            -
               depth: 5
               value: 7.2990000247955322e-01
            -
               depth: 1
               value: 1.2641676014119929e+00
               splits:
                  - { var:1, quality:3.5987873077392578e+01,
                      le:1.5000000000000000e+00 }
            -
               depth: 2
               value: 1.3556889957851834e+00
            -
               depth: 2
               value: 8.5232132673263550e-01
               splits:
                  - { var:0, quality:2.9144937992095947e+00, le:25855. }
            -
               depth: 3
               value: 8.0571848154067993e-01
               splits:
                  - { var:0, quality:1.2992720603942871e+00, le:17791. }
            -
               depth: 4
               value: 7.8441697359085083e-01
            -
               depth: 4
               value: 8.2701998949050903e-01
            -
               depth: 3
               value: 8.9892417192459106e-01
      -
         nodes:
            -
               depth: 0
               value: 6.8327319116098806e-01
               splits:
                  - { var:1, quality:2.6962829589843750e+01,
                      le:5.0000000000000000e-01 }
            -
               depth: 1
               value: 1.4514925949042662e-01
            -
               depth: 1
               value: 8.1780417407862838e-01
               splits:
                  - { var:1, quality:3.1159290313720703e+01,
                      le:1.5000000000000000e+00 }
            -
               depth: 2
               value: 1.2243356928229332e+00
            -
               depth: 2
               value: 5.4678316158242524e-01
               splits:
                  - { var:0, quality:7.9689173698425293e+00, le:13951. }
            -
               depth: 3
               value: 3.7951314434982264e-01
               splits:
                  - { var:0, quality:2.1490378379821777e+00, le:9343. }
            -
               depth: 4
               value: 1.6069622291252017e-01
            -
               depth: 4
               value: 4.7676510943306816e-01
               splits:
                  - { var:0, quality:2.0591552257537842e+00, le:12415. }
            -
               depth: 5
               value: 4.4946999351183575e-01
            -
               depth: 5
               value: 5.3135534127553308e-01
            -
               depth: 3
               value: 7.4446590922095557e-01
               splits:
                  - { var:0, quality:6.1482729911804199e+00, le:15103. }
            -
               depth: 4
               value: 5.9896701574325562e-01
            -
               depth: 4
               value: 7.7679899666044450e-01
      -
         nodes:
            -
               depth: 0
               value: 6.9334306502249088e-01
               splits:
                  - { var:1, quality:2.7906993865966797e+01,
                      le:5.0000000000000000e-01 }
            -
               depth: 1
               value: 9.9483123747631907e-02
            -
               depth: 1
               value: 8.2370256432672828e-01
               splits:
                  - { var:1, quality:3.4255867004394531e+01,
                      le:1.5000000000000000e+00 }
            -
               depth: 2
               value: 1.2716317110591464e+00
               splits:
                  - { var:0, quality:2.9709939956665039e+01, le:25855. }
            -
               depth: 3
               value: 1.0669826120138168e+00
               splits:
                  - { var:0, quality:9.1597633361816406e+00, le:20095. }
            -
               depth: 4
               value: 8.5337102413177490e-01
            -
               depth: 4
               value: 1.0974985531398229e+00
               splits:
                  - { var:0, quality:8.4432296752929688e+00, le:22399. }
            -
               depth: 5
               value: 1.0620799660682678e+00
            -
               depth: 5
               value: 1.1447233359018962e+00
            -
               depth: 3
               value: 1.4353509902954102e+00
            -
               depth: 2
               value: 4.7314931905787921e-01
      -
         nodes:
            -
               depth: 0
               value: 5.8795348979532713e-01
               splits:
                  - { var:1, quality:1.9630350112915039e+01,
                      le:5.0000000000000000e-01 }
            -
               depth: 1
               value: 1.2563740958770117e-01
            -
               depth: 1
               value: 6.8943750740187926e-01
               splits:
                  - { var:1, quality:2.2731344223022461e+01,
                      le:1.5000000000000000e+00 }
            -
               depth: 2
               value: 1.1846211075782775e+00
            -
               depth: 2
               value: 5.2970086218368617e-01
      -
         nodes:
            -
               depth: 0
               value: 7.6153108395636082e-01
               splits:
                  - { var:0, quality:4.1206295013427734e+01, le:17407. }
            -
               depth: 1
               value: 2.8675538602356726e-01
               splits:
                  - { var:1, quality:2.5223727226257324e+00, le:1. }
            -
               depth: 2
               value: 1.1963714410861333e-01
               splits:
                  - { var:0, quality:1.7277397215366364e-01, le:5439. }
            -
               depth: 3
               value: 8.2281473491873064e-02
            -
               depth: 3
               value: 2.5038199126720428e-01
               splits:
                  - { var:0, quality:1.2548631429672241e-01, le:6975. }
            -
               depth: 4
               value: 2.4316999316215515e-01
            -
               depth: 4
               value: 2.5759398937225342e-01
            -
               depth: 2
               value: 3.7522974939030762e-01
            -
               depth: 1
               value: 1.2758714233835537e+00
               splits:
                  - { var:0, quality:4.0045635223388672e+01, le:27775. }
            -
               depth: 2
               value: 1.0740788231293361e+00
               splits:
                  - { var:0, quality:1.3988595962524414e+01, le:21631. }
            -
               depth: 3
               value: 9.4408117532730107e-01
               splits:
                  - { var:1, quality:4.4696002006530762e+00,
                      le:1.5000000000000000e+00 }
            -
               depth: 4
               value: 1.0068999528884888e+00
            -
               depth: 4
               value: 9.0220199028650916e-01
            -
               depth: 3
               value: 1.1669342858450753e+00
               splits:
                  - { var:0, quality:9.5337991714477539e+00, le:26239. }
            -
               depth: 4
               value: 1.1606666644414265e+00
               splits:
                  - { var:0, quality:8.0831766128540039e+00, le:24703. }
            -
               depth: 5
               value: 1.1557199954986572e+00
            -
               depth: 5
               value: 1.1705600023269653e+00
            -
               depth: 4
               value: 1.2045400142669678e+00
            -
               depth: 2
               value: 1.4776640236377716e+00
               splits:
                  - { var:1, quality:2.7005746841430664e+01,
                      le:1.5000000000000000e+00 }
            -
               depth: 3
               value: 1.5934119939804077e+00
            -
               depth: 3
               value: 8.9892417192459106e-01
      -
         nodes:
            -
               depth: 0
               value: 7.2744666781276468e-01
               splits:
                  - { var:1, quality:3.4446338653564453e+01,
                      le:5.0000000000000000e-01 }
            -
               depth: 1
               value: 8.6524714316640577e-02
               splits:
                  - { var:0, quality:1.6206610202789307e-01, le:5439. }
            -
               depth: 2
               value: 6.0417167842388153e-02
               splits:
                  - { var:0, quality:5.8061409741640091e-02, le:1855. }
            -
               depth: 3
               value: 2.5946650654077530e-02
            -
               depth: 3
               value: 9.4887685030698776e-02
            -
               depth: 2
               value: 2.4316999316215515e-01
            -
               depth: 1
               value: 9.7669409417236841e-01
               splits:
                  - { var:1, quality:4.0441673278808594e+01,
                      le:1.5000000000000000e+00 }
            -
               depth: 2
               value: 1.3448770999908448e+00
               splits:
                  - { var:0, quality:3.7187984466552734e+01, le:27391. }
            -
               depth: 3
               value: 1.1411965435201472e+00
               splits:
                  - { var:0, quality:1.4528131484985352e+01, le:21247. }
            -
               depth: 4
               value: 8.5337102413177490e-01
            -
               depth: 4
               value: 1.2051577700508966e+00
            -
               depth: 3
               value: 1.5938200023439195e+00
            -
               depth: 2
               value: 5.1646533689927310e-01
               splits:
                  - { var:0, quality:5.7149424552917480e+00, le:12415. }
            -
               depth: 3
               value: 2.5123332089020145e-01
               splits:
                  - { var:0, quality:6.8285882472991943e-01, le:6975. }
            -
               depth: 4
               value: 1.5021838210523128e-01
            -
               depth: 4
               value: 3.7750199437141418e-01
               splits:
                  - { var:0, quality:5.9357178211212158e-01, le:9119. }
            -
               depth: 5
               value: 3.0078700184822083e-01
            -
               depth: 5
               value: 4.5421698689460754e-01
            -
               depth: 3
               value: 8.5747792891093666e-01
               splits:
                  - { var:0, quality:5.2248444557189941e+00, le:16255. }
            -
               depth: 4
               value: 5.9896701574325562e-01
            -
               depth: 4
               value: 9.0056308110555017e-01
               splits:
                  - { var:0, quality:4.8725733757019043e+00, le:18943. }
            -
               depth: 5
               value: 8.2701998949050903e-01
            -
               depth: 5
               value: 9.1527169942855835e-01
      -
         nodes:
            -
               depth: 0
               value: 7.8953347340226177e-01
               splits:
                  - { var:1, quality:3.6614452362060547e+01,
                      le:5.0000000000000000e-01 }
            -
               depth: 1
               value: 1.2945496961474418e-01
               splits:
                  - { var:0, quality:2.0863491296768188e-01, le:5695. }
            -
               depth: 2
               value: 9.7420214675366879e-02
               splits:
                  - { var:0, quality:8.1010773777961731e-02, le:3135. }
            -
               depth: 3
               value: 6.4871566991011306e-02
            -
               depth: 3
               value: 1.1694940328598022e-01
            -
               depth: 2
               value: 2.5759398937225342e-01
            -
               depth: 1
               value: 9.5455309934914112e-01
               splits:
                  - { var:1, quality:4.4054759979248047e+01,
                      le:1.5000000000000000e+00 }
            -
               depth: 2
               value: 1.3693824211756389e+00
            -
               depth: 2
               value: 4.9605753311985418e-01
      -
         nodes:
            -
               depth: 0
               value: 7.0042342339409513e-01
               splits:
                  - { var:0, quality:3.5179550170898438e+01, le:15487. }
            -
               depth: 1
               value: 2.0038228524018728e-01
               splits:
                  - { var:0, quality:1.3246684074401855e+00, le:6463. }
            -
               depth: 2
               value: 8.4553433322490976e-02
               splits:
                  - { var:1, quality:1.1269463598728180e-01, le:1. }
            -
               depth: 3
               value: 5.8565957924454577e-02
            -
               depth: 3
               value: 1.4302525296807289e-01
            -
               depth: 2
               value: 3.5095979273319244e-01
               splits:
                  - { var:0, quality:1.3317400217056274e+00, le:9727. }
            -
               depth: 3
               value: 2.8549042344093323e-01
               splits:
                  - { var:1, quality:5.7123762369155884e-01, le:1. }
            -
               depth: 4
               value: 2.7680449187755585e-01
               splits:
                  - { var:0, quality:3.1645449995994568e-01, le:8095. }
            -
               depth: 5
               value: 2.4797799189885458e-01
            -
               depth: 5
               value: 3.6328399181365967e-01
            -
               depth: 4
               value: 2.9707166552543640e-01
            -
               depth: 3
               value: 5.0372165441513062e-01
               splits:
                  - { var:0, quality:7.8822797536849976e-01, le:13183. }
            -
               depth: 4
               value: 4.3661299347877502e-01
            -
               depth: 4
               value: 6.3793897628784180e-01
            -
               depth: 1
               value: 1.1263843929326092e+00
               splits:
                  - { var:0, quality:3.5203594207763672e+01, le:20863. }
            -
               depth: 2
               value: 8.0972742182867863e-01
               splits:
                  - { var:0, quality:4.6093459129333496e+00, le:18943. }
            -
               depth: 3
               value: 7.8804982701937354e-01
            -
               depth: 3
               value: 9.3979299068450928e-01
            -
               depth: 2
               value: 1.2372143328189851e+00
               splits:
                  - { var:1, quality:3.1186187744140625e+01,
                      le:1.5000000000000000e+00 }
            -
               depth: 3
               value: 1.3217868730425835e+00
            -
               depth: 3
               value: 8.9892417192459106e-01
      -
         nodes:
            -
               depth: 0
               value: 5.0798172631068150e-01
               splits:
                  - { var:0, quality:2.1086904525756836e+01, le:15103. }
            -
               depth: 1
               value: 2.4311571856628039e-01
               splits:
                  - { var:1, quality:2.3999609947204590e+00, le:1. }
            -
               depth: 2
               value: 1.3077656492435683e-01
               splits:
                  - { var:0, quality:4.7098204493522644e-01, le:5439. }
            -
               depth: 3
               value: 4.6229852212127297e-02
               splits:
                  - { var:0, quality:3.1844709068536758e-02, le:3135. }
            -
               depth: 4
               value: 3.0049064473132603e-02
               splits:
                  - { var:0, quality:8.9393081143498421e-03, le:1343. }
            -
               depth: 5
               value: 1.1142838241842886e-02
            -
               depth: 5
               value: 4.1392800211906430e-02
            -
               depth: 4
               value: 1.1095300316810608e-01
            -
               depth: 3
               value: 2.9986999034881590e-01
               splits:
                  - { var:0, quality:4.6301451325416565e-01, le:8095. }
            -
               depth: 4
               value: 2.5759398937225342e-01
            -
               depth: 4
               value: 3.6328399181365967e-01
            -
               depth: 2
               value: 3.2737008379772303e-01
               splits:
                  - { var:0, quality:2.6410570144653320e+00, le:7199. }
            -
               depth: 3
               value: 1.1240767288420882e-01
            -
               depth: 3
               value: 4.4311907428961533e-01
               splits:
                  - { var:0, quality:2.6003701686859131e+00, le:10111. }
            -
               depth: 4
               value: 3.5219924896955490e-01
               splits:
                  - { var:0, quality:5.0139528512954712e-01, le:8959. }
            -
               depth: 5
               value: 2.8964099287986755e-01
            -
               depth: 5
               value: 3.7305200099945068e-01
            -
               depth: 4
               value: 4.8352788554297554e-01
               splits:
                  - { var:0, quality:2.1191849708557129e+00, le:13567. }
            -
               depth: 5
               value: 4.6909799426794052e-01
            -
               depth: 5
               value: 5.9896701574325562e-01
            -
               depth: 1
               value: 1.1260024110476177e+00
               splits:
                  - { var:1, quality:1.9733453750610352e+01,
                      le:1.5000000000000000e+00 }
            -
               depth: 2
               value: 1.2804080009460450e+00
            -
               depth: 2
               value: 8.1719123125076298e-01
               splits:
                  - { var:0, quality:3.3738014698028564e+00, le:18559. }
            -
               depth: 3
               value: 7.4907966454823816e-01
               splits:
                  - { var:0, quality:1.6852340698242188e+00, le:17023. }
            -
               depth: 4
               value: 7.3141101002693176e-01
            -
               depth: 4
               value: 7.8441697359085083e-01
            -
               depth: 3
               value: 9.1935858130455017e-01
               splits:
                  - { var:0, quality:1.6912754774093628e+00, le:26623. }
            -
               depth: 4
               value: 9.3979299068450928e-01
            -
               depth: 4
               value: 8.9892417192459106e-01
      -
         nodes:
            -
               depth: 0
               value: 8.5880322530865671e-01
               splits:
                  - { var:0, quality:4.4756549835205078e+01, le:17791. }
            -
               depth: 1
               value: 3.9230397379114512e-01
               splits:
                  - { var:1, quality:3.5527637004852295e+00, le:1. }
            -
               depth: 2
               value: 1.9687616328398386e-01
               splits:
                  - { var:0, quality:3.2837733626365662e-01, le:5183. }
            -
               depth: 3
               value: 7.0506334304809570e-02
               splits:
                  - { var:0, quality:1.7367329448461533e-02, le:3135. }
            -
               depth: 4
               value: 5.0282999873161316e-02
            -
               depth: 4
               value: 1.1095300316810608e-01
            -
               depth: 3
               value: 3.2324599226315814e-01
            -
               depth: 2
               value: 4.7047509799400966e-01
               splits:
                  - { var:0, quality:3.7795085906982422e+00, le:9343. }
            -
               depth: 3
               value: 1.8029212392866611e-01
            -
               depth: 3
               value: 5.7599617947231641e-01
            -
               depth: 1
               value: 1.1966130281316822e+00
               splits:
                  - { var:1, quality:4.2193176269531250e+01,
                      le:1.5000000000000000e+00 }
            -
               depth: 2
               value: 1.2659166951974232e+00
            -
               depth: 2
               value: 8.6395542621612553e-01
               splits:
                  - { var:0, quality:3.7423264980316162e+00, le:18943. }
            -
               depth: 3
               value: 8.2701998949050903e-01
            -
               depth: 3
               value: 9.1935858130455017e-01
      -
         nodes:
            -
               depth: 0
               value: 6.8172259674174707e-01
               splits:
                  - { var:0, quality:3.8046199798583984e+01, le:16255. }
            -
               depth: 1
               value: 2.1860931018479809e-01
               splits:
                  - { var:1, quality:1.7027486562728882e+00, le:1. }
            -
               depth: 2
               value: 7.4531761032994831e-02
               splits:
                  - { var:0, quality:9.2785142362117767e-02, le:5695. }
            -
               depth: 3
               value: 5.4191513439743884e-02
            -
               depth: 3
               value: 2.5759398937225342e-01
            -
               depth: 2
               value: 2.9443959921206297e-01
               splits:
                  - { var:0, quality:2.1604280471801758e+00, le:8735. }
            -
               depth: 3
               value: 1.5427849424833601e-01
            -
               depth: 3
               value: 4.8716111853718758e-01
               splits:
                  - { var:0, quality:1.9245892763137817e+00, le:13951. }
            -
               depth: 4
               value: 4.6562142457280842e-01
               splits:
                  - { var:0, quality:1.5276204347610474e+00, le:10879. }
            -
               depth: 5
               value: 3.7305200099945068e-01
            -
               depth: 5
               value: 4.8104966183503467e-01
            -
               depth: 4
               value: 6.3793897628784180e-01
            -
               depth: 1
               value: 1.3212599924632482e+00
               splits:
                  - { var:1, quality:3.7436237335205078e+01,
                      le:1.5000000000000000e+00 }
            -
               depth: 2
               value: 1.3997349937756856e+00
               splits:
                  - { var:0, quality:3.5969089508056641e+01, le:27775. }
            -
               depth: 3
               value: 1.1520971230098180e+00
               splits:
                  - { var:0, quality:9.3359470367431641e+00, le:22015. }
            -
               depth: 4
               value: 1.0258149504661560e+00
               splits:
                  - { var:0, quality:2.1053082942962646e+00, le:20863. }
            -
               depth: 5
               value: 1.0068999528884888e+00
            -
               depth: 5
               value: 1.0447299480438232e+00
            -
               depth: 4
               value: 1.2026099920272828e+00
               splits:
                  - { var:0, quality:7.2455611228942871e+00, le:25855. }
            -
               depth: 5
               value: 1.1590866645177205e+00
            -
               depth: 5
               value: 1.2678949832916260e+00
            -
               depth: 3
               value: 1.5573227297176013e+00
               splits:
                  - { var:0, quality:2.6891740798950195e+01, le:31615. }
            -
               depth: 4
               value: 1.4719200134277344e+00
               splits:
                  - { var:0, quality:1.7336784362792969e+01, le:29311. }
            -
               depth: 5
               value: 1.4313150048255920e+00
            -
               depth: 5
               value: 1.4854550162951152e+00
            -
               depth: 4
               value: 1.7850633064905803e+00
               splits:
                  - { var:0, quality:9.5673742294311523e+00, le:32383. }
            -
               depth: 5
               value: 1.8581899404525757e+00
            -
               depth: 5
               value: 1.7484999895095825e+00
            -
               depth: 2
               value: 8.5040998458862305e-01
               splits:
                  - { var:0, quality:2.1815752983093262e+00, le:18943. }
            -
               depth: 3
               value: 8.0571848154067993e-01
               splits:
                  - { var:0, quality:1.2992720603942871e+00, le:17791. }
            -
               depth: 4
               value: 7.8441697359085083e-01
            -
               depth: 4
               value: 8.2701998949050903e-01
            -
               depth: 3
               value: 9.3979299068450928e-01
      -
         nodes:
            -
               depth: 0
               value: 6.5182617489947003e-01
               splits:
                  - { var:1, quality:2.7311805725097656e+01,
                      le:5.0000000000000000e-01 }
            -
               depth: 1
               value: 1.1968857263370107e-01
               splits:
                  - { var:0, quality:3.5577958822250366e-01, le:5439. }
            -
               depth: 2
               value: 6.1244238707744938e-02
            -
               depth: 2
               value: 2.8041049093008041e-01
               splits:
                  - { var:0, quality:3.2367753982543945e-01, le:8095. }
            -
               depth: 3
               value: 2.5278599063555401e-01
               splits:
                  - { var:0, quality:1.9184097647666931e-01, le:6975. }
            -
               depth: 4
               value: 2.4316999316215515e-01
            -
               depth: 4
               value: 2.5759398937225342e-01
            -
               depth: 3
               value: 3.6328399181365967e-01
            -
               depth: 1
               value: 8.7988514729908529e-01
               splits:
                  - { var:0, quality:3.1601873397827148e+01, le:18943. }
            -
               depth: 2
               value: 5.3122761514451766e-01
            -
               depth: 2
               value: 1.2490519460509806e+00
               splits:
                  - { var:0, quality:2.7154922485351562e+01, le:26239. }
            -
               depth: 3
               value: 1.0671665536032782e+00
               splits:
                  - { var:1, quality:1.0322607994079590e+01,
                      le:1.5000000000000000e+00 }
            -
               depth: 4
               value: 1.1308533350626628e+00
               splits:
                  - { var:0, quality:7.6952271461486816e+00, le:22015. }
            -
               depth: 5
               value: 1.0447299480438232e+00
            -
               depth: 5
               value: 1.1739150285720825e+00
            -
               depth: 4
               value: 9.3979299068450928e-01
            -
               depth: 3
               value: 1.4536730125546455e+00
               splits:
                  - { var:0, quality:1.7257032394409180e+01, le:33151. }
            -
               depth: 4
               value: 1.5329228469303675e+00
            -
               depth: 4
               value: 8.9892417192459106e-01
      -
         nodes:
            -
               depth: 0
               value: 9.0135665681213140e-01
               splits:
                  - { var:1, quality:5.0874687194824219e+01,
                      le:1.5000000000000000e+00 }
            -
               depth: 1
               value: 1.3726712316274643e+00
            -
               depth: 1
               value: 4.6629704929028565e-01
      -
         nodes:
            -
               depth: 0
               value: 7.3884981088340285e-01
               splits:
                  - { var:0, quality:4.0547790527343750e+01, le:17791. }
            -
               depth: 1
               value: 2.8249592107853722e-01
               splits:
                  - { var:1, quality:2.5226781368255615e+00, le:1. }
            -
               depth: 2
               value: 1.4638909697532654e-01
               splits:
                  - { var:0, quality:2.9148116707801819e-01, le:5439. }
            -
               depth: 3
               value: 7.4656501412391663e-02
            -
               depth: 3
               value: 2.5398799031972885e-01
            -
               depth: 2
               value: 3.5811082335809868e-01
               splits:
                  - { var:0, quality:3.2741897106170654e+00, le:11263. }
            -
               depth: 3
               value: 1.7332780056379057e-01
               splits:
                  - { var:0, quality:4.2061701416969299e-01, le:6975. }
            -
               depth: 4
               value: 1.1789072630926967e-01
               splits:
                  - { var:0, quality:1.4162711799144745e-01, le:4159. }
            -
               depth: 5
               value: 5.6204701773822308e-02
            -
               depth: 5
               value: 1.7957675084471703e-01
            -
               depth: 4
               value: 3.2115999857584637e-01
            -
               depth: 3
               value: 6.4848414489201134e-01
            -
               depth: 1
               value: 1.3196638524532318e+00
               splits:
                  - { var:0, quality:3.9783012390136719e+01, le:27391. }
            -
               depth: 2
               value: 1.1046049915827238e+00
               splits:
                  - { var:0, quality:1.6184368133544922e+01, le:20863. }
            -
               depth: 3
               value: 8.6838875710964203e-01
               splits:
                  - { var:0, quality:3.0231943130493164e+00, le:19327. }
            -
               depth: 4
               value: 8.4458734591801965e-01
               splits:
                  - { var:1, quality:2.1404461860656738e+00,
                      le:1.5000000000000000e+00 }
            -
               depth: 5
               value: 8.5337102413177490e-01
            -
               depth: 5
               value: 8.2701998949050903e-01
            -
               depth: 4
               value: 9.3979299068450928e-01
            -
               depth: 3
               value: 1.2095899846818712e+00
            -
               depth: 2
               value: 1.6303044292661879e+00
               splits:
                  - { var:0, quality:2.4210367202758789e+01, le:31615. }
            -
               depth: 3
               value: 1.4699340105056762e+00
            -
               depth: 3
               value: 1.8307674527168274e+00
      -
         nodes:
            -
               depth: 0
               value: 8.2184662812855092e-01
