%YAML:1.0
---
opencv_ml_rtrees:
   format: 3
   is_classifier: 0
   var_all: 3
   var_count: 2
   ord_var_count: 3
   cat_var_count: 0
   training_params:
      use_surrogates: 0
      max_categories: 10
      regression_accuracy: 9.9999999747524271e-07
      max_depth: 5
      min_sample_count: 1
      cross_validation_folds: 0
      nactive_vars: 0
   global_var_idx: 1
   var_idx: [ 0, 1 ]
   var_type: [ 0, 0, 0 ]
   cat_ofs: [ 0, 0, 0, 0 ]
   missing_subst: [ 0., 0., 0. ]
   oob_error: 6.1187178847131075e-04
   ntrees: 1
   trees:
      -
         nodes:
            -
               depth: 0
               value: 1.3465659543871879e-02
               splits:
                  - { var:1, quality:9.2760846018791199e-03,
                      le:5.0000000000000000e-01 }
            -
               depth: 1
               value: 1.5685509852356398e-02
               splits:
                  - { var:0, quality:1.0332367382943630e-02, le:9561996. }
            -
               depth: 2
               value: 1.2646385005527091e-02
               splits:
                  - { var:0, quality:5.4781418293714523e-03,
                      le:4.9499985000000000e+06 }
            -
               depth: 3
               value: 2.3075998120475560e-03
            -
               depth: 3
               value: 2.1262039333426703e-02
               splits:
                  - { var:0, quality:1.7725169658660889e-02, le:5606315. }
            -
               depth: 4
               value: 9.2851951718330383e-02
            -
               depth: 4
               value: 6.9440568564459685e-03
            -
               depth: 2
               value: 8.2546256482601166e-02
            -
               depth: 1
               value: 1.1574675947755438e-02
               splits:
                  - { var:0, quality:7.4014393612742424e-03, le:7182632. }
            -
               depth: 2
               value: 2.4948256494313039e-03
               splits:
                  - { var:0, quality:1.2508900545071810e-04,
                      le:3.2607925000000000e+06 }
            -
               depth: 3
               value: 1.6038624045904726e-03
               splits:
                  - { var:0, quality:2.6839152269531041e-05,
                      le:1.7118515000000000e+06 }
            -
               depth: 4
               value: 1.1948257597396150e-03
               splits:
                  - { var:0, quality:5.8829223235079553e-06, le:1052559. }
            -
               depth: 5
               value: 8.3515100413933396e-04
            -
               depth: 5
               value: 1.3147173449397087e-03
            -
               depth: 4
               value: 1.8765535011577110e-03
               splits:
                  - { var:0, quality:2.1305095287971199e-05, le:2193757. }
            -
               depth: 5
               value: 1.6340819420292974e-03
            -
               depth: 5
               value: 1.9977892807219177e-03
            -
               depth: 3
               value: 3.7676302849182059e-03
            -
               depth: 2
               value: 2.7010421454906463e-02
               splits:
                  - { var:0, quality:1.1945832520723343e-02,
                      le:7.9876145000000000e+06 }
            -
               depth: 3
               value: 5.3421225398778915e-02
            -
               depth: 3
               value: 9.4032188256581630e-03
               splits:
                  - { var:0, quality:5.3184502758085728e-04, le:8663732. }
            -
               depth: 4
               value: 8.7394267320632935e-03
            -
               depth: 4
               value: 9.7351148724555969e-03
               splits:
                  - { var:0, quality:3.7908993544988334e-04, le:9375717. }
            -
               depth: 5
               value: 9.7396401688456535e-03
            -
               depth: 5
               value: 9.7305895760655403e-03
